digraph Tree {
node [shape=box, style="filled, rounded", color="black", fontname="helvetica"] ;
edge [fontname="helvetica"] ;
0 [label="NA2O(WT%) <= 2.515\ngini = 0.554\nsamples = 2327\nvalue = [1484, 146, 30, 2, 142, 402, 66, 45, 10]\nclass = 1.0", fillcolor="#f0b890"] ;
1 [label="AL2O3(WT%) <= 14.325\ngini = 0.4\nsamples = 1580\nvalue = [1208, 98, 15, 2, 57, 155, 20, 23, 2]\nclass = 1.0", fillcolor="#eca26d"] ;
0 -> 1 [labeldistance=2.5, labelangle=45, headlabel="True"] ;
2 [label="SIO2(WT%) <= 44.695\ngini = 0.344\nsamples = 1437\nvalue = [1154, 91, 9, 0, 52, 105, 17, 8, 1]\nclass = 1.0", fillcolor="#eb9c63"] ;
1 -> 2 ;
3 [label="AL2O3(WT%) <= 4.12\ngini = 0.722\nsamples = 90\nvalue = [27, 13, 0, 0, 3, 35, 11, 0, 1]\nclass = 2.0", fillcolor="#e6ebfc"] ;
2 -> 3 ;
4 [label="AL2O3(WT%) <= 1.17\ngini = 0.142\nsamples = 13\nvalue = [0, 0, 0, 0, 0, 12, 1, 0, 0]\nclass = 2.0", fillcolor="#4971e7"] ;
3 -> 4 ;
5 [label="CAO(WT%) <= 0.68\ngini = 0.5\nsamples = 2\nvalue = [0, 0, 0, 0, 0, 1, 1, 0, 0]\nclass = 2.0", fillcolor="#ffffff"] ;
4 -> 5 ;
6 [label="gini = 0.0\nsamples = 1\nvalue = [0, 0, 0, 0, 0, 1, 0, 0, 0]\nclass = 2.0", fillcolor="#3964e5"] ;
5 -> 6 ;
7 [label="gini = 0.0\nsamples = 1\nvalue = [0, 0, 0, 0, 0, 0, 1, 0, 0]\nclass = 5.0", fillcolor="#8139e5"] ;
5 -> 7 ;
8 [label="gini = 0.0\nsamples = 11\nvalue = [0, 0, 0, 0, 0, 11, 0, 0, 0]\nclass = 2.0", fillcolor="#3964e5"] ;
4 -> 8 ;
9 [label="K2O(WT%) <= 0.45\ngini = 0.741\nsamples = 77\nvalue = [27, 13, 0, 0, 3, 23, 10, 0, 1]\nclass = 1.0", fillcolor="#fdf6f0"] ;
3 -> 9 ;
10 [label="FeO* <= 11.668\ngini = 0.548\nsamples = 40\nvalue = [25, 9, 0, 0, 1, 4, 1, 0, 0]\nclass = 1.0", fillcolor="#f2be99"] ;
9 -> 10 ;
11 [label="CAO(WT%) <= 3.99\ngini = 0.124\nsamples = 15\nvalue = [14, 0, 0, 0, 1, 0, 0, 0, 0]\nclass = 1.0", fillcolor="#e78a47"] ;
10 -> 11 ;
12 [label="AL2O3(WT%) <= 5.025\ngini = 0.5\nsamples = 2\nvalue = [1, 0, 0, 0, 1, 0, 0, 0, 0]\nclass = 1.0", fillcolor="#ffffff"] ;
11 -> 12 ;
13 [label="gini = 0.0\nsamples = 1\nvalue = [1, 0, 0, 0, 0, 0, 0, 0, 0]\nclass = 1.0", fillcolor="#e58139"] ;
12 -> 13 ;
14 [label="gini = 0.0\nsamples = 1\nvalue = [0, 0, 0, 0, 1, 0, 0, 0, 0]\nclass = 4.0", fillcolor="#39d7e5"] ;
12 -> 14 ;
15 [label="gini = 0.0\nsamples = 13\nvalue = [13, 0, 0, 0, 0, 0, 0, 0, 0]\nclass = 1.0", fillcolor="#e58139"] ;
11 -> 15 ;
16 [label="K2O(WT%) <= 0.21\ngini = 0.65\nsamples = 25\nvalue = [11, 9, 0, 0, 0, 4, 1, 0, 0]\nclass = 1.0", fillcolor="#fcefe6"] ;
10 -> 16 ;
17 [label="NA2O(WT%) <= 0.855\ngini = 0.486\nsamples = 12\nvalue = [1, 8, 0, 0, 0, 3, 0, 0, 0]\nclass = 3.0", fillcolor="#e9f191"] ;
16 -> 17 ;
18 [label="AL2O3(WT%) <= 4.465\ngini = 0.444\nsamples = 3\nvalue = [1, 0, 0, 0, 0, 2, 0, 0, 0]\nclass = 2.0", fillcolor="#9cb2f2"] ;
17 -> 18 ;
19 [label="gini = 0.0\nsamples = 1\nvalue = [1, 0, 0, 0, 0, 0, 0, 0, 0]\nclass = 1.0", fillcolor="#e58139"] ;
18 -> 19 ;
20 [label="gini = 0.0\nsamples = 2\nvalue = [0, 0, 0, 0, 0, 2, 0, 0, 0]\nclass = 2.0", fillcolor="#3964e5"] ;
18 -> 20 ;
21 [label="NA2O(WT%) <= 1.355\ngini = 0.198\nsamples = 9\nvalue = [0, 8, 0, 0, 0, 1, 0, 0, 0]\nclass = 3.0", fillcolor="#dce852"] ;
17 -> 21 ;
22 [label="gini = 0.0\nsamples = 8\nvalue = [0, 8, 0, 0, 0, 0, 0, 0, 0]\nclass = 3.0", fillcolor="#d7e539"] ;
21 -> 22 ;
23 [label="gini = 0.0\nsamples = 1\nvalue = [0, 0, 0, 0, 0, 1, 0, 0, 0]\nclass = 2.0", fillcolor="#3964e5"] ;
21 -> 23 ;
24 [label="K2O(WT%) <= 0.325\ngini = 0.391\nsamples = 13\nvalue = [10, 1, 0, 0, 0, 1, 1, 0, 0]\nclass = 1.0", fillcolor="#eca06b"] ;
16 -> 24 ;
25 [label="NA2O(WT%) <= 2.0\ngini = 0.165\nsamples = 11\nvalue = [10, 0, 0, 0, 0, 1, 0, 0, 0]\nclass = 1.0", fillcolor="#e88e4d"] ;
24 -> 25 ;
26 [label="gini = 0.0\nsamples = 10\nvalue = [10, 0, 0, 0, 0, 0, 0, 0, 0]\nclass = 1.0", fillcolor="#e58139"] ;
25 -> 26 ;
27 [label="gini = 0.0\nsamples = 1\nvalue = [0, 0, 0, 0, 0, 1, 0, 0, 0]\nclass = 2.0", fillcolor="#3964e5"] ;
25 -> 27 ;
28 [label="TIO2(WT%) <= 2.56\ngini = 0.5\nsamples = 2\nvalue = [0, 1, 0, 0, 0, 0, 1, 0, 0]\nclass = 3.0", fillcolor="#ffffff"] ;
24 -> 28 ;
29 [label="gini = 0.0\nsamples = 1\nvalue = [0, 1, 0, 0, 0, 0, 0, 0, 0]\nclass = 3.0", fillcolor="#d7e539"] ;
28 -> 29 ;
30 [label="gini = 0.0\nsamples = 1\nvalue = [0, 0, 0, 0, 0, 0, 1, 0, 0]\nclass = 5.0", fillcolor="#8139e5"] ;
28 -> 30 ;
31 [label="MGO(WT%) <= 11.6\ngini = 0.659\nsamples = 37\nvalue = [2, 4, 0, 0, 2, 19, 9, 0, 1]\nclass = 2.0", fillcolor="#b8c8f6"] ;
9 -> 31 ;
32 [label="FeO* <= 13.182\ngini = 0.204\nsamples = 18\nvalue = [1, 1, 0, 0, 0, 16, 0, 0, 0]\nclass = 2.0", fillcolor="#5076e8"] ;
31 -> 32 ;
33 [label="gini = 0.0\nsamples = 16\nvalue = [0, 0, 0, 0, 0, 16, 0, 0, 0]\nclass = 2.0", fillcolor="#3964e5"] ;
32 -> 33 ;
34 [label="K2O(WT%) <= 0.635\ngini = 0.5\nsamples = 2\nvalue = [1, 1, 0, 0, 0, 0, 0, 0, 0]\nclass = 1.0", fillcolor="#ffffff"] ;
32 -> 34 ;
35 [label="gini = 0.0\nsamples = 1\nvalue = [0, 1, 0, 0, 0, 0, 0, 0, 0]\nclass = 3.0", fillcolor="#d7e539"] ;
34 -> 35 ;
36 [label="gini = 0.0\nsamples = 1\nvalue = [1, 0, 0, 0, 0, 0, 0, 0, 0]\nclass = 1.0", fillcolor="#e58139"] ;
34 -> 36 ;
37 [label="SIO2(WT%) <= 42.295\ngini = 0.709\nsamples = 19\nvalue = [1, 3, 0, 0, 2, 3, 9, 0, 1]\nclass = 5.0", fillcolor="#d0b5f5"] ;
31 -> 37 ;
38 [label="NA2O(WT%) <= 1.06\ngini = 0.198\nsamples = 9\nvalue = [0, 0, 0, 0, 0, 1, 8, 0, 0]\nclass = 5.0", fillcolor="#9152e8"] ;
37 -> 38 ;
39 [label="gini = 0.0\nsamples = 1\nvalue = [0, 0, 0, 0, 0, 1, 0, 0, 0]\nclass = 2.0", fillcolor="#3964e5"] ;
38 -> 39 ;
40 [label="gini = 0.0\nsamples = 8\nvalue = [0, 0, 0, 0, 0, 0, 8, 0, 0]\nclass = 5.0", fillcolor="#8139e5"] ;
38 -> 40 ;
41 [label="FeO* <= 12.667\ngini = 0.8\nsamples = 10\nvalue = [1, 3, 0, 0, 2, 2, 1, 0, 1]\nclass = 3.0", fillcolor="#fafce6"] ;
37 -> 41 ;
42 [label="K2O(WT%) <= 0.575\ngini = 0.776\nsamples = 7\nvalue = [1, 0, 0, 0, 2, 2, 1, 0, 1]\nclass = 4.0", fillcolor="#ffffff"] ;
41 -> 42 ;
43 [label="gini = 0.0\nsamples = 2\nvalue = [0, 0, 0, 0, 2, 0, 0, 0, 0]\nclass = 4.0", fillcolor="#39d7e5"] ;
42 -> 43 ;
44 [label="NA2O(WT%) <= 2.35\ngini = 0.72\nsamples = 5\nvalue = [1, 0, 0, 0, 0, 2, 1, 0, 1]\nclass = 2.0", fillcolor="#ced8f8"] ;
42 -> 44 ;
45 [label="TIO2(WT%) <= 2.145\ngini = 0.667\nsamples = 3\nvalue = [1, 0, 0, 0, 0, 0, 1, 0, 1]\nclass = 1.0", fillcolor="#ffffff"] ;
44 -> 45 ;
46 [label="gini = 0.0\nsamples = 1\nvalue = [0, 0, 0, 0, 0, 0, 1, 0, 0]\nclass = 5.0", fillcolor="#8139e5"] ;
45 -> 46 ;
47 [label="CAO(WT%) <= 11.12\ngini = 0.5\nsamples = 2\nvalue = [1, 0, 0, 0, 0, 0, 0, 0, 1]\nclass = 1.0", fillcolor="#ffffff"] ;
45 -> 47 ;
48 [label="gini = 0.0\nsamples = 1\nvalue = [1, 0, 0, 0, 0, 0, 0, 0, 0]\nclass = 1.0", fillcolor="#e58139"] ;
47 -> 48 ;
49 [label="gini = 0.0\nsamples = 1\nvalue = [0, 0, 0, 0, 0, 0, 0, 0, 1]\nclass = 6.0", fillcolor="#e53964"] ;
47 -> 49 ;
50 [label="gini = 0.0\nsamples = 2\nvalue = [0, 0, 0, 0, 0, 2, 0, 0, 0]\nclass = 2.0", fillcolor="#3964e5"] ;
44 -> 50 ;
51 [label="gini = 0.0\nsamples = 3\nvalue = [0, 3, 0, 0, 0, 0, 0, 0, 0]\nclass = 3.0", fillcolor="#d7e539"] ;
41 -> 51 ;
52 [label="TIO2(WT%) <= 0.805\ngini = 0.292\nsamples = 1347\nvalue = [1127, 78, 9, 0, 49, 70, 6, 8, 0]\nclass = 1.0", fillcolor="#ea975b"] ;
2 -> 52 ;
53 [label="NA2O(WT%) <= 0.635\ngini = 0.458\nsamples = 31\nvalue = [11, 0, 0, 0, 0, 20, 0, 0, 0]\nclass = 2.0", fillcolor="#a6b9f3"] ;
52 -> 53 ;
54 [label="CAO(WT%) <= 5.985\ngini = 0.408\nsamples = 14\nvalue = [10, 0, 0, 0, 0, 4, 0, 0, 0]\nclass = 1.0", fillcolor="#efb388"] ;
53 -> 54 ;
55 [label="FeO* <= 8.175\ngini = 0.32\nsamples = 5\nvalue = [1, 0, 0, 0, 0, 4, 0, 0, 0]\nclass = 2.0", fillcolor="#6a8bec"] ;
54 -> 55 ;
56 [label="gini = 0.0\nsamples = 1\nvalue = [1, 0, 0, 0, 0, 0, 0, 0, 0]\nclass = 1.0", fillcolor="#e58139"] ;
55 -> 56 ;
57 [label="gini = 0.0\nsamples = 4\nvalue = [0, 0, 0, 0, 0, 4, 0, 0, 0]\nclass = 2.0", fillcolor="#3964e5"] ;
55 -> 57 ;
58 [label="gini = 0.0\nsamples = 9\nvalue = [9, 0, 0, 0, 0, 0, 0, 0, 0]\nclass = 1.0", fillcolor="#e58139"] ;
54 -> 58 ;
59 [label="NA2O(WT%) <= 2.21\ngini = 0.111\nsamples = 17\nvalue = [1, 0, 0, 0, 0, 16, 0, 0, 0]\nclass = 2.0", fillcolor="#456ee7"] ;
53 -> 59 ;
60 [label="gini = 0.0\nsamples = 16\nvalue = [0, 0, 0, 0, 0, 16, 0, 0, 0]\nclass = 2.0", fillcolor="#3964e5"] ;
59 -> 60 ;
61 [label="gini = 0.0\nsamples = 1\nvalue = [1, 0, 0, 0, 0, 0, 0, 0, 0]\nclass = 1.0", fillcolor="#e58139"] ;
59 -> 61 ;
62 [label="FeO* <= 11.773\ngini = 0.274\nsamples = 1316\nvalue = [1116, 78, 9, 0, 49, 50, 6, 8, 0]\nclass = 1.0", fillcolor="#e99559"] ;
52 -> 62 ;
63 [label="SIO2(WT%) <= 52.685\ngini = 0.218\nsamples = 1128\nvalue = [995, 59, 9, 0, 22, 38, 1, 4, 0]\nclass = 1.0", fillcolor="#e89152"] ;
62 -> 63 ;
64 [label="FeO* <= 9.695\ngini = 0.211\nsamples = 1122\nvalue = [994, 59, 8, 0, 22, 34, 1, 4, 0]\nclass = 1.0", fillcolor="#e89051"] ;
63 -> 64 ;
65 [label="gini = 0.0\nsamples = 194\nvalue = [194, 0, 0, 0, 0, 0, 0, 0, 0]\nclass = 1.0", fillcolor="#e58139"] ;
64 -> 65 ;
66 [label="CAO(WT%) <= 10.505\ngini = 0.251\nsamples = 928\nvalue = [800, 59, 8, 0, 22, 34, 1, 4, 0]\nclass = 1.0", fillcolor="#e99456"] ;
64 -> 66 ;
67 [label="TIO2(WT%) <= 2.315\ngini = 0.351\nsamples = 476\nvalue = [379, 47, 4, 0, 15, 30, 0, 1, 0]\nclass = 1.0", fillcolor="#eb9d66"] ;
66 -> 67 ;
68 [label="K2O(WT%) <= 0.555\ngini = 0.221\nsamples = 340\nvalue = [299, 5, 3, 0, 9, 23, 0, 1, 0]\nclass = 1.0", fillcolor="#e89153"] ;
67 -> 68 ;
69 [label="NA2O(WT%) <= 2.505\ngini = 0.205\nsamples = 334\nvalue = [297, 5, 3, 0, 9, 19, 0, 1, 0]\nclass = 1.0", fillcolor="#e89050"] ;
68 -> 69 ;
70 [label="MGO(WT%) <= 17.805\ngini = 0.201\nsamples = 333\nvalue = [297, 5, 3, 0, 9, 18, 0, 1, 0]\nclass = 1.0", fillcolor="#e88f50"] ;
69 -> 70 ;
71 [label="K2O(WT%) <= 0.195\ngini = 0.252\nsamples = 244\nvalue = [210, 5, 3, 0, 7, 18, 0, 1, 0]\nclass = 1.0", fillcolor="#e99457"] ;
70 -> 71 ;
72 [label="SIO2(WT%) <= 47.575\ngini = 0.694\nsamples = 11\nvalue = [4, 1, 0, 0, 2, 4, 0, 0, 0]\nclass = 1.0", fillcolor="#ffffff"] ;
71 -> 72 ;
73 [label="SIO2(WT%) <= 46.26\ngini = 0.571\nsamples = 7\nvalue = [4, 1, 0, 0, 2, 0, 0, 0, 0]\nclass = 1.0", fillcolor="#f5cdb0"] ;
72 -> 73 ;
74 [label="AL2O3(WT%) <= 11.74\ngini = 0.444\nsamples = 3\nvalue = [0, 1, 0, 0, 2, 0, 0, 0, 0]\nclass = 4.0", fillcolor="#9cebf2"] ;
73 -> 74 ;
75 [label="gini = 0.0\nsamples = 2\nvalue = [0, 0, 0, 0, 2, 0, 0, 0, 0]\nclass = 4.0", fillcolor="#39d7e5"] ;
74 -> 75 ;
76 [label="gini = 0.0\nsamples = 1\nvalue = [0, 1, 0, 0, 0, 0, 0, 0, 0]\nclass = 3.0", fillcolor="#d7e539"] ;
74 -> 76 ;
77 [label="gini = 0.0\nsamples = 4\nvalue = [4, 0, 0, 0, 0, 0, 0, 0, 0]\nclass = 1.0", fillcolor="#e58139"] ;
73 -> 77 ;
78 [label="gini = 0.0\nsamples = 4\nvalue = [0, 0, 0, 0, 0, 4, 0, 0, 0]\nclass = 2.0", fillcolor="#3964e5"] ;
72 -> 78 ;
79 [label="CAO(WT%) <= 7.515\ngini = 0.214\nsamples = 233\nvalue = [206, 4, 3, 0, 5, 14, 0, 1, 0]\nclass = 1.0", fillcolor="#e89151"] ;
71 -> 79 ;
80 [label="AL2O3(WT%) <= 10.515\ngini = 0.444\nsamples = 3\nvalue = [1, 0, 0, 0, 0, 2, 0, 0, 0]\nclass = 2.0", fillcolor="#9cb2f2"] ;
79 -> 80 ;
81 [label="gini = 0.0\nsamples = 1\nvalue = [1, 0, 0, 0, 0, 0, 0, 0, 0]\nclass = 1.0", fillcolor="#e58139"] ;
80 -> 81 ;
82 [label="gini = 0.0\nsamples = 2\nvalue = [0, 0, 0, 0, 0, 2, 0, 0, 0]\nclass = 2.0", fillcolor="#3964e5"] ;
80 -> 82 ;
83 [label="FeO* <= 10.472\ngini = 0.202\nsamples = 230\nvalue = [205, 4, 3, 0, 5, 12, 0, 1, 0]\nclass = 1.0", fillcolor="#e88f50"] ;
79 -> 83 ;
84 [label="FeO* <= 10.253\ngini = 0.49\nsamples = 21\nvalue = [14, 0, 0, 0, 2, 5, 0, 0, 0]\nclass = 1.0", fillcolor="#f0b890"] ;
83 -> 84 ;
85 [label="gini = 0.0\nsamples = 11\nvalue = [11, 0, 0, 0, 0, 0, 0, 0, 0]\nclass = 1.0", fillcolor="#e58139"] ;
84 -> 85 ;
86 [label="NA2O(WT%) <= 1.955\ngini = 0.62\nsamples = 10\nvalue = [3, 0, 0, 0, 2, 5, 0, 0, 0]\nclass = 2.0", fillcolor="#c6d3f8"] ;
84 -> 86 ;
87 [label="TIO2(WT%) <= 1.912\ngini = 0.5\nsamples = 4\nvalue = [2, 0, 0, 0, 2, 0, 0, 0, 0]\nclass = 1.0", fillcolor="#ffffff"] ;
86 -> 87 ;
88 [label="gini = 0.0\nsamples = 2\nvalue = [0, 0, 0, 0, 2, 0, 0, 0, 0]\nclass = 4.0", fillcolor="#39d7e5"] ;
87 -> 88 ;
89 [label="gini = 0.0\nsamples = 2\nvalue = [2, 0, 0, 0, 0, 0, 0, 0, 0]\nclass = 1.0", fillcolor="#e58139"] ;
87 -> 89 ;
90 [label="CAO(WT%) <= 10.375\ngini = 0.278\nsamples = 6\nvalue = [1, 0, 0, 0, 0, 5, 0, 0, 0]\nclass = 2.0", fillcolor="#6183ea"] ;
86 -> 90 ;
91 [label="gini = 0.0\nsamples = 5\nvalue = [0, 0, 0, 0, 0, 5, 0, 0, 0]\nclass = 2.0", fillcolor="#3964e5"] ;
90 -> 91 ;
92 [label="gini = 0.0\nsamples = 1\nvalue = [1, 0, 0, 0, 0, 0, 0, 0, 0]\nclass = 1.0", fillcolor="#e58139"] ;
90 -> 92 ;
93 [label="SIO2(WT%) <= 47.09\ngini = 0.163\nsamples = 209\nvalue = [191, 4, 3, 0, 3, 7, 0, 1, 0]\nclass = 1.0", fillcolor="#e78c4b"] ;
83 -> 93 ;
94 [label="NA2O(WT%) <= 1.59\ngini = 0.625\nsamples = 4\nvalue = [1, 2, 0, 0, 0, 1, 0, 0, 0]\nclass = 3.0", fillcolor="#f2f6bd"] ;
93 -> 94 ;
95 [label="TIO2(WT%) <= 2.03\ngini = 0.5\nsamples = 2\nvalue = [1, 0, 0, 0, 0, 1, 0, 0, 0]\nclass = 1.0", fillcolor="#ffffff"] ;
94 -> 95 ;
96 [label="gini = 0.0\nsamples = 1\nvalue = [0, 0, 0, 0, 0, 1, 0, 0, 0]\nclass = 2.0", fillcolor="#3964e5"] ;
95 -> 96 ;
97 [label="gini = 0.0\nsamples = 1\nvalue = [1, 0, 0, 0, 0, 0, 0, 0, 0]\nclass = 1.0", fillcolor="#e58139"] ;
95 -> 97 ;
98 [label="gini = 0.0\nsamples = 2\nvalue = [0, 2, 0, 0, 0, 0, 0, 0, 0]\nclass = 3.0", fillcolor="#d7e539"] ;
94 -> 98 ;
99 [label="K2O(WT%) <= 0.21\ngini = 0.14\nsamples = 205\nvalue = [190, 2, 3, 0, 3, 6, 0, 1, 0]\nclass = 1.0", fillcolor="#e78a48"] ;
93 -> 99 ;
100 [label="gini = 0.0\nsamples = 1\nvalue = [0, 0, 0, 0, 0, 1, 0, 0, 0]\nclass = 2.0", fillcolor="#3964e5"] ;
99 -> 100 ;
101 [label="NA2O(WT%) <= 1.58\ngini = 0.131\nsamples = 204\nvalue = [190, 2, 3, 0, 3, 5, 0, 1, 0]\nclass = 1.0", fillcolor="#e78a47"] ;
99 -> 101 ;
102 [label="CAO(WT%) <= 9.02\ngini = 0.5\nsamples = 2\nvalue = [1, 1, 0, 0, 0, 0, 0, 0, 0]\nclass = 1.0", fillcolor="#ffffff"] ;
101 -> 102 ;
103 [label="gini = 0.0\nsamples = 1\nvalue = [0, 1, 0, 0, 0, 0, 0, 0, 0]\nclass = 3.0", fillcolor="#d7e539"] ;
102 -> 103 ;
104 [label="gini = 0.0\nsamples = 1\nvalue = [1, 0, 0, 0, 0, 0, 0, 0, 0]\nclass = 1.0", fillcolor="#e58139"] ;
102 -> 104 ;
105 [label="SIO2(WT%) <= 48.215\ngini = 0.123\nsamples = 202\nvalue = [189, 1, 3, 0, 3, 5, 0, 1, 0]\nclass = 1.0", fillcolor="#e78946"] ;
101 -> 105 ;
106 [label="AL2O3(WT%) <= 11.555\ngini = 0.293\nsamples = 30\nvalue = [25, 1, 0, 0, 1, 3, 0, 0, 0]\nclass = 1.0", fillcolor="#ea985e"] ;
105 -> 106 ;
107 [label="FeO* <= 11.043\ngini = 0.14\nsamples = 27\nvalue = [25, 1, 0, 0, 1, 0, 0, 0, 0]\nclass = 1.0", fillcolor="#e78b48"] ;
106 -> 107 ;
108 [label="CAO(WT%) <= 9.16\ngini = 0.5\nsamples = 2\nvalue = [0, 1, 0, 0, 1, 0, 0, 0, 0]\nclass = 3.0", fillcolor="#ffffff"] ;
107 -> 108 ;
109 [label="gini = 0.0\nsamples = 1\nvalue = [0, 1, 0, 0, 0, 0, 0, 0, 0]\nclass = 3.0", fillcolor="#d7e539"] ;
108 -> 109 ;
110 [label="gini = 0.0\nsamples = 1\nvalue = [0, 0, 0, 0, 1, 0, 0, 0, 0]\nclass = 4.0", fillcolor="#39d7e5"] ;
108 -> 110 ;
111 [label="gini = 0.0\nsamples = 25\nvalue = [25, 0, 0, 0, 0, 0, 0, 0, 0]\nclass = 1.0", fillcolor="#e58139"] ;
107 -> 111 ;
112 [label="gini = 0.0\nsamples = 3\nvalue = [0, 0, 0, 0, 0, 3, 0, 0, 0]\nclass = 2.0", fillcolor="#3964e5"] ;
106 -> 112 ;
113 [label="K2O(WT%) <= 0.245\ngini = 0.09\nsamples = 172\nvalue = [164, 0, 3, 0, 2, 2, 0, 1, 0]\nclass = 1.0", fillcolor="#e68742"] ;
105 -> 113 ;
114 [label="AL2O3(WT%) <= 13.765\ngini = 0.37\nsamples = 9\nvalue = [7, 0, 1, 0, 0, 1, 0, 0, 0]\nclass = 1.0", fillcolor="#eca06a"] ;
113 -> 114 ;
115 [label="NA2O(WT%) <= 2.06\ngini = 0.219\nsamples = 8\nvalue = [7, 0, 0, 0, 0, 1, 0, 0, 0]\nclass = 1.0", fillcolor="#e99355"] ;
114 -> 115 ;
116 [label="gini = 0.0\nsamples = 7\nvalue = [7, 0, 0, 0, 0, 0, 0, 0, 0]\nclass = 1.0", fillcolor="#e58139"] ;
115 -> 116 ;
117 [label="gini = 0.0\nsamples = 1\nvalue = [0, 0, 0, 0, 0, 1, 0, 0, 0]\nclass = 2.0", fillcolor="#3964e5"] ;
115 -> 117 ;
118 [label="gini = 0.0\nsamples = 1\nvalue = [0, 0, 1, 0, 0, 0, 0, 0, 0]\nclass = 7.0", fillcolor="#64e539"] ;
114 -> 118 ;
119 [label="CAO(WT%) <= 9.63\ngini = 0.072\nsamples = 163\nvalue = [157, 0, 2, 0, 2, 1, 0, 1, 0]\nclass = 1.0", fillcolor="#e68640"] ;
113 -> 119 ;
120 [label="AL2O3(WT%) <= 12.915\ngini = 0.148\nsamples = 51\nvalue = [47, 0, 2, 0, 2, 0, 0, 0, 0]\nclass = 1.0", fillcolor="#e78b49"] ;
119 -> 120 ;
121 [label="CAO(WT%) <= 9.615\ngini = 0.078\nsamples = 49\nvalue = [47, 0, 0, 0, 2, 0, 0, 0, 0]\nclass = 1.0", fillcolor="#e68641"] ;
120 -> 121 ;
122 [label="K2O(WT%) <= 0.397\ngini = 0.041\nsamples = 48\nvalue = [47, 0, 0, 0, 1, 0, 0, 0, 0]\nclass = 1.0", fillcolor="#e6843d"] ;
121 -> 122 ;
123 [label="gini = 0.0\nsamples = 38\nvalue = [38, 0, 0, 0, 0, 0, 0, 0, 0]\nclass = 1.0", fillcolor="#e58139"] ;
122 -> 123 ;
124 [label="TIO2(WT%) <= 1.889\ngini = 0.18\nsamples = 10\nvalue = [9, 0, 0, 0, 1, 0, 0, 0, 0]\nclass = 1.0", fillcolor="#e88f4f"] ;
122 -> 124 ;
125 [label="gini = 0.0\nsamples = 1\nvalue = [0, 0, 0, 0, 1, 0, 0, 0, 0]\nclass = 4.0", fillcolor="#39d7e5"] ;
124 -> 125 ;
126 [label="gini = 0.0\nsamples = 9\nvalue = [9, 0, 0, 0, 0, 0, 0, 0, 0]\nclass = 1.0", fillcolor="#e58139"] ;
124 -> 126 ;
127 [label="gini = 0.0\nsamples = 1\nvalue = [0, 0, 0, 0, 1, 0, 0, 0, 0]\nclass = 4.0", fillcolor="#39d7e5"] ;
121 -> 127 ;
128 [label="gini = 0.0\nsamples = 2\nvalue = [0, 0, 2, 0, 0, 0, 0, 0, 0]\nclass = 7.0", fillcolor="#64e539"] ;
120 -> 128 ;
129 [label="TIO2(WT%) <= 2.19\ngini = 0.035\nsamples = 112\nvalue = [110, 0, 0, 0, 0, 1, 0, 1, 0]\nclass = 1.0", fillcolor="#e5833d"] ;
119 -> 129 ;
130 [label="gini = 0.0\nsamples = 89\nvalue = [89, 0, 0, 0, 0, 0, 0, 0, 0]\nclass = 1.0", fillcolor="#e58139"] ;
129 -> 130 ;
131 [label="FeO* <= 10.958\ngini = 0.163\nsamples = 23\nvalue = [21, 0, 0, 0, 0, 1, 0, 1, 0]\nclass = 1.0", fillcolor="#e78c4b"] ;
129 -> 131 ;
132 [label="FeO* <= 10.927\ngini = 0.56\nsamples = 5\nvalue = [3, 0, 0, 0, 0, 1, 0, 1, 0]\nclass = 1.0", fillcolor="#f2c09c"] ;
131 -> 132 ;
133 [label="gini = 0.0\nsamples = 3\nvalue = [3, 0, 0, 0, 0, 0, 0, 0, 0]\nclass = 1.0", fillcolor="#e58139"] ;
132 -> 133 ;
134 [label="FeO* <= 10.939\ngini = 0.5\nsamples = 2\nvalue = [0, 0, 0, 0, 0, 1, 0, 1, 0]\nclass = 2.0", fillcolor="#ffffff"] ;
132 -> 134 ;
135 [label="gini = 0.0\nsamples = 1\nvalue = [0, 0, 0, 0, 0, 1, 0, 0, 0]\nclass = 2.0", fillcolor="#3964e5"] ;
134 -> 135 ;
136 [label="gini = 0.0\nsamples = 1\nvalue = [0, 0, 0, 0, 0, 0, 0, 1, 0]\nclass = 8.0", fillcolor="#e539d7"] ;
134 -> 136 ;
137 [label="gini = 0.0\nsamples = 18\nvalue = [18, 0, 0, 0, 0, 0, 0, 0, 0]\nclass = 1.0", fillcolor="#e58139"] ;
131 -> 137 ;
138 [label="CAO(WT%) <= 7.42\ngini = 0.044\nsamples = 89\nvalue = [87, 0, 0, 0, 2, 0, 0, 0, 0]\nclass = 1.0", fillcolor="#e6843e"] ;
70 -> 138 ;
139 [label="gini = 0.0\nsamples = 47\nvalue = [47, 0, 0, 0, 0, 0, 0, 0, 0]\nclass = 1.0", fillcolor="#e58139"] ;
138 -> 139 ;
140 [label="CAO(WT%) <= 7.435\ngini = 0.091\nsamples = 42\nvalue = [40, 0, 0, 0, 2, 0, 0, 0, 0]\nclass = 1.0", fillcolor="#e68743"] ;
138 -> 140 ;
141 [label="gini = 0.0\nsamples = 1\nvalue = [0, 0, 0, 0, 1, 0, 0, 0, 0]\nclass = 4.0", fillcolor="#39d7e5"] ;
140 -> 141 ;
142 [label="MGO(WT%) <= 19.67\ngini = 0.048\nsamples = 41\nvalue = [40, 0, 0, 0, 1, 0, 0, 0, 0]\nclass = 1.0", fillcolor="#e6843e"] ;
140 -> 142 ;
143 [label="gini = 0.0\nsamples = 32\nvalue = [32, 0, 0, 0, 0, 0, 0, 0, 0]\nclass = 1.0", fillcolor="#e58139"] ;
142 -> 143 ;
144 [label="AL2O3(WT%) <= 9.395\ngini = 0.198\nsamples = 9\nvalue = [8, 0, 0, 0, 1, 0, 0, 0, 0]\nclass = 1.0", fillcolor="#e89152"] ;
142 -> 144 ;
145 [label="gini = 0.0\nsamples = 8\nvalue = [8, 0, 0, 0, 0, 0, 0, 0, 0]\nclass = 1.0", fillcolor="#e58139"] ;
144 -> 145 ;
146 [label="gini = 0.0\nsamples = 1\nvalue = [0, 0, 0, 0, 1, 0, 0, 0, 0]\nclass = 4.0", fillcolor="#39d7e5"] ;
144 -> 146 ;
147 [label="gini = 0.0\nsamples = 1\nvalue = [0, 0, 0, 0, 0, 1, 0, 0, 0]\nclass = 2.0", fillcolor="#3964e5"] ;
69 -> 147 ;
148 [label="FeO* <= 11.191\ngini = 0.444\nsamples = 6\nvalue = [2, 0, 0, 0, 0, 4, 0, 0, 0]\nclass = 2.0", fillcolor="#9cb2f2"] ;
68 -> 148 ;
149 [label="gini = 0.0\nsamples = 4\nvalue = [0, 0, 0, 0, 0, 4, 0, 0, 0]\nclass = 2.0", fillcolor="#3964e5"] ;
148 -> 149 ;
150 [label="gini = 0.0\nsamples = 2\nvalue = [2, 0, 0, 0, 0, 0, 0, 0, 0]\nclass = 1.0", fillcolor="#e58139"] ;
148 -> 150 ;
151 [label="FeO* <= 11.402\ngini = 0.554\nsamples = 136\nvalue = [80, 42, 1, 0, 6, 7, 0, 0, 0]\nclass = 1.0", fillcolor="#f4ccaf"] ;
67 -> 151 ;
152 [label="SIO2(WT%) <= 49.95\ngini = 0.628\nsamples = 71\nvalue = [24, 35, 0, 0, 5, 7, 0, 0, 0]\nclass = 3.0", fillcolor="#f6f9d1"] ;
151 -> 152 ;
153 [label="FeO* <= 10.703\ngini = 0.416\nsamples = 42\nvalue = [8, 31, 0, 0, 1, 2, 0, 0, 0]\nclass = 3.0", fillcolor="#e4ed79"] ;
152 -> 153 ;
154 [label="gini = 0.0\nsamples = 4\nvalue = [4, 0, 0, 0, 0, 0, 0, 0, 0]\nclass = 1.0", fillcolor="#e58139"] ;
153 -> 154 ;
155 [label="AL2O3(WT%) <= 13.31\ngini = 0.32\nsamples = 38\nvalue = [4, 31, 0, 0, 1, 2, 0, 0, 0]\nclass = 3.0", fillcolor="#dfea62"] ;
153 -> 155 ;
156 [label="K2O(WT%) <= 0.491\ngini = 0.164\nsamples = 34\nvalue = [2, 31, 0, 0, 0, 1, 0, 0, 0]\nclass = 3.0", fillcolor="#dbe74c"] ;
155 -> 156 ;
157 [label="TIO2(WT%) <= 2.465\ngini = 0.114\nsamples = 33\nvalue = [2, 31, 0, 0, 0, 0, 0, 0, 0]\nclass = 3.0", fillcolor="#dae746"] ;
156 -> 157 ;
158 [label="CAO(WT%) <= 10.04\ngini = 0.375\nsamples = 8\nvalue = [2, 6, 0, 0, 0, 0, 0, 0, 0]\nclass = 3.0", fillcolor="#e4ee7b"] ;
157 -> 158 ;
159 [label="gini = 0.0\nsamples = 6\nvalue = [0, 6, 0, 0, 0, 0, 0, 0, 0]\nclass = 3.0", fillcolor="#d7e539"] ;
158 -> 159 ;
160 [label="gini = 0.0\nsamples = 2\nvalue = [2, 0, 0, 0, 0, 0, 0, 0, 0]\nclass = 1.0", fillcolor="#e58139"] ;
158 -> 160 ;
161 [label="gini = 0.0\nsamples = 25\nvalue = [0, 25, 0, 0, 0, 0, 0, 0, 0]\nclass = 3.0", fillcolor="#d7e539"] ;
157 -> 161 ;
162 [label="gini = 0.0\nsamples = 1\nvalue = [0, 0, 0, 0, 0, 1, 0, 0, 0]\nclass = 2.0", fillcolor="#3964e5"] ;
156 -> 162 ;
163 [label="NA2O(WT%) <= 2.13\ngini = 0.625\nsamples = 4\nvalue = [2, 0, 0, 0, 1, 1, 0, 0, 0]\nclass = 1.0", fillcolor="#f6d5bd"] ;
155 -> 163 ;
164 [label="gini = 0.0\nsamples = 2\nvalue = [2, 0, 0, 0, 0, 0, 0, 0, 0]\nclass = 1.0", fillcolor="#e58139"] ;
163 -> 164 ;
165 [label="K2O(WT%) <= 0.175\ngini = 0.5\nsamples = 2\nvalue = [0, 0, 0, 0, 1, 1, 0, 0, 0]\nclass = 4.0", fillcolor="#ffffff"] ;
163 -> 165 ;
166 [label="gini = 0.0\nsamples = 1\nvalue = [0, 0, 0, 0, 1, 0, 0, 0, 0]\nclass = 4.0", fillcolor="#39d7e5"] ;
165 -> 166 ;
167 [label="gini = 0.0\nsamples = 1\nvalue = [0, 0, 0, 0, 0, 1, 0, 0, 0]\nclass = 2.0", fillcolor="#3964e5"] ;
165 -> 167 ;
168 [label="CAO(WT%) <= 9.81\ngini = 0.628\nsamples = 29\nvalue = [16, 4, 0, 0, 4, 5, 0, 0, 0]\nclass = 1.0", fillcolor="#f3c5a4"] ;
152 -> 168 ;
169 [label="gini = 0.0\nsamples = 2\nvalue = [0, 0, 0, 0, 0, 2, 0, 0, 0]\nclass = 2.0", fillcolor="#3964e5"] ;
168 -> 169 ;
170 [label="FeO* <= 11.313\ngini = 0.593\nsamples = 27\nvalue = [16, 4, 0, 0, 4, 3, 0, 0, 0]\nclass = 1.0", fillcolor="#f1bd98"] ;
168 -> 170 ;
171 [label="AL2O3(WT%) <= 14.05\ngini = 0.541\nsamples = 22\nvalue = [14, 4, 0, 0, 1, 3, 0, 0, 0]\nclass = 1.0", fillcolor="#f1b991"] ;
170 -> 171 ;
172 [label="CAO(WT%) <= 10.3\ngini = 0.46\nsamples = 20\nvalue = [14, 4, 0, 0, 0, 2, 0, 0, 0]\nclass = 1.0", fillcolor="#efb083"] ;
171 -> 172 ;
173 [label="K2O(WT%) <= 0.395\ngini = 0.18\nsamples = 10\nvalue = [9, 0, 0, 0, 0, 1, 0, 0, 0]\nclass = 1.0", fillcolor="#e88f4f"] ;
172 -> 173 ;
174 [label="MGO(WT%) <= 7.07\ngini = 0.5\nsamples = 2\nvalue = [1, 0, 0, 0, 0, 1, 0, 0, 0]\nclass = 1.0", fillcolor="#ffffff"] ;
173 -> 174 ;
175 [label="gini = 0.0\nsamples = 1\nvalue = [0, 0, 0, 0, 0, 1, 0, 0, 0]\nclass = 2.0", fillcolor="#3964e5"] ;
174 -> 175 ;
176 [label="gini = 0.0\nsamples = 1\nvalue = [1, 0, 0, 0, 0, 0, 0, 0, 0]\nclass = 1.0", fillcolor="#e58139"] ;
174 -> 176 ;
177 [label="gini = 0.0\nsamples = 8\nvalue = [8, 0, 0, 0, 0, 0, 0, 0, 0]\nclass = 1.0", fillcolor="#e58139"] ;
173 -> 177 ;
178 [label="TIO2(WT%) <= 2.615\ngini = 0.58\nsamples = 10\nvalue = [5, 4, 0, 0, 0, 1, 0, 0, 0]\nclass = 1.0", fillcolor="#fbeade"] ;
172 -> 178 ;
179 [label="NA2O(WT%) <= 2.505\ngini = 0.32\nsamples = 5\nvalue = [4, 0, 0, 0, 0, 1, 0, 0, 0]\nclass = 1.0", fillcolor="#eca06a"] ;
178 -> 179 ;
180 [label="gini = 0.0\nsamples = 4\nvalue = [4, 0, 0, 0, 0, 0, 0, 0, 0]\nclass = 1.0", fillcolor="#e58139"] ;
179 -> 180 ;
181 [label="gini = 0.0\nsamples = 1\nvalue = [0, 0, 0, 0, 0, 1, 0, 0, 0]\nclass = 2.0", fillcolor="#3964e5"] ;
179 -> 181 ;
182 [label="K2O(WT%) <= 0.525\ngini = 0.32\nsamples = 5\nvalue = [1, 4, 0, 0, 0, 0, 0, 0, 0]\nclass = 3.0", fillcolor="#e1ec6a"] ;
178 -> 182 ;
183 [label="gini = 0.0\nsamples = 4\nvalue = [0, 4, 0, 0, 0, 0, 0, 0, 0]\nclass = 3.0", fillcolor="#d7e539"] ;
182 -> 183 ;
184 [label="gini = 0.0\nsamples = 1\nvalue = [1, 0, 0, 0, 0, 0, 0, 0, 0]\nclass = 1.0", fillcolor="#e58139"] ;
182 -> 184 ;
185 [label="K2O(WT%) <= 0.395\ngini = 0.5\nsamples = 2\nvalue = [0, 0, 0, 0, 1, 1, 0, 0, 0]\nclass = 4.0", fillcolor="#ffffff"] ;
171 -> 185 ;
186 [label="gini = 0.0\nsamples = 1\nvalue = [0, 0, 0, 0, 0, 1, 0, 0, 0]\nclass = 2.0", fillcolor="#3964e5"] ;
185 -> 186 ;
187 [label="gini = 0.0\nsamples = 1\nvalue = [0, 0, 0, 0, 1, 0, 0, 0, 0]\nclass = 4.0", fillcolor="#39d7e5"] ;
185 -> 187 ;
188 [label="FeO* <= 11.346\ngini = 0.48\nsamples = 5\nvalue = [2, 0, 0, 0, 3, 0, 0, 0, 0]\nclass = 4.0", fillcolor="#bdf2f6"] ;
170 -> 188 ;
189 [label="gini = 0.0\nsamples = 3\nvalue = [0, 0, 0, 0, 3, 0, 0, 0, 0]\nclass = 4.0", fillcolor="#39d7e5"] ;
188 -> 189 ;
190 [label="gini = 0.0\nsamples = 2\nvalue = [2, 0, 0, 0, 0, 0, 0, 0, 0]\nclass = 1.0", fillcolor="#e58139"] ;
188 -> 190 ;
191 [label="K2O(WT%) <= 0.365\ngini = 0.246\nsamples = 65\nvalue = [56, 7, 1, 0, 1, 0, 0, 0, 0]\nclass = 1.0", fillcolor="#e99558"] ;
151 -> 191 ;
192 [label="NA2O(WT%) <= 2.14\ngini = 0.611\nsamples = 6\nvalue = [2, 3, 0, 0, 1, 0, 0, 0, 0]\nclass = 3.0", fillcolor="#f5f8ce"] ;
191 -> 192 ;
193 [label="FeO* <= 11.578\ngini = 0.48\nsamples = 5\nvalue = [2, 3, 0, 0, 0, 0, 0, 0, 0]\nclass = 3.0", fillcolor="#f2f6bd"] ;
192 -> 193 ;
194 [label="gini = 0.0\nsamples = 2\nvalue = [0, 2, 0, 0, 0, 0, 0, 0, 0]\nclass = 3.0", fillcolor="#d7e539"] ;
193 -> 194 ;
195 [label="NA2O(WT%) <= 1.92\ngini = 0.444\nsamples = 3\nvalue = [2, 1, 0, 0, 0, 0, 0, 0, 0]\nclass = 1.0", fillcolor="#f2c09c"] ;
193 -> 195 ;
196 [label="gini = 0.0\nsamples = 2\nvalue = [2, 0, 0, 0, 0, 0, 0, 0, 0]\nclass = 1.0", fillcolor="#e58139"] ;
195 -> 196 ;
197 [label="gini = 0.0\nsamples = 1\nvalue = [0, 1, 0, 0, 0, 0, 0, 0, 0]\nclass = 3.0", fillcolor="#d7e539"] ;
195 -> 197 ;
198 [label="gini = 0.0\nsamples = 1\nvalue = [0, 0, 0, 0, 1, 0, 0, 0, 0]\nclass = 4.0", fillcolor="#39d7e5"] ;
192 -> 198 ;
199 [label="SIO2(WT%) <= 47.155\ngini = 0.157\nsamples = 59\nvalue = [54, 4, 1, 0, 0, 0, 0, 0, 0]\nclass = 1.0", fillcolor="#e78c4b"] ;
191 -> 199 ;
200 [label="gini = 0.0\nsamples = 1\nvalue = [0, 1, 0, 0, 0, 0, 0, 0, 0]\nclass = 3.0", fillcolor="#d7e539"] ;
199 -> 200 ;
201 [label="TIO2(WT%) <= 2.92\ngini = 0.13\nsamples = 58\nvalue = [54, 3, 1, 0, 0, 0, 0, 0, 0]\nclass = 1.0", fillcolor="#e78a47"] ;
199 -> 201 ;
202 [label="AL2O3(WT%) <= 13.785\ngini = 0.041\nsamples = 48\nvalue = [47, 0, 1, 0, 0, 0, 0, 0, 0]\nclass = 1.0", fillcolor="#e6843d"] ;
201 -> 202 ;
203 [label="gini = 0.0\nsamples = 47\nvalue = [47, 0, 0, 0, 0, 0, 0, 0, 0]\nclass = 1.0", fillcolor="#e58139"] ;
202 -> 203 ;
204 [label="gini = 0.0\nsamples = 1\nvalue = [0, 0, 1, 0, 0, 0, 0, 0, 0]\nclass = 7.0", fillcolor="#64e539"] ;
202 -> 204 ;
205 [label="K2O(WT%) <= 0.495\ngini = 0.42\nsamples = 10\nvalue = [7, 3, 0, 0, 0, 0, 0, 0, 0]\nclass = 1.0", fillcolor="#f0b78e"] ;
201 -> 205 ;
206 [label="gini = 0.0\nsamples = 3\nvalue = [0, 3, 0, 0, 0, 0, 0, 0, 0]\nclass = 3.0", fillcolor="#d7e539"] ;
205 -> 206 ;
207 [label="gini = 0.0\nsamples = 7\nvalue = [7, 0, 0, 0, 0, 0, 0, 0, 0]\nclass = 1.0", fillcolor="#e58139"] ;
205 -> 207 ;
208 [label="K2O(WT%) <= 0.205\ngini = 0.131\nsamples = 452\nvalue = [421, 12, 4, 0, 7, 4, 1, 3, 0]\nclass = 1.0", fillcolor="#e78a47"] ;
66 -> 208 ;
209 [label="CAO(WT%) <= 10.59\ngini = 0.75\nsamples = 8\nvalue = [1, 0, 3, 0, 1, 1, 0, 2, 0]\nclass = 7.0", fillcolor="#e5fbde"] ;
208 -> 209 ;
210 [label="gini = 0.0\nsamples = 2\nvalue = [0, 0, 0, 0, 0, 0, 0, 2, 0]\nclass = 8.0", fillcolor="#e539d7"] ;
209 -> 210 ;
211 [label="SIO2(WT%) <= 49.13\ngini = 0.667\nsamples = 6\nvalue = [1, 0, 3, 0, 1, 1, 0, 0, 0]\nclass = 7.0", fillcolor="#c1f5b0"] ;
209 -> 211 ;
212 [label="TIO2(WT%) <= 1.72\ngini = 0.667\nsamples = 3\nvalue = [1, 0, 0, 0, 1, 1, 0, 0, 0]\nclass = 1.0", fillcolor="#ffffff"] ;
211 -> 212 ;
213 [label="gini = 0.0\nsamples = 1\nvalue = [1, 0, 0, 0, 0, 0, 0, 0, 0]\nclass = 1.0", fillcolor="#e58139"] ;
212 -> 213 ;
214 [label="SIO2(WT%) <= 48.33\ngini = 0.5\nsamples = 2\nvalue = [0, 0, 0, 0, 1, 1, 0, 0, 0]\nclass = 4.0", fillcolor="#ffffff"] ;
212 -> 214 ;
215 [label="gini = 0.0\nsamples = 1\nvalue = [0, 0, 0, 0, 1, 0, 0, 0, 0]\nclass = 4.0", fillcolor="#39d7e5"] ;
214 -> 215 ;
216 [label="gini = 0.0\nsamples = 1\nvalue = [0, 0, 0, 0, 0, 1, 0, 0, 0]\nclass = 2.0", fillcolor="#3964e5"] ;
214 -> 216 ;
217 [label="gini = 0.0\nsamples = 3\nvalue = [0, 0, 3, 0, 0, 0, 0, 0, 0]\nclass = 7.0", fillcolor="#64e539"] ;
211 -> 217 ;
218 [label="FeO* <= 9.822\ngini = 0.104\nsamples = 444\nvalue = [420, 12, 1, 0, 6, 3, 1, 1, 0]\nclass = 1.0", fillcolor="#e68844"] ;
208 -> 218 ;
219 [label="SIO2(WT%) <= 51.625\ngini = 0.611\nsamples = 6\nvalue = [2, 3, 0, 0, 1, 0, 0, 0, 0]\nclass = 3.0", fillcolor="#f5f8ce"] ;
218 -> 219 ;
220 [label="CAO(WT%) <= 11.315\ngini = 0.444\nsamples = 3\nvalue = [2, 0, 0, 0, 1, 0, 0, 0, 0]\nclass = 1.0", fillcolor="#f2c09c"] ;
219 -> 220 ;
221 [label="gini = 0.0\nsamples = 2\nvalue = [2, 0, 0, 0, 0, 0, 0, 0, 0]\nclass = 1.0", fillcolor="#e58139"] ;
220 -> 221 ;
222 [label="gini = 0.0\nsamples = 1\nvalue = [0, 0, 0, 0, 1, 0, 0, 0, 0]\nclass = 4.0", fillcolor="#39d7e5"] ;
220 -> 222 ;
223 [label="gini = 0.0\nsamples = 3\nvalue = [0, 3, 0, 0, 0, 0, 0, 0, 0]\nclass = 3.0", fillcolor="#d7e539"] ;
219 -> 223 ;
224 [label="SIO2(WT%) <= 48.965\ngini = 0.089\nsamples = 438\nvalue = [418, 9, 1, 0, 5, 3, 1, 1, 0]\nclass = 1.0", fillcolor="#e68742"] ;
218 -> 224 ;
225 [label="MGO(WT%) <= 8.89\ngini = 0.521\nsamples = 24\nvalue = [16, 3, 0, 0, 3, 0, 1, 1, 0]\nclass = 1.0", fillcolor="#efb184"] ;
224 -> 225 ;
226 [label="MGO(WT%) <= 7.67\ngini = 0.625\nsamples = 4\nvalue = [0, 2, 0, 0, 1, 0, 0, 1, 0]\nclass = 3.0", fillcolor="#f2f6bd"] ;
225 -> 226 ;
227 [label="NA2O(WT%) <= 2.425\ngini = 0.5\nsamples = 2\nvalue = [0, 0, 0, 0, 1, 0, 0, 1, 0]\nclass = 4.0", fillcolor="#ffffff"] ;
226 -> 227 ;
228 [label="gini = 0.0\nsamples = 1\nvalue = [0, 0, 0, 0, 0, 0, 0, 1, 0]\nclass = 8.0", fillcolor="#e539d7"] ;
227 -> 228 ;
229 [label="gini = 0.0\nsamples = 1\nvalue = [0, 0, 0, 0, 1, 0, 0, 0, 0]\nclass = 4.0", fillcolor="#39d7e5"] ;
227 -> 229 ;
230 [label="gini = 0.0\nsamples = 2\nvalue = [0, 2, 0, 0, 0, 0, 0, 0, 0]\nclass = 3.0", fillcolor="#d7e539"] ;
226 -> 230 ;
231 [label="NA2O(WT%) <= 2.27\ngini = 0.345\nsamples = 20\nvalue = [16, 1, 0, 0, 2, 0, 1, 0, 0]\nclass = 1.0", fillcolor="#eb9d65"] ;
225 -> 231 ;
232 [label="K2O(WT%) <= 0.675\ngini = 0.204\nsamples = 18\nvalue = [16, 0, 0, 0, 1, 0, 1, 0, 0]\nclass = 1.0", fillcolor="#e89050"] ;
231 -> 232 ;
233 [label="NA2O(WT%) <= 1.655\ngini = 0.111\nsamples = 17\nvalue = [16, 0, 0, 0, 1, 0, 0, 0, 0]\nclass = 1.0", fillcolor="#e78945"] ;
232 -> 233 ;
234 [label="FeO* <= 11.106\ngini = 0.444\nsamples = 3\nvalue = [2, 0, 0, 0, 1, 0, 0, 0, 0]\nclass = 1.0", fillcolor="#f2c09c"] ;
233 -> 234 ;
235 [label="gini = 0.0\nsamples = 1\nvalue = [0, 0, 0, 0, 1, 0, 0, 0, 0]\nclass = 4.0", fillcolor="#39d7e5"] ;
234 -> 235 ;
236 [label="gini = 0.0\nsamples = 2\nvalue = [2, 0, 0, 0, 0, 0, 0, 0, 0]\nclass = 1.0", fillcolor="#e58139"] ;
234 -> 236 ;
237 [label="gini = 0.0\nsamples = 14\nvalue = [14, 0, 0, 0, 0, 0, 0, 0, 0]\nclass = 1.0", fillcolor="#e58139"] ;
233 -> 237 ;
238 [label="gini = 0.0\nsamples = 1\nvalue = [0, 0, 0, 0, 0, 0, 1, 0, 0]\nclass = 5.0", fillcolor="#8139e5"] ;
232 -> 238 ;
239 [label="AL2O3(WT%) <= 12.205\ngini = 0.5\nsamples = 2\nvalue = [0, 1, 0, 0, 1, 0, 0, 0, 0]\nclass = 3.0", fillcolor="#ffffff"] ;
231 -> 239 ;
240 [label="gini = 0.0\nsamples = 1\nvalue = [0, 1, 0, 0, 0, 0, 0, 0, 0]\nclass = 3.0", fillcolor="#d7e539"] ;
239 -> 240 ;
241 [label="gini = 0.0\nsamples = 1\nvalue = [0, 0, 0, 0, 1, 0, 0, 0, 0]\nclass = 4.0", fillcolor="#39d7e5"] ;
239 -> 241 ;
242 [label="MGO(WT%) <= 5.975\ngini = 0.057\nsamples = 414\nvalue = [402, 6, 1, 0, 2, 3, 0, 0, 0]\nclass = 1.0", fillcolor="#e6853f"] ;
224 -> 242 ;
243 [label="gini = 0.0\nsamples = 1\nvalue = [0, 0, 0, 0, 1, 0, 0, 0, 0]\nclass = 4.0", fillcolor="#39d7e5"] ;
242 -> 243 ;
244 [label="NA2O(WT%) <= 2.015\ngini = 0.052\nsamples = 413\nvalue = [402, 6, 1, 0, 1, 3, 0, 0, 0]\nclass = 1.0", fillcolor="#e6843e"] ;
242 -> 244 ;
245 [label="NA2O(WT%) <= 1.995\ngini = 0.236\nsamples = 22\nvalue = [19, 3, 0, 0, 0, 0, 0, 0, 0]\nclass = 1.0", fillcolor="#e99558"] ;
244 -> 245 ;
246 [label="CAO(WT%) <= 10.665\ngini = 0.1\nsamples = 19\nvalue = [18, 1, 0, 0, 0, 0, 0, 0, 0]\nclass = 1.0", fillcolor="#e68844"] ;
245 -> 246 ;
247 [label="gini = 0.0\nsamples = 1\nvalue = [0, 1, 0, 0, 0, 0, 0, 0, 0]\nclass = 3.0", fillcolor="#d7e539"] ;
246 -> 247 ;
248 [label="gini = 0.0\nsamples = 18\nvalue = [18, 0, 0, 0, 0, 0, 0, 0, 0]\nclass = 1.0", fillcolor="#e58139"] ;
246 -> 248 ;
249 [label="CAO(WT%) <= 10.945\ngini = 0.444\nsamples = 3\nvalue = [1, 2, 0, 0, 0, 0, 0, 0, 0]\nclass = 3.0", fillcolor="#ebf29c"] ;
245 -> 249 ;
250 [label="gini = 0.0\nsamples = 2\nvalue = [0, 2, 0, 0, 0, 0, 0, 0, 0]\nclass = 3.0", fillcolor="#d7e539"] ;
249 -> 250 ;
251 [label="gini = 0.0\nsamples = 1\nvalue = [1, 0, 0, 0, 0, 0, 0, 0, 0]\nclass = 1.0", fillcolor="#e58139"] ;
249 -> 251 ;
252 [label="SIO2(WT%) <= 52.52\ngini = 0.04\nsamples = 391\nvalue = [383, 3, 1, 0, 1, 3, 0, 0, 0]\nclass = 1.0", fillcolor="#e6843d"] ;
244 -> 252 ;
253 [label="TIO2(WT%) <= 1.99\ngini = 0.036\nsamples = 388\nvalue = [381, 2, 1, 0, 1, 3, 0, 0, 0]\nclass = 1.0", fillcolor="#e5833d"] ;
252 -> 253 ;
254 [label="NA2O(WT%) <= 2.31\ngini = 0.32\nsamples = 5\nvalue = [4, 0, 0, 0, 0, 1, 0, 0, 0]\nclass = 1.0", fillcolor="#eca06a"] ;
253 -> 254 ;
255 [label="gini = 0.0\nsamples = 4\nvalue = [4, 0, 0, 0, 0, 0, 0, 0, 0]\nclass = 1.0", fillcolor="#e58139"] ;
254 -> 255 ;
256 [label="gini = 0.0\nsamples = 1\nvalue = [0, 0, 0, 0, 0, 1, 0, 0, 0]\nclass = 2.0", fillcolor="#3964e5"] ;
254 -> 256 ;
257 [label="K2O(WT%) <= 0.365\ngini = 0.031\nsamples = 383\nvalue = [377, 2, 1, 0, 1, 2, 0, 0, 0]\nclass = 1.0", fillcolor="#e5833c"] ;
253 -> 257 ;
258 [label="TIO2(WT%) <= 2.315\ngini = 0.164\nsamples = 46\nvalue = [42, 0, 1, 0, 1, 2, 0, 0, 0]\nclass = 1.0", fillcolor="#e78c4b"] ;
257 -> 258 ;
259 [label="gini = 0.0\nsamples = 37\nvalue = [37, 0, 0, 0, 0, 0, 0, 0, 0]\nclass = 1.0", fillcolor="#e58139"] ;
258 -> 259 ;
260 [label="FeO* <= 11.067\ngini = 0.617\nsamples = 9\nvalue = [5, 0, 1, 0, 1, 2, 0, 0, 0]\nclass = 1.0", fillcolor="#f4c9aa"] ;
258 -> 260 ;
261 [label="NA2O(WT%) <= 2.295\ngini = 0.625\nsamples = 4\nvalue = [1, 0, 0, 0, 1, 2, 0, 0, 0]\nclass = 2.0", fillcolor="#bdcbf6"] ;
260 -> 261 ;
262 [label="K2O(WT%) <= 0.349\ngini = 0.5\nsamples = 2\nvalue = [1, 0, 0, 0, 1, 0, 0, 0, 0]\nclass = 1.0", fillcolor="#ffffff"] ;
261 -> 262 ;
263 [label="gini = 0.0\nsamples = 1\nvalue = [0, 0, 0, 0, 1, 0, 0, 0, 0]\nclass = 4.0", fillcolor="#39d7e5"] ;
262 -> 263 ;
264 [label="gini = 0.0\nsamples = 1\nvalue = [1, 0, 0, 0, 0, 0, 0, 0, 0]\nclass = 1.0", fillcolor="#e58139"] ;
262 -> 264 ;
265 [label="gini = 0.0\nsamples = 2\nvalue = [0, 0, 0, 0, 0, 2, 0, 0, 0]\nclass = 2.0", fillcolor="#3964e5"] ;
261 -> 265 ;
266 [label="CAO(WT%) <= 11.27\ngini = 0.32\nsamples = 5\nvalue = [4, 0, 1, 0, 0, 0, 0, 0, 0]\nclass = 1.0", fillcolor="#eca06a"] ;
260 -> 266 ;
267 [label="gini = 0.0\nsamples = 4\nvalue = [4, 0, 0, 0, 0, 0, 0, 0, 0]\nclass = 1.0", fillcolor="#e58139"] ;
266 -> 267 ;
268 [label="gini = 0.0\nsamples = 1\nvalue = [0, 0, 1, 0, 0, 0, 0, 0, 0]\nclass = 7.0", fillcolor="#64e539"] ;
266 -> 268 ;
269 [label="FeO* <= 10.77\ngini = 0.012\nsamples = 337\nvalue = [335, 2, 0, 0, 0, 0, 0, 0, 0]\nclass = 1.0", fillcolor="#e5823a"] ;
257 -> 269 ;
270 [label="MGO(WT%) <= 6.68\ngini = 0.142\nsamples = 26\nvalue = [24, 2, 0, 0, 0, 0, 0, 0, 0]\nclass = 1.0", fillcolor="#e78c49"] ;
269 -> 270 ;
271 [label="gini = 0.0\nsamples = 1\nvalue = [0, 1, 0, 0, 0, 0, 0, 0, 0]\nclass = 3.0", fillcolor="#d7e539"] ;
270 -> 271 ;
272 [label="NA2O(WT%) <= 2.165\ngini = 0.077\nsamples = 25\nvalue = [24, 1, 0, 0, 0, 0, 0, 0, 0]\nclass = 1.0", fillcolor="#e68641"] ;
270 -> 272 ;
273 [label="gini = 0.0\nsamples = 1\nvalue = [0, 1, 0, 0, 0, 0, 0, 0, 0]\nclass = 3.0", fillcolor="#d7e539"] ;
272 -> 273 ;
274 [label="gini = 0.0\nsamples = 24\nvalue = [24, 0, 0, 0, 0, 0, 0, 0, 0]\nclass = 1.0", fillcolor="#e58139"] ;
272 -> 274 ;
275 [label="gini = 0.0\nsamples = 311\nvalue = [311, 0, 0, 0, 0, 0, 0, 0, 0]\nclass = 1.0", fillcolor="#e58139"] ;
269 -> 275 ;
276 [label="K2O(WT%) <= 0.42\ngini = 0.444\nsamples = 3\nvalue = [2, 1, 0, 0, 0, 0, 0, 0, 0]\nclass = 1.0", fillcolor="#f2c09c"] ;
252 -> 276 ;
277 [label="gini = 0.0\nsamples = 2\nvalue = [2, 0, 0, 0, 0, 0, 0, 0, 0]\nclass = 1.0", fillcolor="#e58139"] ;
276 -> 277 ;
278 [label="gini = 0.0\nsamples = 1\nvalue = [0, 1, 0, 0, 0, 0, 0, 0, 0]\nclass = 3.0", fillcolor="#d7e539"] ;
276 -> 278 ;
279 [label="MGO(WT%) <= 6.905\ngini = 0.5\nsamples = 6\nvalue = [1, 0, 1, 0, 0, 4, 0, 0, 0]\nclass = 2.0", fillcolor="#88a2ef"] ;
63 -> 279 ;
280 [label="CAO(WT%) <= 10.55\ngini = 0.5\nsamples = 2\nvalue = [1, 0, 1, 0, 0, 0, 0, 0, 0]\nclass = 1.0", fillcolor="#ffffff"] ;
279 -> 280 ;
281 [label="gini = 0.0\nsamples = 1\nvalue = [0, 0, 1, 0, 0, 0, 0, 0, 0]\nclass = 7.0", fillcolor="#64e539"] ;
280 -> 281 ;
282 [label="gini = 0.0\nsamples = 1\nvalue = [1, 0, 0, 0, 0, 0, 0, 0, 0]\nclass = 1.0", fillcolor="#e58139"] ;
280 -> 282 ;
283 [label="gini = 0.0\nsamples = 4\nvalue = [0, 0, 0, 0, 0, 4, 0, 0, 0]\nclass = 2.0", fillcolor="#3964e5"] ;
279 -> 283 ;
284 [label="SIO2(WT%) <= 46.055\ngini = 0.55\nsamples = 188\nvalue = [121, 19, 0, 0, 27, 12, 5, 4, 0]\nclass = 1.0", fillcolor="#f0b58b"] ;
62 -> 284 ;
285 [label="CAO(WT%) <= 9.5\ngini = 0.676\nsamples = 39\nvalue = [14, 6, 0, 0, 16, 1, 2, 0, 0]\nclass = 4.0", fillcolor="#effcfd"] ;
284 -> 285 ;
286 [label="K2O(WT%) <= 0.305\ngini = 0.524\nsamples = 15\nvalue = [9, 5, 0, 0, 0, 1, 0, 0, 0]\nclass = 1.0", fillcolor="#f5cdb0"] ;
285 -> 286 ;
287 [label="NA2O(WT%) <= 1.055\ngini = 0.408\nsamples = 7\nvalue = [2, 5, 0, 0, 0, 0, 0, 0, 0]\nclass = 3.0", fillcolor="#e7ef88"] ;
286 -> 287 ;
288 [label="CAO(WT%) <= 5.63\ngini = 0.444\nsamples = 3\nvalue = [2, 1, 0, 0, 0, 0, 0, 0, 0]\nclass = 1.0", fillcolor="#f2c09c"] ;
287 -> 288 ;
289 [label="gini = 0.0\nsamples = 1\nvalue = [0, 1, 0, 0, 0, 0, 0, 0, 0]\nclass = 3.0", fillcolor="#d7e539"] ;
288 -> 289 ;
290 [label="gini = 0.0\nsamples = 2\nvalue = [2, 0, 0, 0, 0, 0, 0, 0, 0]\nclass = 1.0", fillcolor="#e58139"] ;
288 -> 290 ;
291 [label="gini = 0.0\nsamples = 4\nvalue = [0, 4, 0, 0, 0, 0, 0, 0, 0]\nclass = 3.0", fillcolor="#d7e539"] ;
287 -> 291 ;
292 [label="FeO* <= 17.036\ngini = 0.219\nsamples = 8\nvalue = [7, 0, 0, 0, 0, 1, 0, 0, 0]\nclass = 1.0", fillcolor="#e99355"] ;
286 -> 292 ;
293 [label="gini = 0.0\nsamples = 7\nvalue = [7, 0, 0, 0, 0, 0, 0, 0, 0]\nclass = 1.0", fillcolor="#e58139"] ;
292 -> 293 ;
294 [label="gini = 0.0\nsamples = 1\nvalue = [0, 0, 0, 0, 0, 1, 0, 0, 0]\nclass = 2.0", fillcolor="#3964e5"] ;
292 -> 294 ;
295 [label="CAO(WT%) <= 10.245\ngini = 0.503\nsamples = 24\nvalue = [5, 1, 0, 0, 16, 0, 2, 0, 0]\nclass = 4.0", fillcolor="#8ce8f0"] ;
285 -> 295 ;
296 [label="FeO* <= 13.005\ngini = 0.117\nsamples = 16\nvalue = [1, 0, 0, 0, 15, 0, 0, 0, 0]\nclass = 4.0", fillcolor="#46dae7"] ;
295 -> 296 ;
297 [label="gini = 0.0\nsamples = 15\nvalue = [0, 0, 0, 0, 15, 0, 0, 0, 0]\nclass = 4.0", fillcolor="#39d7e5"] ;
296 -> 297 ;
298 [label="gini = 0.0\nsamples = 1\nvalue = [1, 0, 0, 0, 0, 0, 0, 0, 0]\nclass = 1.0", fillcolor="#e58139"] ;
296 -> 298 ;
299 [label="SIO2(WT%) <= 45.4\ngini = 0.656\nsamples = 8\nvalue = [4, 1, 0, 0, 1, 0, 2, 0, 0]\nclass = 1.0", fillcolor="#f6d5bd"] ;
295 -> 299 ;
300 [label="gini = 0.0\nsamples = 2\nvalue = [0, 0, 0, 0, 0, 0, 2, 0, 0]\nclass = 5.0", fillcolor="#8139e5"] ;
299 -> 300 ;
301 [label="TIO2(WT%) <= 1.765\ngini = 0.5\nsamples = 6\nvalue = [4, 1, 0, 0, 1, 0, 0, 0, 0]\nclass = 1.0", fillcolor="#efb388"] ;
299 -> 301 ;
302 [label="gini = 0.0\nsamples = 1\nvalue = [0, 0, 0, 0, 1, 0, 0, 0, 0]\nclass = 4.0", fillcolor="#39d7e5"] ;
301 -> 302 ;
303 [label="CAO(WT%) <= 10.375\ngini = 0.32\nsamples = 5\nvalue = [4, 1, 0, 0, 0, 0, 0, 0, 0]\nclass = 1.0", fillcolor="#eca06a"] ;
301 -> 303 ;
304 [label="gini = 0.0\nsamples = 1\nvalue = [0, 1, 0, 0, 0, 0, 0, 0, 0]\nclass = 3.0", fillcolor="#d7e539"] ;
303 -> 304 ;
305 [label="gini = 0.0\nsamples = 4\nvalue = [4, 0, 0, 0, 0, 0, 0, 0, 0]\nclass = 1.0", fillcolor="#e58139"] ;
303 -> 305 ;
306 [label="AL2O3(WT%) <= 14.075\ngini = 0.465\nsamples = 149\nvalue = [107, 13, 0, 0, 11, 11, 3, 4, 0]\nclass = 1.0", fillcolor="#eda876"] ;
284 -> 306 ;
307 [label="FeO* <= 17.973\ngini = 0.41\nsamples = 141\nvalue = [107, 12, 0, 0, 6, 9, 3, 4, 0]\nclass = 1.0", fillcolor="#eca26d"] ;
306 -> 307 ;
308 [label="K2O(WT%) <= 0.215\ngini = 0.371\nsamples = 136\nvalue = [107, 7, 0, 0, 6, 9, 3, 4, 0]\nclass = 1.0", fillcolor="#eb9e66"] ;
307 -> 308 ;
309 [label="AL2O3(WT%) <= 11.295\ngini = 0.656\nsamples = 8\nvalue = [3, 2, 0, 0, 0, 3, 0, 0, 0]\nclass = 1.0", fillcolor="#ffffff"] ;
308 -> 309 ;
310 [label="K2O(WT%) <= 0.21\ngini = 0.375\nsamples = 4\nvalue = [3, 0, 0, 0, 0, 1, 0, 0, 0]\nclass = 1.0", fillcolor="#eeab7b"] ;
309 -> 310 ;
311 [label="gini = 0.0\nsamples = 3\nvalue = [3, 0, 0, 0, 0, 0, 0, 0, 0]\nclass = 1.0", fillcolor="#e58139"] ;
310 -> 311 ;
312 [label="gini = 0.0\nsamples = 1\nvalue = [0, 0, 0, 0, 0, 1, 0, 0, 0]\nclass = 2.0", fillcolor="#3964e5"] ;
310 -> 312 ;
313 [label="MGO(WT%) <= 12.36\ngini = 0.5\nsamples = 4\nvalue = [0, 2, 0, 0, 0, 2, 0, 0, 0]\nclass = 3.0", fillcolor="#ffffff"] ;
309 -> 313 ;
314 [label="gini = 0.0\nsamples = 2\nvalue = [0, 0, 0, 0, 0, 2, 0, 0, 0]\nclass = 2.0", fillcolor="#3964e5"] ;
313 -> 314 ;
315 [label="gini = 0.0\nsamples = 2\nvalue = [0, 2, 0, 0, 0, 0, 0, 0, 0]\nclass = 3.0", fillcolor="#d7e539"] ;
313 -> 315 ;
316 [label="FeO* <= 11.779\ngini = 0.332\nsamples = 128\nvalue = [104, 5, 0, 0, 6, 6, 3, 4, 0]\nclass = 1.0", fillcolor="#ea9a60"] ;
308 -> 316 ;
317 [label="NA2O(WT%) <= 1.975\ngini = 0.5\nsamples = 2\nvalue = [0, 1, 0, 0, 0, 1, 0, 0, 0]\nclass = 3.0", fillcolor="#ffffff"] ;
316 -> 317 ;
318 [label="gini = 0.0\nsamples = 1\nvalue = [0, 1, 0, 0, 0, 0, 0, 0, 0]\nclass = 3.0", fillcolor="#d7e539"] ;
317 -> 318 ;
319 [label="gini = 0.0\nsamples = 1\nvalue = [0, 0, 0, 0, 0, 1, 0, 0, 0]\nclass = 2.0", fillcolor="#3964e5"] ;
317 -> 319 ;
320 [label="MGO(WT%) <= 5.38\ngini = 0.312\nsamples = 126\nvalue = [104, 4, 0, 0, 6, 5, 3, 4, 0]\nclass = 1.0", fillcolor="#ea985d"] ;
316 -> 320 ;
321 [label="gini = 0.0\nsamples = 1\nvalue = [0, 0, 0, 0, 0, 1, 0, 0, 0]\nclass = 2.0", fillcolor="#3964e5"] ;
320 -> 321 ;
322 [label="SIO2(WT%) <= 49.87\ngini = 0.302\nsamples = 125\nvalue = [104, 4, 0, 0, 6, 4, 3, 4, 0]\nclass = 1.0", fillcolor="#ea975c"] ;
320 -> 322 ;
323 [label="MGO(WT%) <= 6.815\ngini = 0.415\nsamples = 74\nvalue = [56, 4, 0, 0, 5, 2, 3, 4, 0]\nclass = 1.0", fillcolor="#eca26d"] ;
322 -> 323 ;
324 [label="FeO* <= 12.296\ngini = 0.32\nsamples = 5\nvalue = [1, 0, 0, 0, 4, 0, 0, 0, 0]\nclass = 4.0", fillcolor="#6ae1ec"] ;
323 -> 324 ;
325 [label="gini = 0.0\nsamples = 4\nvalue = [0, 0, 0, 0, 4, 0, 0, 0, 0]\nclass = 4.0", fillcolor="#39d7e5"] ;
324 -> 325 ;
326 [label="gini = 0.0\nsamples = 1\nvalue = [1, 0, 0, 0, 0, 0, 0, 0, 0]\nclass = 1.0", fillcolor="#e58139"] ;
324 -> 326 ;
327 [label="TIO2(WT%) <= 2.129\ngini = 0.355\nsamples = 69\nvalue = [55, 4, 0, 0, 1, 2, 3, 4, 0]\nclass = 1.0", fillcolor="#eb9c64"] ;
323 -> 327 ;
328 [label="AL2O3(WT%) <= 13.71\ngini = 0.102\nsamples = 37\nvalue = [35, 0, 0, 0, 0, 0, 2, 0, 0]\nclass = 1.0", fillcolor="#e68844"] ;
327 -> 328 ;
329 [label="MGO(WT%) <= 11.45\ngini = 0.056\nsamples = 35\nvalue = [34, 0, 0, 0, 0, 0, 1, 0, 0]\nclass = 1.0", fillcolor="#e6853f"] ;
328 -> 329 ;
330 [label="MGO(WT%) <= 10.935\ngini = 0.32\nsamples = 5\nvalue = [4, 0, 0, 0, 0, 0, 1, 0, 0]\nclass = 1.0", fillcolor="#eca06a"] ;
329 -> 330 ;
331 [label="gini = 0.0\nsamples = 4\nvalue = [4, 0, 0, 0, 0, 0, 0, 0, 0]\nclass = 1.0", fillcolor="#e58139"] ;
330 -> 331 ;
332 [label="gini = 0.0\nsamples = 1\nvalue = [0, 0, 0, 0, 0, 0, 1, 0, 0]\nclass = 5.0", fillcolor="#8139e5"] ;
330 -> 332 ;
333 [label="gini = 0.0\nsamples = 30\nvalue = [30, 0, 0, 0, 0, 0, 0, 0, 0]\nclass = 1.0", fillcolor="#e58139"] ;
329 -> 333 ;
334 [label="TIO2(WT%) <= 1.885\ngini = 0.5\nsamples = 2\nvalue = [1, 0, 0, 0, 0, 0, 1, 0, 0]\nclass = 1.0", fillcolor="#ffffff"] ;
328 -> 334 ;
335 [label="gini = 0.0\nsamples = 1\nvalue = [0, 0, 0, 0, 0, 0, 1, 0, 0]\nclass = 5.0", fillcolor="#8139e5"] ;
334 -> 335 ;
336 [label="gini = 0.0\nsamples = 1\nvalue = [1, 0, 0, 0, 0, 0, 0, 0, 0]\nclass = 1.0", fillcolor="#e58139"] ;
334 -> 336 ;
337 [label="CAO(WT%) <= 8.515\ngini = 0.572\nsamples = 32\nvalue = [20, 4, 0, 0, 1, 2, 1, 4, 0]\nclass = 1.0", fillcolor="#f0b78e"] ;
327 -> 337 ;
338 [label="K2O(WT%) <= 0.61\ngini = 0.5\nsamples = 6\nvalue = [1, 0, 0, 0, 0, 1, 0, 4, 0]\nclass = 8.0", fillcolor="#ef88e7"] ;
337 -> 338 ;
339 [label="gini = 0.0\nsamples = 4\nvalue = [0, 0, 0, 0, 0, 0, 0, 4, 0]\nclass = 8.0", fillcolor="#e539d7"] ;
338 -> 339 ;
340 [label="NA2O(WT%) <= 2.175\ngini = 0.5\nsamples = 2\nvalue = [1, 0, 0, 0, 0, 1, 0, 0, 0]\nclass = 1.0", fillcolor="#ffffff"] ;
338 -> 340 ;
341 [label="gini = 0.0\nsamples = 1\nvalue = [0, 0, 0, 0, 0, 1, 0, 0, 0]\nclass = 2.0", fillcolor="#3964e5"] ;
340 -> 341 ;
342 [label="gini = 0.0\nsamples = 1\nvalue = [1, 0, 0, 0, 0, 0, 0, 0, 0]\nclass = 1.0", fillcolor="#e58139"] ;
340 -> 342 ;
343 [label="SIO2(WT%) <= 46.7\ngini = 0.438\nsamples = 26\nvalue = [19, 4, 0, 0, 1, 1, 1, 0, 0]\nclass = 1.0", fillcolor="#eda978"] ;
337 -> 343 ;
344 [label="NA2O(WT%) <= 2.175\ngini = 0.444\nsamples = 3\nvalue = [0, 2, 0, 0, 0, 0, 1, 0, 0]\nclass = 3.0", fillcolor="#ebf29c"] ;
343 -> 344 ;
345 [label="gini = 0.0\nsamples = 2\nvalue = [0, 2, 0, 0, 0, 0, 0, 0, 0]\nclass = 3.0", fillcolor="#d7e539"] ;
344 -> 345 ;
346 [label="gini = 0.0\nsamples = 1\nvalue = [0, 0, 0, 0, 0, 0, 1, 0, 0]\nclass = 5.0", fillcolor="#8139e5"] ;
344 -> 346 ;
347 [label="FeO* <= 11.843\ngini = 0.306\nsamples = 23\nvalue = [19, 2, 0, 0, 1, 1, 0, 0, 0]\nclass = 1.0", fillcolor="#ea995f"] ;
343 -> 347 ;
348 [label="MGO(WT%) <= 11.195\ngini = 0.444\nsamples = 3\nvalue = [1, 2, 0, 0, 0, 0, 0, 0, 0]\nclass = 3.0", fillcolor="#ebf29c"] ;
347 -> 348 ;
349 [label="gini = 0.0\nsamples = 1\nvalue = [1, 0, 0, 0, 0, 0, 0, 0, 0]\nclass = 1.0", fillcolor="#e58139"] ;
348 -> 349 ;
350 [label="gini = 0.0\nsamples = 2\nvalue = [0, 2, 0, 0, 0, 0, 0, 0, 0]\nclass = 3.0", fillcolor="#d7e539"] ;
348 -> 350 ;
351 [label="AL2O3(WT%) <= 11.45\ngini = 0.185\nsamples = 20\nvalue = [18, 0, 0, 0, 1, 1, 0, 0, 0]\nclass = 1.0", fillcolor="#e88e4e"] ;
347 -> 351 ;
352 [label="SIO2(WT%) <= 48.58\ngini = 0.56\nsamples = 5\nvalue = [3, 0, 0, 0, 1, 1, 0, 0, 0]\nclass = 1.0", fillcolor="#f2c09c"] ;
351 -> 352 ;
353 [label="FeO* <= 11.958\ngini = 0.5\nsamples = 2\nvalue = [0, 0, 0, 0, 1, 1, 0, 0, 0]\nclass = 4.0", fillcolor="#ffffff"] ;
352 -> 353 ;
354 [label="gini = 0.0\nsamples = 1\nvalue = [0, 0, 0, 0, 0, 1, 0, 0, 0]\nclass = 2.0", fillcolor="#3964e5"] ;
353 -> 354 ;
355 [label="gini = 0.0\nsamples = 1\nvalue = [0, 0, 0, 0, 1, 0, 0, 0, 0]\nclass = 4.0", fillcolor="#39d7e5"] ;
353 -> 355 ;
356 [label="gini = 0.0\nsamples = 3\nvalue = [3, 0, 0, 0, 0, 0, 0, 0, 0]\nclass = 1.0", fillcolor="#e58139"] ;
352 -> 356 ;
357 [label="gini = 0.0\nsamples = 15\nvalue = [15, 0, 0, 0, 0, 0, 0, 0, 0]\nclass = 1.0", fillcolor="#e58139"] ;
351 -> 357 ;
358 [label="K2O(WT%) <= 0.745\ngini = 0.112\nsamples = 51\nvalue = [48, 0, 0, 0, 1, 2, 0, 0, 0]\nclass = 1.0", fillcolor="#e78945"] ;
322 -> 358 ;
359 [label="NA2O(WT%) <= 2.005\ngini = 0.078\nsamples = 50\nvalue = [48, 0, 0, 0, 1, 1, 0, 0, 0]\nclass = 1.0", fillcolor="#e68641"] ;
358 -> 359 ;
360 [label="K2O(WT%) <= 0.425\ngini = 0.5\nsamples = 2\nvalue = [1, 0, 0, 0, 0, 1, 0, 0, 0]\nclass = 1.0", fillcolor="#ffffff"] ;
359 -> 360 ;
361 [label="gini = 0.0\nsamples = 1\nvalue = [0, 0, 0, 0, 0, 1, 0, 0, 0]\nclass = 2.0", fillcolor="#3964e5"] ;
360 -> 361 ;
362 [label="gini = 0.0\nsamples = 1\nvalue = [1, 0, 0, 0, 0, 0, 0, 0, 0]\nclass = 1.0", fillcolor="#e58139"] ;
360 -> 362 ;
363 [label="FeO* <= 11.796\ngini = 0.041\nsamples = 48\nvalue = [47, 0, 0, 0, 1, 0, 0, 0, 0]\nclass = 1.0", fillcolor="#e6843d"] ;
359 -> 363 ;
364 [label="K2O(WT%) <= 0.455\ngini = 0.444\nsamples = 3\nvalue = [2, 0, 0, 0, 1, 0, 0, 0, 0]\nclass = 1.0", fillcolor="#f2c09c"] ;
363 -> 364 ;
365 [label="gini = 0.0\nsamples = 2\nvalue = [2, 0, 0, 0, 0, 0, 0, 0, 0]\nclass = 1.0", fillcolor="#e58139"] ;
364 -> 365 ;
366 [label="gini = 0.0\nsamples = 1\nvalue = [0, 0, 0, 0, 1, 0, 0, 0, 0]\nclass = 4.0", fillcolor="#39d7e5"] ;
364 -> 366 ;
367 [label="gini = 0.0\nsamples = 45\nvalue = [45, 0, 0, 0, 0, 0, 0, 0, 0]\nclass = 1.0", fillcolor="#e58139"] ;
363 -> 367 ;
368 [label="gini = 0.0\nsamples = 1\nvalue = [0, 0, 0, 0, 0, 1, 0, 0, 0]\nclass = 2.0", fillcolor="#3964e5"] ;
358 -> 368 ;
369 [label="gini = 0.0\nsamples = 5\nvalue = [0, 5, 0, 0, 0, 0, 0, 0, 0]\nclass = 3.0", fillcolor="#d7e539"] ;
307 -> 369 ;
370 [label="K2O(WT%) <= 0.197\ngini = 0.531\nsamples = 8\nvalue = [0, 1, 0, 0, 5, 2, 0, 0, 0]\nclass = 4.0", fillcolor="#9cebf2"] ;
306 -> 370 ;
371 [label="gini = 0.0\nsamples = 4\nvalue = [0, 0, 0, 0, 4, 0, 0, 0, 0]\nclass = 4.0", fillcolor="#39d7e5"] ;
370 -> 371 ;
372 [label="CAO(WT%) <= 10.585\ngini = 0.625\nsamples = 4\nvalue = [0, 1, 0, 0, 1, 2, 0, 0, 0]\nclass = 2.0", fillcolor="#bdcbf6"] ;
370 -> 372 ;
373 [label="gini = 0.0\nsamples = 2\nvalue = [0, 0, 0, 0, 0, 2, 0, 0, 0]\nclass = 2.0", fillcolor="#3964e5"] ;
372 -> 373 ;
374 [label="NA2O(WT%) <= 2.21\ngini = 0.5\nsamples = 2\nvalue = [0, 1, 0, 0, 1, 0, 0, 0, 0]\nclass = 3.0", fillcolor="#ffffff"] ;
372 -> 374 ;
375 [label="gini = 0.0\nsamples = 1\nvalue = [0, 1, 0, 0, 0, 0, 0, 0, 0]\nclass = 3.0", fillcolor="#d7e539"] ;
374 -> 375 ;
376 [label="gini = 0.0\nsamples = 1\nvalue = [0, 0, 0, 0, 1, 0, 0, 0, 0]\nclass = 4.0", fillcolor="#39d7e5"] ;
374 -> 376 ;
377 [label="CAO(WT%) <= 10.525\ngini = 0.718\nsamples = 143\nvalue = [54, 7, 6, 2, 5, 50, 3, 15, 1]\nclass = 1.0", fillcolor="#fefaf6"] ;
1 -> 377 ;
378 [label="FeO* <= 12.124\ngini = 0.673\nsamples = 81\nvalue = [19, 3, 4, 2, 5, 41, 0, 7, 0]\nclass = 2.0", fillcolor="#b9c8f6"] ;
377 -> 378 ;
379 [label="FeO* <= 11.203\ngini = 0.557\nsamples = 64\nvalue = [8, 1, 4, 2, 1, 41, 0, 7, 0]\nclass = 2.0", fillcolor="#8aa4f0"] ;
378 -> 379 ;
380 [label="SIO2(WT%) <= 46.595\ngini = 0.382\nsamples = 47\nvalue = [8, 1, 0, 2, 0, 36, 0, 0, 0]\nclass = 2.0", fillcolor="#7190ec"] ;
379 -> 380 ;
381 [label="NA2O(WT%) <= 1.235\ngini = 0.444\nsamples = 6\nvalue = [4, 0, 0, 0, 0, 2, 0, 0, 0]\nclass = 1.0", fillcolor="#f2c09c"] ;
380 -> 381 ;
382 [label="gini = 0.0\nsamples = 2\nvalue = [0, 0, 0, 0, 0, 2, 0, 0, 0]\nclass = 2.0", fillcolor="#3964e5"] ;
381 -> 382 ;
383 [label="gini = 0.0\nsamples = 4\nvalue = [4, 0, 0, 0, 0, 0, 0, 0, 0]\nclass = 1.0", fillcolor="#e58139"] ;
381 -> 383 ;
384 [label="TIO2(WT%) <= 2.01\ngini = 0.3\nsamples = 41\nvalue = [4, 1, 0, 2, 0, 34, 0, 0, 0]\nclass = 2.0", fillcolor="#5e81ea"] ;
380 -> 384 ;
385 [label="NA2O(WT%) <= 2.12\ngini = 0.694\nsamples = 7\nvalue = [3, 1, 0, 1, 0, 2, 0, 0, 0]\nclass = 1.0", fillcolor="#fae6d7"] ;
384 -> 385 ;
386 [label="gini = 0.0\nsamples = 3\nvalue = [3, 0, 0, 0, 0, 0, 0, 0, 0]\nclass = 1.0", fillcolor="#e58139"] ;
385 -> 386 ;
387 [label="TIO2(WT%) <= 1.87\ngini = 0.625\nsamples = 4\nvalue = [0, 1, 0, 1, 0, 2, 0, 0, 0]\nclass = 2.0", fillcolor="#bdcbf6"] ;
385 -> 387 ;
388 [label="MGO(WT%) <= 9.905\ngini = 0.5\nsamples = 2\nvalue = [0, 1, 0, 1, 0, 0, 0, 0, 0]\nclass = 3.0", fillcolor="#ffffff"] ;
387 -> 388 ;
389 [label="gini = 0.0\nsamples = 1\nvalue = [0, 0, 0, 1, 0, 0, 0, 0, 0]\nclass = 9.0", fillcolor="#39e581"] ;
388 -> 389 ;
390 [label="gini = 0.0\nsamples = 1\nvalue = [0, 1, 0, 0, 0, 0, 0, 0, 0]\nclass = 3.0", fillcolor="#d7e539"] ;
388 -> 390 ;
391 [label="gini = 0.0\nsamples = 2\nvalue = [0, 0, 0, 0, 0, 2, 0, 0, 0]\nclass = 2.0", fillcolor="#3964e5"] ;
387 -> 391 ;
392 [label="CAO(WT%) <= 9.515\ngini = 0.112\nsamples = 34\nvalue = [1, 0, 0, 1, 0, 32, 0, 0, 0]\nclass = 2.0", fillcolor="#456de7"] ;
384 -> 392 ;
393 [label="MGO(WT%) <= 7.665\ngini = 0.444\nsamples = 3\nvalue = [0, 0, 0, 1, 0, 2, 0, 0, 0]\nclass = 2.0", fillcolor="#9cb2f2"] ;
392 -> 393 ;
394 [label="gini = 0.0\nsamples = 1\nvalue = [0, 0, 0, 1, 0, 0, 0, 0, 0]\nclass = 9.0", fillcolor="#39e581"] ;
393 -> 394 ;
395 [label="gini = 0.0\nsamples = 2\nvalue = [0, 0, 0, 0, 0, 2, 0, 0, 0]\nclass = 2.0", fillcolor="#3964e5"] ;
393 -> 395 ;
396 [label="SIO2(WT%) <= 51.465\ngini = 0.062\nsamples = 31\nvalue = [1, 0, 0, 0, 0, 30, 0, 0, 0]\nclass = 2.0", fillcolor="#4069e6"] ;
392 -> 396 ;
397 [label="gini = 0.0\nsamples = 25\nvalue = [0, 0, 0, 0, 0, 25, 0, 0, 0]\nclass = 2.0", fillcolor="#3964e5"] ;
396 -> 397 ;
398 [label="FeO* <= 10.505\ngini = 0.278\nsamples = 6\nvalue = [1, 0, 0, 0, 0, 5, 0, 0, 0]\nclass = 2.0", fillcolor="#6183ea"] ;
396 -> 398 ;
399 [label="gini = 0.0\nsamples = 5\nvalue = [0, 0, 0, 0, 0, 5, 0, 0, 0]\nclass = 2.0", fillcolor="#3964e5"] ;
398 -> 399 ;
400 [label="gini = 0.0\nsamples = 1\nvalue = [1, 0, 0, 0, 0, 0, 0, 0, 0]\nclass = 1.0", fillcolor="#e58139"] ;
398 -> 400 ;
401 [label="NA2O(WT%) <= 2.295\ngini = 0.685\nsamples = 17\nvalue = [0, 0, 4, 0, 1, 5, 0, 7, 0]\nclass = 8.0", fillcolor="#fbdef8"] ;
379 -> 401 ;
402 [label="K2O(WT%) <= 0.21\ngini = 0.681\nsamples = 12\nvalue = [0, 0, 4, 0, 1, 5, 0, 2, 0]\nclass = 2.0", fillcolor="#e6ecfc"] ;
401 -> 402 ;
403 [label="FeO* <= 11.277\ngini = 0.5\nsamples = 6\nvalue = [0, 0, 4, 0, 1, 1, 0, 0, 0]\nclass = 7.0", fillcolor="#a2ef88"] ;
402 -> 403 ;
404 [label="SIO2(WT%) <= 47.96\ngini = 0.5\nsamples = 2\nvalue = [0, 0, 0, 0, 1, 1, 0, 0, 0]\nclass = 4.0", fillcolor="#ffffff"] ;
403 -> 404 ;
405 [label="gini = 0.0\nsamples = 1\nvalue = [0, 0, 0, 0, 1, 0, 0, 0, 0]\nclass = 4.0", fillcolor="#39d7e5"] ;
404 -> 405 ;
406 [label="gini = 0.0\nsamples = 1\nvalue = [0, 0, 0, 0, 0, 1, 0, 0, 0]\nclass = 2.0", fillcolor="#3964e5"] ;
404 -> 406 ;
407 [label="gini = 0.0\nsamples = 4\nvalue = [0, 0, 4, 0, 0, 0, 0, 0, 0]\nclass = 7.0", fillcolor="#64e539"] ;
403 -> 407 ;
408 [label="K2O(WT%) <= 0.38\ngini = 0.444\nsamples = 6\nvalue = [0, 0, 0, 0, 0, 4, 0, 2, 0]\nclass = 2.0", fillcolor="#9cb2f2"] ;
402 -> 408 ;
409 [label="gini = 0.0\nsamples = 4\nvalue = [0, 0, 0, 0, 0, 4, 0, 0, 0]\nclass = 2.0", fillcolor="#3964e5"] ;
408 -> 409 ;
410 [label="gini = 0.0\nsamples = 2\nvalue = [0, 0, 0, 0, 0, 0, 0, 2, 0]\nclass = 8.0", fillcolor="#e539d7"] ;
408 -> 410 ;
411 [label="gini = 0.0\nsamples = 5\nvalue = [0, 0, 0, 0, 0, 0, 0, 5, 0]\nclass = 8.0", fillcolor="#e539d7"] ;
401 -> 411 ;
412 [label="CAO(WT%) <= 9.575\ngini = 0.512\nsamples = 17\nvalue = [11, 2, 0, 0, 4, 0, 0, 0, 0]\nclass = 1.0", fillcolor="#f1bb94"] ;
378 -> 412 ;
413 [label="K2O(WT%) <= 0.165\ngini = 0.165\nsamples = 11\nvalue = [10, 0, 0, 0, 1, 0, 0, 0, 0]\nclass = 1.0", fillcolor="#e88e4d"] ;
412 -> 413 ;
414 [label="MGO(WT%) <= 3.17\ngini = 0.5\nsamples = 2\nvalue = [1, 0, 0, 0, 1, 0, 0, 0, 0]\nclass = 1.0", fillcolor="#ffffff"] ;
413 -> 414 ;
415 [label="gini = 0.0\nsamples = 1\nvalue = [1, 0, 0, 0, 0, 0, 0, 0, 0]\nclass = 1.0", fillcolor="#e58139"] ;
414 -> 415 ;
416 [label="gini = 0.0\nsamples = 1\nvalue = [0, 0, 0, 0, 1, 0, 0, 0, 0]\nclass = 4.0", fillcolor="#39d7e5"] ;
414 -> 416 ;
417 [label="gini = 0.0\nsamples = 9\nvalue = [9, 0, 0, 0, 0, 0, 0, 0, 0]\nclass = 1.0", fillcolor="#e58139"] ;
413 -> 417 ;
418 [label="TIO2(WT%) <= 3.14\ngini = 0.611\nsamples = 6\nvalue = [1, 2, 0, 0, 3, 0, 0, 0, 0]\nclass = 4.0", fillcolor="#cef5f8"] ;
412 -> 418 ;
419 [label="NA2O(WT%) <= 2.23\ngini = 0.444\nsamples = 3\nvalue = [1, 2, 0, 0, 0, 0, 0, 0, 0]\nclass = 3.0", fillcolor="#ebf29c"] ;
418 -> 419 ;
420 [label="gini = 0.0\nsamples = 2\nvalue = [0, 2, 0, 0, 0, 0, 0, 0, 0]\nclass = 3.0", fillcolor="#d7e539"] ;
419 -> 420 ;
421 [label="gini = 0.0\nsamples = 1\nvalue = [1, 0, 0, 0, 0, 0, 0, 0, 0]\nclass = 1.0", fillcolor="#e58139"] ;
419 -> 421 ;
422 [label="gini = 0.0\nsamples = 3\nvalue = [0, 0, 0, 0, 3, 0, 0, 0, 0]\nclass = 4.0", fillcolor="#39d7e5"] ;
418 -> 422 ;
423 [label="TIO2(WT%) <= 1.43\ngini = 0.636\nsamples = 62\nvalue = [35, 4, 2, 0, 0, 9, 3, 8, 1]\nclass = 1.0", fillcolor="#f2c19e"] ;
377 -> 423 ;
424 [label="CAO(WT%) <= 11.51\ngini = 0.43\nsamples = 11\nvalue = [2, 0, 0, 0, 0, 1, 0, 8, 0]\nclass = 8.0", fillcolor="#ee7be4"] ;
423 -> 424 ;
425 [label="gini = 0.0\nsamples = 8\nvalue = [0, 0, 0, 0, 0, 0, 0, 8, 0]\nclass = 8.0", fillcolor="#e539d7"] ;
424 -> 425 ;
426 [label="CAO(WT%) <= 14.165\ngini = 0.444\nsamples = 3\nvalue = [2, 0, 0, 0, 0, 1, 0, 0, 0]\nclass = 1.0", fillcolor="#f2c09c"] ;
424 -> 426 ;
427 [label="gini = 0.0\nsamples = 1\nvalue = [0, 0, 0, 0, 0, 1, 0, 0, 0]\nclass = 2.0", fillcolor="#3964e5"] ;
426 -> 427 ;
428 [label="gini = 0.0\nsamples = 2\nvalue = [2, 0, 0, 0, 0, 0, 0, 0, 0]\nclass = 1.0", fillcolor="#e58139"] ;
426 -> 428 ;
429 [label="K2O(WT%) <= 0.475\ngini = 0.545\nsamples = 51\nvalue = [33, 4, 2, 0, 0, 8, 3, 0, 1]\nclass = 1.0", fillcolor="#f0b68c"] ;
423 -> 429 ;
430 [label="K2O(WT%) <= 0.185\ngini = 0.677\nsamples = 36\nvalue = [18, 4, 2, 0, 0, 8, 3, 0, 1]\nclass = 1.0", fillcolor="#f6d2b8"] ;
429 -> 430 ;
431 [label="CAO(WT%) <= 11.755\ngini = 0.272\nsamples = 13\nvalue = [11, 0, 1, 0, 0, 1, 0, 0, 0]\nclass = 1.0", fillcolor="#e9965a"] ;
430 -> 431 ;
432 [label="CAO(WT%) <= 10.555\ngini = 0.153\nsamples = 12\nvalue = [11, 0, 0, 0, 0, 1, 0, 0, 0]\nclass = 1.0", fillcolor="#e78c4b"] ;
431 -> 432 ;
433 [label="MGO(WT%) <= 8.525\ngini = 0.5\nsamples = 2\nvalue = [1, 0, 0, 0, 0, 1, 0, 0, 0]\nclass = 1.0", fillcolor="#ffffff"] ;
432 -> 433 ;
434 [label="gini = 0.0\nsamples = 1\nvalue = [0, 0, 0, 0, 0, 1, 0, 0, 0]\nclass = 2.0", fillcolor="#3964e5"] ;
433 -> 434 ;
435 [label="gini = 0.0\nsamples = 1\nvalue = [1, 0, 0, 0, 0, 0, 0, 0, 0]\nclass = 1.0", fillcolor="#e58139"] ;
433 -> 435 ;
436 [label="gini = 0.0\nsamples = 10\nvalue = [10, 0, 0, 0, 0, 0, 0, 0, 0]\nclass = 1.0", fillcolor="#e58139"] ;
432 -> 436 ;
437 [label="gini = 0.0\nsamples = 1\nvalue = [0, 0, 1, 0, 0, 0, 0, 0, 0]\nclass = 7.0", fillcolor="#64e539"] ;
431 -> 437 ;
438 [label="CAO(WT%) <= 11.115\ngini = 0.764\nsamples = 23\nvalue = [7, 4, 1, 0, 0, 7, 3, 0, 1]\nclass = 1.0", fillcolor="#ffffff"] ;
430 -> 438 ;
439 [label="NA2O(WT%) <= 1.95\ngini = 0.627\nsamples = 13\nvalue = [0, 2, 1, 0, 0, 7, 3, 0, 0]\nclass = 2.0", fillcolor="#b0c1f5"] ;
438 -> 439 ;
440 [label="gini = 0.0\nsamples = 2\nvalue = [0, 2, 0, 0, 0, 0, 0, 0, 0]\nclass = 3.0", fillcolor="#d7e539"] ;
439 -> 440 ;
441 [label="CAO(WT%) <= 10.79\ngini = 0.512\nsamples = 11\nvalue = [0, 0, 1, 0, 0, 7, 3, 0, 0]\nclass = 2.0", fillcolor="#9cb2f2"] ;
439 -> 441 ;
442 [label="MGO(WT%) <= 7.015\ngini = 0.56\nsamples = 5\nvalue = [0, 0, 1, 0, 0, 1, 3, 0, 0]\nclass = 5.0", fillcolor="#c09cf2"] ;
441 -> 442 ;
443 [label="gini = 0.0\nsamples = 3\nvalue = [0, 0, 0, 0, 0, 0, 3, 0, 0]\nclass = 5.0", fillcolor="#8139e5"] ;
442 -> 443 ;
444 [label="MGO(WT%) <= 7.12\ngini = 0.5\nsamples = 2\nvalue = [0, 0, 1, 0, 0, 1, 0, 0, 0]\nclass = 7.0", fillcolor="#ffffff"] ;
442 -> 444 ;
445 [label="gini = 0.0\nsamples = 1\nvalue = [0, 0, 0, 0, 0, 1, 0, 0, 0]\nclass = 2.0", fillcolor="#3964e5"] ;
444 -> 445 ;
446 [label="gini = 0.0\nsamples = 1\nvalue = [0, 0, 1, 0, 0, 0, 0, 0, 0]\nclass = 7.0", fillcolor="#64e539"] ;
444 -> 446 ;
447 [label="gini = 0.0\nsamples = 6\nvalue = [0, 0, 0, 0, 0, 6, 0, 0, 0]\nclass = 2.0", fillcolor="#3964e5"] ;
441 -> 447 ;
448 [label="NA2O(WT%) <= 2.065\ngini = 0.46\nsamples = 10\nvalue = [7, 2, 0, 0, 0, 0, 0, 0, 1]\nclass = 1.0", fillcolor="#efb083"] ;
438 -> 448 ;
449 [label="gini = 0.0\nsamples = 2\nvalue = [0, 2, 0, 0, 0, 0, 0, 0, 0]\nclass = 3.0", fillcolor="#d7e539"] ;
448 -> 449 ;
450 [label="TIO2(WT%) <= 1.86\ngini = 0.219\nsamples = 8\nvalue = [7, 0, 0, 0, 0, 0, 0, 0, 1]\nclass = 1.0", fillcolor="#e99355"] ;
448 -> 450 ;
451 [label="gini = 0.0\nsamples = 1\nvalue = [0, 0, 0, 0, 0, 0, 0, 0, 1]\nclass = 6.0", fillcolor="#e53964"] ;
450 -> 451 ;
452 [label="gini = 0.0\nsamples = 7\nvalue = [7, 0, 0, 0, 0, 0, 0, 0, 0]\nclass = 1.0", fillcolor="#e58139"] ;
450 -> 452 ;
453 [label="gini = 0.0\nsamples = 15\nvalue = [15, 0, 0, 0, 0, 0, 0, 0, 0]\nclass = 1.0", fillcolor="#e58139"] ;
429 -> 453 ;
454 [label="SIO2(WT%) <= 45.16\ngini = 0.732\nsamples = 747\nvalue = [276, 48, 15, 0, 85, 247, 46, 22, 8]\nclass = 1.0", fillcolor="#fdf8f4"] ;
0 -> 454 [labeldistance=2.5, labelangle=-45, headlabel="False"] ;
455 [label="NA2O(WT%) <= 3.165\ngini = 0.596\nsamples = 164\nvalue = [8, 13, 0, 0, 2, 96, 37, 4, 4]\nclass = 2.0", fillcolor="#a3b7f3"] ;
454 -> 455 ;
456 [label="AL2O3(WT%) <= 11.63\ngini = 0.665\nsamples = 71\nvalue = [6, 3, 0, 0, 2, 20, 35, 4, 1]\nclass = 5.0", fillcolor="#dac5f7"] ;
455 -> 456 ;
457 [label="SIO2(WT%) <= 38.18\ngini = 0.283\nsamples = 31\nvalue = [2, 0, 0, 0, 0, 3, 26, 0, 0]\nclass = 5.0", fillcolor="#985cea"] ;
456 -> 457 ;
458 [label="K2O(WT%) <= 1.34\ngini = 0.64\nsamples = 5\nvalue = [2, 0, 0, 0, 0, 2, 1, 0, 0]\nclass = 1.0", fillcolor="#ffffff"] ;
457 -> 458 ;
459 [label="AL2O3(WT%) <= 9.98\ngini = 0.444\nsamples = 3\nvalue = [0, 0, 0, 0, 0, 2, 1, 0, 0]\nclass = 2.0", fillcolor="#9cb2f2"] ;
458 -> 459 ;
460 [label="gini = 0.0\nsamples = 1\nvalue = [0, 0, 0, 0, 0, 0, 1, 0, 0]\nclass = 5.0", fillcolor="#8139e5"] ;
459 -> 460 ;
461 [label="gini = 0.0\nsamples = 2\nvalue = [0, 0, 0, 0, 0, 2, 0, 0, 0]\nclass = 2.0", fillcolor="#3964e5"] ;
459 -> 461 ;
462 [label="gini = 0.0\nsamples = 2\nvalue = [2, 0, 0, 0, 0, 0, 0, 0, 0]\nclass = 1.0", fillcolor="#e58139"] ;
458 -> 462 ;
463 [label="FeO* <= 12.091\ngini = 0.074\nsamples = 26\nvalue = [0, 0, 0, 0, 0, 1, 25, 0, 0]\nclass = 5.0", fillcolor="#8641e6"] ;
457 -> 463 ;
464 [label="NA2O(WT%) <= 2.875\ngini = 0.5\nsamples = 2\nvalue = [0, 0, 0, 0, 0, 1, 1, 0, 0]\nclass = 2.0", fillcolor="#ffffff"] ;
463 -> 464 ;
465 [label="gini = 0.0\nsamples = 1\nvalue = [0, 0, 0, 0, 0, 0, 1, 0, 0]\nclass = 5.0", fillcolor="#8139e5"] ;
464 -> 465 ;
466 [label="gini = 0.0\nsamples = 1\nvalue = [0, 0, 0, 0, 0, 1, 0, 0, 0]\nclass = 2.0", fillcolor="#3964e5"] ;
464 -> 466 ;
467 [label="gini = 0.0\nsamples = 24\nvalue = [0, 0, 0, 0, 0, 0, 24, 0, 0]\nclass = 5.0", fillcolor="#8139e5"] ;
463 -> 467 ;
468 [label="AL2O3(WT%) <= 13.785\ngini = 0.74\nsamples = 40\nvalue = [4, 3, 0, 0, 2, 17, 9, 4, 1]\nclass = 2.0", fillcolor="#ccd7f8"] ;
456 -> 468 ;
469 [label="CAO(WT%) <= 10.955\ngini = 0.582\nsamples = 30\nvalue = [0, 1, 0, 0, 2, 17, 9, 0, 1]\nclass = 2.0", fillcolor="#b4c4f5"] ;
468 -> 469 ;
470 [label="NA2O(WT%) <= 2.59\ngini = 0.165\nsamples = 11\nvalue = [0, 0, 0, 0, 1, 10, 0, 0, 0]\nclass = 2.0", fillcolor="#4d74e8"] ;
469 -> 470 ;
471 [label="TIO2(WT%) <= 2.385\ngini = 0.444\nsamples = 3\nvalue = [0, 0, 0, 0, 1, 2, 0, 0, 0]\nclass = 2.0", fillcolor="#9cb2f2"] ;
470 -> 471 ;
472 [label="gini = 0.0\nsamples = 2\nvalue = [0, 0, 0, 0, 0, 2, 0, 0, 0]\nclass = 2.0", fillcolor="#3964e5"] ;
471 -> 472 ;
473 [label="gini = 0.0\nsamples = 1\nvalue = [0, 0, 0, 0, 1, 0, 0, 0, 0]\nclass = 4.0", fillcolor="#39d7e5"] ;
471 -> 473 ;
474 [label="gini = 0.0\nsamples = 8\nvalue = [0, 0, 0, 0, 0, 8, 0, 0, 0]\nclass = 2.0", fillcolor="#3964e5"] ;
470 -> 474 ;
475 [label="NA2O(WT%) <= 2.83\ngini = 0.632\nsamples = 19\nvalue = [0, 1, 0, 0, 1, 7, 9, 0, 1]\nclass = 5.0", fillcolor="#eadefb"] ;
469 -> 475 ;
476 [label="TIO2(WT%) <= 2.565\ngini = 0.562\nsamples = 8\nvalue = [0, 0, 0, 0, 1, 5, 1, 0, 1]\nclass = 2.0", fillcolor="#8ea6f0"] ;
475 -> 476 ;
477 [label="CAO(WT%) <= 11.045\ngini = 0.278\nsamples = 6\nvalue = [0, 0, 0, 0, 1, 5, 0, 0, 0]\nclass = 2.0", fillcolor="#6183ea"] ;
476 -> 477 ;
478 [label="gini = 0.0\nsamples = 1\nvalue = [0, 0, 0, 0, 1, 0, 0, 0, 0]\nclass = 4.0", fillcolor="#39d7e5"] ;
477 -> 478 ;
479 [label="gini = 0.0\nsamples = 5\nvalue = [0, 0, 0, 0, 0, 5, 0, 0, 0]\nclass = 2.0", fillcolor="#3964e5"] ;
477 -> 479 ;
480 [label="CAO(WT%) <= 11.96\ngini = 0.5\nsamples = 2\nvalue = [0, 0, 0, 0, 0, 0, 1, 0, 1]\nclass = 5.0", fillcolor="#ffffff"] ;
476 -> 480 ;
481 [label="gini = 0.0\nsamples = 1\nvalue = [0, 0, 0, 0, 0, 0, 1, 0, 0]\nclass = 5.0", fillcolor="#8139e5"] ;
480 -> 481 ;
482 [label="gini = 0.0\nsamples = 1\nvalue = [0, 0, 0, 0, 0, 0, 0, 0, 1]\nclass = 6.0", fillcolor="#e53964"] ;
480 -> 482 ;
483 [label="K2O(WT%) <= 1.265\ngini = 0.43\nsamples = 11\nvalue = [0, 1, 0, 0, 0, 2, 8, 0, 0]\nclass = 5.0", fillcolor="#ab7bee"] ;
475 -> 483 ;
484 [label="FeO* <= 13.674\ngini = 0.198\nsamples = 9\nvalue = [0, 0, 0, 0, 0, 1, 8, 0, 0]\nclass = 5.0", fillcolor="#9152e8"] ;
483 -> 484 ;
485 [label="gini = 0.0\nsamples = 8\nvalue = [0, 0, 0, 0, 0, 0, 8, 0, 0]\nclass = 5.0", fillcolor="#8139e5"] ;
484 -> 485 ;
486 [label="gini = 0.0\nsamples = 1\nvalue = [0, 0, 0, 0, 0, 1, 0, 0, 0]\nclass = 2.0", fillcolor="#3964e5"] ;
484 -> 486 ;
487 [label="SIO2(WT%) <= 43.105\ngini = 0.5\nsamples = 2\nvalue = [0, 1, 0, 0, 0, 1, 0, 0, 0]\nclass = 3.0", fillcolor="#ffffff"] ;
483 -> 487 ;
488 [label="gini = 0.0\nsamples = 1\nvalue = [0, 1, 0, 0, 0, 0, 0, 0, 0]\nclass = 3.0", fillcolor="#d7e539"] ;
487 -> 488 ;
489 [label="gini = 0.0\nsamples = 1\nvalue = [0, 0, 0, 0, 0, 1, 0, 0, 0]\nclass = 2.0", fillcolor="#3964e5"] ;
487 -> 489 ;
490 [label="MGO(WT%) <= 9.245\ngini = 0.64\nsamples = 10\nvalue = [4, 2, 0, 0, 0, 0, 0, 4, 0]\nclass = 1.0", fillcolor="#ffffff"] ;
468 -> 490 ;
491 [label="FeO* <= 14.082\ngini = 0.444\nsamples = 6\nvalue = [4, 2, 0, 0, 0, 0, 0, 0, 0]\nclass = 1.0", fillcolor="#f2c09c"] ;
490 -> 491 ;
492 [label="gini = 0.0\nsamples = 4\nvalue = [4, 0, 0, 0, 0, 0, 0, 0, 0]\nclass = 1.0", fillcolor="#e58139"] ;
491 -> 492 ;
493 [label="gini = 0.0\nsamples = 2\nvalue = [0, 2, 0, 0, 0, 0, 0, 0, 0]\nclass = 3.0", fillcolor="#d7e539"] ;
491 -> 493 ;
494 [label="gini = 0.0\nsamples = 4\nvalue = [0, 0, 0, 0, 0, 0, 0, 4, 0]\nclass = 8.0", fillcolor="#e539d7"] ;
490 -> 494 ;
495 [label="TIO2(WT%) <= 3.285\ngini = 0.319\nsamples = 93\nvalue = [2, 10, 0, 0, 0, 76, 2, 0, 3]\nclass = 2.0", fillcolor="#6284ea"] ;
455 -> 495 ;
496 [label="FeO* <= 10.186\ngini = 0.141\nsamples = 81\nvalue = [0, 2, 0, 0, 0, 75, 1, 0, 3]\nclass = 2.0", fillcolor="#4870e7"] ;
495 -> 496 ;
497 [label="CAO(WT%) <= 9.19\ngini = 0.375\nsamples = 4\nvalue = [0, 0, 0, 0, 0, 1, 0, 0, 3]\nclass = 6.0", fillcolor="#ee7b98"] ;
496 -> 497 ;
498 [label="gini = 0.0\nsamples = 1\nvalue = [0, 0, 0, 0, 0, 1, 0, 0, 0]\nclass = 2.0", fillcolor="#3964e5"] ;
497 -> 498 ;
499 [label="gini = 0.0\nsamples = 3\nvalue = [0, 0, 0, 0, 0, 0, 0, 0, 3]\nclass = 6.0", fillcolor="#e53964"] ;
497 -> 499 ;
500 [label="AL2O3(WT%) <= 13.625\ngini = 0.076\nsamples = 77\nvalue = [0, 2, 0, 0, 0, 74, 1, 0, 0]\nclass = 2.0", fillcolor="#416ae6"] ;
496 -> 500 ;
501 [label="gini = 0.0\nsamples = 72\nvalue = [0, 0, 0, 0, 0, 72, 0, 0, 0]\nclass = 2.0", fillcolor="#3964e5"] ;
500 -> 501 ;
502 [label="SIO2(WT%) <= 44.225\ngini = 0.64\nsamples = 5\nvalue = [0, 2, 0, 0, 0, 2, 1, 0, 0]\nclass = 3.0", fillcolor="#ffffff"] ;
500 -> 502 ;
503 [label="TIO2(WT%) <= 2.665\ngini = 0.444\nsamples = 3\nvalue = [0, 2, 0, 0, 0, 0, 1, 0, 0]\nclass = 3.0", fillcolor="#ebf29c"] ;
502 -> 503 ;
504 [label="gini = 0.0\nsamples = 2\nvalue = [0, 2, 0, 0, 0, 0, 0, 0, 0]\nclass = 3.0", fillcolor="#d7e539"] ;
503 -> 504 ;
505 [label="gini = 0.0\nsamples = 1\nvalue = [0, 0, 0, 0, 0, 0, 1, 0, 0]\nclass = 5.0", fillcolor="#8139e5"] ;
503 -> 505 ;
506 [label="gini = 0.0\nsamples = 2\nvalue = [0, 0, 0, 0, 0, 2, 0, 0, 0]\nclass = 2.0", fillcolor="#3964e5"] ;
502 -> 506 ;
507 [label="SIO2(WT%) <= 40.455\ngini = 0.514\nsamples = 12\nvalue = [2, 8, 0, 0, 0, 1, 1, 0, 0]\nclass = 3.0", fillcolor="#e7ef88"] ;
495 -> 507 ;
508 [label="K2O(WT%) <= 0.665\ngini = 0.667\nsamples = 3\nvalue = [1, 0, 0, 0, 0, 1, 1, 0, 0]\nclass = 1.0", fillcolor="#ffffff"] ;
507 -> 508 ;
509 [label="gini = 0.0\nsamples = 1\nvalue = [0, 0, 0, 0, 0, 0, 1, 0, 0]\nclass = 5.0", fillcolor="#8139e5"] ;
508 -> 509 ;
510 [label="K2O(WT%) <= 1.365\ngini = 0.5\nsamples = 2\nvalue = [1, 0, 0, 0, 0, 1, 0, 0, 0]\nclass = 1.0", fillcolor="#ffffff"] ;
508 -> 510 ;
511 [label="gini = 0.0\nsamples = 1\nvalue = [0, 0, 0, 0, 0, 1, 0, 0, 0]\nclass = 2.0", fillcolor="#3964e5"] ;
510 -> 511 ;
512 [label="gini = 0.0\nsamples = 1\nvalue = [1, 0, 0, 0, 0, 0, 0, 0, 0]\nclass = 1.0", fillcolor="#e58139"] ;
510 -> 512 ;
513 [label="CAO(WT%) <= 8.14\ngini = 0.198\nsamples = 9\nvalue = [1, 8, 0, 0, 0, 0, 0, 0, 0]\nclass = 3.0", fillcolor="#dce852"] ;
507 -> 513 ;
514 [label="gini = 0.0\nsamples = 1\nvalue = [1, 0, 0, 0, 0, 0, 0, 0, 0]\nclass = 1.0", fillcolor="#e58139"] ;
513 -> 514 ;
515 [label="gini = 0.0\nsamples = 8\nvalue = [0, 8, 0, 0, 0, 0, 0, 0, 0]\nclass = 3.0", fillcolor="#d7e539"] ;
513 -> 515 ;
516 [label="SIO2(WT%) <= 48.605\ngini = 0.696\nsamples = 583\nvalue = [268, 35, 15, 0, 83, 151, 9, 18, 4]\nclass = 1.0", fillcolor="#f8ddc9"] ;
454 -> 516 ;
517 [label="TIO2(WT%) <= 2.8\ngini = 0.729\nsamples = 211\nvalue = [88, 17, 1, 0, 56, 25, 9, 14, 1]\nclass = 1.0", fillcolor="#fae5d6"] ;
516 -> 517 ;
518 [label="K2O(WT%) <= 0.52\ngini = 0.569\nsamples = 75\nvalue = [47, 1, 0, 0, 3, 6, 5, 12, 1]\nclass = 1.0", fillcolor="#f1b991"] ;
517 -> 518 ;
519 [label="CAO(WT%) <= 10.25\ngini = 0.142\nsamples = 13\nvalue = [0, 0, 0, 0, 0, 0, 1, 12, 0]\nclass = 8.0", fillcolor="#e749da"] ;
518 -> 519 ;
520 [label="gini = 0.0\nsamples = 1\nvalue = [0, 0, 0, 0, 0, 0, 1, 0, 0]\nclass = 5.0", fillcolor="#8139e5"] ;
519 -> 520 ;
521 [label="gini = 0.0\nsamples = 12\nvalue = [0, 0, 0, 0, 0, 0, 0, 12, 0]\nclass = 8.0", fillcolor="#e539d7"] ;
519 -> 521 ;
522 [label="SIO2(WT%) <= 46.365\ngini = 0.409\nsamples = 62\nvalue = [47, 1, 0, 0, 3, 6, 4, 0, 1]\nclass = 1.0", fillcolor="#eca36e"] ;
518 -> 522 ;
523 [label="NA2O(WT%) <= 2.915\ngini = 0.686\nsamples = 13\nvalue = [2, 0, 0, 0, 2, 6, 3, 0, 0]\nclass = 2.0", fillcolor="#c4d0f7"] ;
522 -> 523 ;
524 [label="MGO(WT%) <= 10.65\ngini = 0.611\nsamples = 6\nvalue = [1, 0, 0, 0, 2, 0, 3, 0, 0]\nclass = 5.0", fillcolor="#e0cef8"] ;
523 -> 524 ;
525 [label="K2O(WT%) <= 0.795\ngini = 0.444\nsamples = 3\nvalue = [1, 0, 0, 0, 2, 0, 0, 0, 0]\nclass = 4.0", fillcolor="#9cebf2"] ;
524 -> 525 ;
526 [label="gini = 0.0\nsamples = 2\nvalue = [0, 0, 0, 0, 2, 0, 0, 0, 0]\nclass = 4.0", fillcolor="#39d7e5"] ;
525 -> 526 ;
527 [label="gini = 0.0\nsamples = 1\nvalue = [1, 0, 0, 0, 0, 0, 0, 0, 0]\nclass = 1.0", fillcolor="#e58139"] ;
525 -> 527 ;
528 [label="gini = 0.0\nsamples = 3\nvalue = [0, 0, 0, 0, 0, 0, 3, 0, 0]\nclass = 5.0", fillcolor="#8139e5"] ;
524 -> 528 ;
529 [label="FeO* <= 15.879\ngini = 0.245\nsamples = 7\nvalue = [1, 0, 0, 0, 0, 6, 0, 0, 0]\nclass = 2.0", fillcolor="#5a7ee9"] ;
523 -> 529 ;
530 [label="gini = 0.0\nsamples = 6\nvalue = [0, 0, 0, 0, 0, 6, 0, 0, 0]\nclass = 2.0", fillcolor="#3964e5"] ;
529 -> 530 ;
531 [label="gini = 0.0\nsamples = 1\nvalue = [1, 0, 0, 0, 0, 0, 0, 0, 0]\nclass = 1.0", fillcolor="#e58139"] ;
529 -> 531 ;
532 [label="FeO* <= 9.471\ngini = 0.155\nsamples = 49\nvalue = [45, 1, 0, 0, 1, 0, 1, 0, 1]\nclass = 1.0", fillcolor="#e78c49"] ;
522 -> 532 ;
533 [label="FeO* <= 7.543\ngini = 0.5\nsamples = 2\nvalue = [0, 1, 0, 0, 0, 0, 0, 0, 1]\nclass = 3.0", fillcolor="#ffffff"] ;
532 -> 533 ;
534 [label="gini = 0.0\nsamples = 1\nvalue = [0, 0, 0, 0, 0, 0, 0, 0, 1]\nclass = 6.0", fillcolor="#e53964"] ;
533 -> 534 ;
535 [label="gini = 0.0\nsamples = 1\nvalue = [0, 1, 0, 0, 0, 0, 0, 0, 0]\nclass = 3.0", fillcolor="#d7e539"] ;
533 -> 535 ;
536 [label="CAO(WT%) <= 12.08\ngini = 0.082\nsamples = 47\nvalue = [45, 0, 0, 0, 1, 0, 1, 0, 0]\nclass = 1.0", fillcolor="#e68642"] ;
532 -> 536 ;
537 [label="K2O(WT%) <= 0.74\ngini = 0.043\nsamples = 46\nvalue = [45, 0, 0, 0, 0, 0, 1, 0, 0]\nclass = 1.0", fillcolor="#e6843d"] ;
536 -> 537 ;
538 [label="MGO(WT%) <= 10.28\ngini = 0.5\nsamples = 2\nvalue = [1, 0, 0, 0, 0, 0, 1, 0, 0]\nclass = 1.0", fillcolor="#ffffff"] ;
537 -> 538 ;
539 [label="gini = 0.0\nsamples = 1\nvalue = [0, 0, 0, 0, 0, 0, 1, 0, 0]\nclass = 5.0", fillcolor="#8139e5"] ;
538 -> 539 ;
540 [label="gini = 0.0\nsamples = 1\nvalue = [1, 0, 0, 0, 0, 0, 0, 0, 0]\nclass = 1.0", fillcolor="#e58139"] ;
538 -> 540 ;
541 [label="gini = 0.0\nsamples = 44\nvalue = [44, 0, 0, 0, 0, 0, 0, 0, 0]\nclass = 1.0", fillcolor="#e58139"] ;
537 -> 541 ;
542 [label="gini = 0.0\nsamples = 1\nvalue = [0, 0, 0, 0, 1, 0, 0, 0, 0]\nclass = 4.0", fillcolor="#39d7e5"] ;
536 -> 542 ;
543 [label="CAO(WT%) <= 10.05\ngini = 0.723\nsamples = 136\nvalue = [41, 16, 1, 0, 53, 19, 4, 2, 0]\nclass = 4.0", fillcolor="#e6fafc"] ;
517 -> 543 ;
544 [label="NA2O(WT%) <= 4.235\ngini = 0.726\nsamples = 93\nvalue = [15, 13, 1, 0, 40, 19, 3, 2, 0]\nclass = 4.0", fillcolor="#c7f4f8"] ;
543 -> 544 ;
545 [label="K2O(WT%) <= 1.205\ngini = 0.627\nsamples = 70\nvalue = [6, 4, 1, 0, 38, 18, 1, 2, 0]\nclass = 4.0", fillcolor="#b3f0f5"] ;
544 -> 545 ;
546 [label="K2O(WT%) <= 0.84\ngini = 0.434\nsamples = 45\nvalue = [0, 2, 1, 0, 33, 7, 0, 2, 0]\nclass = 4.0", fillcolor="#78e4ed"] ;
545 -> 546 ;
547 [label="NA2O(WT%) <= 2.93\ngini = 0.722\nsamples = 13\nvalue = [0, 1, 1, 0, 5, 4, 0, 2, 0]\nclass = 4.0", fillcolor="#e9fbfc"] ;
546 -> 547 ;
548 [label="SIO2(WT%) <= 47.56\ngini = 0.449\nsamples = 7\nvalue = [0, 1, 0, 0, 5, 0, 0, 1, 0]\nclass = 4.0", fillcolor="#7be4ee"] ;
547 -> 548 ;
549 [label="gini = 0.0\nsamples = 5\nvalue = [0, 0, 0, 0, 5, 0, 0, 0, 0]\nclass = 4.0", fillcolor="#39d7e5"] ;
548 -> 549 ;
550 [label="MGO(WT%) <= 6.64\ngini = 0.5\nsamples = 2\nvalue = [0, 1, 0, 0, 0, 0, 0, 1, 0]\nclass = 3.0", fillcolor="#ffffff"] ;
548 -> 550 ;
551 [label="gini = 0.0\nsamples = 1\nvalue = [0, 1, 0, 0, 0, 0, 0, 0, 0]\nclass = 3.0", fillcolor="#d7e539"] ;
550 -> 551 ;
552 [label="gini = 0.0\nsamples = 1\nvalue = [0, 0, 0, 0, 0, 0, 0, 1, 0]\nclass = 8.0", fillcolor="#e539d7"] ;
550 -> 552 ;
553 [label="CAO(WT%) <= 9.885\ngini = 0.5\nsamples = 6\nvalue = [0, 0, 1, 0, 0, 4, 0, 1, 0]\nclass = 2.0", fillcolor="#88a2ef"] ;
547 -> 553 ;
554 [label="gini = 0.0\nsamples = 4\nvalue = [0, 0, 0, 0, 0, 4, 0, 0, 0]\nclass = 2.0", fillcolor="#3964e5"] ;
553 -> 554 ;
555 [label="K2O(WT%) <= 0.655\ngini = 0.5\nsamples = 2\nvalue = [0, 0, 1, 0, 0, 0, 0, 1, 0]\nclass = 7.0", fillcolor="#ffffff"] ;
553 -> 555 ;
556 [label="gini = 0.0\nsamples = 1\nvalue = [0, 0, 0, 0, 0, 0, 0, 1, 0]\nclass = 8.0", fillcolor="#e539d7"] ;
555 -> 556 ;
557 [label="gini = 0.0\nsamples = 1\nvalue = [0, 0, 1, 0, 0, 0, 0, 0, 0]\nclass = 7.0", fillcolor="#64e539"] ;
555 -> 557 ;
558 [label="AL2O3(WT%) <= 17.915\ngini = 0.225\nsamples = 32\nvalue = [0, 1, 0, 0, 28, 3, 0, 0, 0]\nclass = 4.0", fillcolor="#54dde9"] ;
546 -> 558 ;
559 [label="TIO2(WT%) <= 3.135\ngini = 0.179\nsamples = 31\nvalue = [0, 1, 0, 0, 28, 2, 0, 0, 0]\nclass = 4.0", fillcolor="#4ddbe8"] ;
558 -> 559 ;
560 [label="gini = 0.0\nsamples = 1\nvalue = [0, 0, 0, 0, 0, 1, 0, 0, 0]\nclass = 2.0", fillcolor="#3964e5"] ;
559 -> 560 ;
561 [label="SIO2(WT%) <= 45.575\ngini = 0.127\nsamples = 30\nvalue = [0, 1, 0, 0, 28, 1, 0, 0, 0]\nclass = 4.0", fillcolor="#47dae7"] ;
559 -> 561 ;
562 [label="SIO2(WT%) <= 45.505\ngini = 0.5\nsamples = 2\nvalue = [0, 1, 0, 0, 1, 0, 0, 0, 0]\nclass = 3.0", fillcolor="#ffffff"] ;
561 -> 562 ;
563 [label="gini = 0.0\nsamples = 1\nvalue = [0, 0, 0, 0, 1, 0, 0, 0, 0]\nclass = 4.0", fillcolor="#39d7e5"] ;
562 -> 563 ;
564 [label="gini = 0.0\nsamples = 1\nvalue = [0, 1, 0, 0, 0, 0, 0, 0, 0]\nclass = 3.0", fillcolor="#d7e539"] ;
562 -> 564 ;
565 [label="CAO(WT%) <= 8.485\ngini = 0.069\nsamples = 28\nvalue = [0, 0, 0, 0, 27, 1, 0, 0, 0]\nclass = 4.0", fillcolor="#40d8e6"] ;
561 -> 565 ;
566 [label="K2O(WT%) <= 1.08\ngini = 0.375\nsamples = 4\nvalue = [0, 0, 0, 0, 3, 1, 0, 0, 0]\nclass = 4.0", fillcolor="#7be4ee"] ;
565 -> 566 ;
567 [label="gini = 0.0\nsamples = 1\nvalue = [0, 0, 0, 0, 0, 1, 0, 0, 0]\nclass = 2.0", fillcolor="#3964e5"] ;
566 -> 567 ;
568 [label="gini = 0.0\nsamples = 3\nvalue = [0, 0, 0, 0, 3, 0, 0, 0, 0]\nclass = 4.0", fillcolor="#39d7e5"] ;
566 -> 568 ;
569 [label="gini = 0.0\nsamples = 24\nvalue = [0, 0, 0, 0, 24, 0, 0, 0, 0]\nclass = 4.0", fillcolor="#39d7e5"] ;
565 -> 569 ;
570 [label="gini = 0.0\nsamples = 1\nvalue = [0, 0, 0, 0, 0, 1, 0, 0, 0]\nclass = 2.0", fillcolor="#3964e5"] ;
558 -> 570 ;
571 [label="MGO(WT%) <= 4.315\ngini = 0.701\nsamples = 25\nvalue = [6, 2, 0, 0, 5, 11, 1, 0, 0]\nclass = 2.0", fillcolor="#cbd6f8"] ;
545 -> 571 ;
572 [label="CAO(WT%) <= 6.485\ngini = 0.562\nsamples = 8\nvalue = [0, 1, 0, 0, 5, 1, 1, 0, 0]\nclass = 4.0", fillcolor="#8ee8f0"] ;
571 -> 572 ;
573 [label="TIO2(WT%) <= 3.625\ngini = 0.5\nsamples = 2\nvalue = [0, 0, 0, 0, 0, 1, 1, 0, 0]\nclass = 2.0", fillcolor="#ffffff"] ;
572 -> 573 ;
574 [label="gini = 0.0\nsamples = 1\nvalue = [0, 0, 0, 0, 0, 0, 1, 0, 0]\nclass = 5.0", fillcolor="#8139e5"] ;
573 -> 574 ;
575 [label="gini = 0.0\nsamples = 1\nvalue = [0, 0, 0, 0, 0, 1, 0, 0, 0]\nclass = 2.0", fillcolor="#3964e5"] ;
573 -> 575 ;
576 [label="K2O(WT%) <= 1.39\ngini = 0.278\nsamples = 6\nvalue = [0, 1, 0, 0, 5, 0, 0, 0, 0]\nclass = 4.0", fillcolor="#61dfea"] ;
572 -> 576 ;
577 [label="gini = 0.0\nsamples = 4\nvalue = [0, 0, 0, 0, 4, 0, 0, 0, 0]\nclass = 4.0", fillcolor="#39d7e5"] ;
576 -> 577 ;
578 [label="SIO2(WT%) <= 47.79\ngini = 0.5\nsamples = 2\nvalue = [0, 1, 0, 0, 1, 0, 0, 0, 0]\nclass = 3.0", fillcolor="#ffffff"] ;
576 -> 578 ;
579 [label="gini = 0.0\nsamples = 1\nvalue = [0, 1, 0, 0, 0, 0, 0, 0, 0]\nclass = 3.0", fillcolor="#d7e539"] ;
578 -> 579 ;
580 [label="gini = 0.0\nsamples = 1\nvalue = [0, 0, 0, 0, 1, 0, 0, 0, 0]\nclass = 4.0", fillcolor="#39d7e5"] ;
578 -> 580 ;
581 [label="FeO* <= 11.745\ngini = 0.526\nsamples = 17\nvalue = [6, 1, 0, 0, 0, 10, 0, 0, 0]\nclass = 2.0", fillcolor="#b7c7f6"] ;
571 -> 581 ;
582 [label="gini = 0.0\nsamples = 3\nvalue = [3, 0, 0, 0, 0, 0, 0, 0, 0]\nclass = 1.0", fillcolor="#e58139"] ;
581 -> 582 ;
583 [label="SIO2(WT%) <= 47.81\ngini = 0.439\nsamples = 14\nvalue = [3, 1, 0, 0, 0, 10, 0, 0, 0]\nclass = 2.0", fillcolor="#819cee"] ;
581 -> 583 ;
584 [label="K2O(WT%) <= 1.215\ngini = 0.292\nsamples = 12\nvalue = [1, 1, 0, 0, 0, 10, 0, 0, 0]\nclass = 2.0", fillcolor="#5d80ea"] ;
583 -> 584 ;
585 [label="gini = 0.0\nsamples = 1\nvalue = [1, 0, 0, 0, 0, 0, 0, 0, 0]\nclass = 1.0", fillcolor="#e58139"] ;
584 -> 585 ;
586 [label="SIO2(WT%) <= 46.33\ngini = 0.165\nsamples = 11\nvalue = [0, 1, 0, 0, 0, 10, 0, 0, 0]\nclass = 2.0", fillcolor="#4d74e8"] ;
584 -> 586 ;
587 [label="gini = 0.0\nsamples = 1\nvalue = [0, 1, 0, 0, 0, 0, 0, 0, 0]\nclass = 3.0", fillcolor="#d7e539"] ;
586 -> 587 ;
588 [label="gini = 0.0\nsamples = 10\nvalue = [0, 0, 0, 0, 0, 10, 0, 0, 0]\nclass = 2.0", fillcolor="#3964e5"] ;
586 -> 588 ;
589 [label="gini = 0.0\nsamples = 2\nvalue = [2, 0, 0, 0, 0, 0, 0, 0, 0]\nclass = 1.0", fillcolor="#e58139"] ;
583 -> 589 ;
590 [label="MGO(WT%) <= 4.355\ngini = 0.677\nsamples = 23\nvalue = [9, 9, 0, 0, 2, 1, 2, 0, 0]\nclass = 1.0", fillcolor="#ffffff"] ;
544 -> 590 ;
591 [label="FeO* <= 11.988\ngini = 0.219\nsamples = 8\nvalue = [0, 7, 0, 0, 1, 0, 0, 0, 0]\nclass = 3.0", fillcolor="#dde955"] ;
590 -> 591 ;
592 [label="gini = 0.0\nsamples = 7\nvalue = [0, 7, 0, 0, 0, 0, 0, 0, 0]\nclass = 3.0", fillcolor="#d7e539"] ;
591 -> 592 ;
593 [label="gini = 0.0\nsamples = 1\nvalue = [0, 0, 0, 0, 1, 0, 0, 0, 0]\nclass = 4.0", fillcolor="#39d7e5"] ;
591 -> 593 ;
594 [label="SIO2(WT%) <= 46.05\ngini = 0.596\nsamples = 15\nvalue = [9, 2, 0, 0, 1, 1, 2, 0, 0]\nclass = 1.0", fillcolor="#f1bb94"] ;
590 -> 594 ;
595 [label="gini = 0.0\nsamples = 2\nvalue = [0, 2, 0, 0, 0, 0, 0, 0, 0]\nclass = 3.0", fillcolor="#d7e539"] ;
594 -> 595 ;
596 [label="FeO* <= 11.456\ngini = 0.485\nsamples = 13\nvalue = [9, 0, 0, 0, 1, 1, 2, 0, 0]\nclass = 1.0", fillcolor="#eeaf81"] ;
594 -> 596 ;
597 [label="gini = 0.0\nsamples = 2\nvalue = [0, 0, 0, 0, 0, 0, 2, 0, 0]\nclass = 5.0", fillcolor="#8139e5"] ;
596 -> 597 ;
598 [label="AL2O3(WT%) <= 15.85\ngini = 0.314\nsamples = 11\nvalue = [9, 0, 0, 0, 1, 1, 0, 0, 0]\nclass = 1.0", fillcolor="#ea9a61"] ;
596 -> 598 ;
599 [label="K2O(WT%) <= 1.21\ngini = 0.5\nsamples = 2\nvalue = [0, 0, 0, 0, 1, 1, 0, 0, 0]\nclass = 4.0", fillcolor="#ffffff"] ;
598 -> 599 ;
600 [label="gini = 0.0\nsamples = 1\nvalue = [0, 0, 0, 0, 0, 1, 0, 0, 0]\nclass = 2.0", fillcolor="#3964e5"] ;
599 -> 600 ;
601 [label="gini = 0.0\nsamples = 1\nvalue = [0, 0, 0, 0, 1, 0, 0, 0, 0]\nclass = 4.0", fillcolor="#39d7e5"] ;
599 -> 601 ;
602 [label="gini = 0.0\nsamples = 9\nvalue = [9, 0, 0, 0, 0, 0, 0, 0, 0]\nclass = 1.0", fillcolor="#e58139"] ;
598 -> 602 ;
603 [label="K2O(WT%) <= 0.705\ngini = 0.538\nsamples = 43\nvalue = [26, 3, 0, 0, 13, 0, 1, 0, 0]\nclass = 1.0", fillcolor="#f4c8a9"] ;
543 -> 603 ;
604 [label="MGO(WT%) <= 7.885\ngini = 0.617\nsamples = 16\nvalue = [5, 3, 0, 0, 8, 0, 0, 0, 0]\nclass = 4.0", fillcolor="#c9f4f8"] ;
603 -> 604 ;
605 [label="MGO(WT%) <= 5.695\ngini = 0.512\nsamples = 11\nvalue = [1, 3, 0, 0, 7, 0, 0, 0, 0]\nclass = 4.0", fillcolor="#9cebf2"] ;
604 -> 605 ;
606 [label="SIO2(WT%) <= 48.565\ngini = 0.375\nsamples = 4\nvalue = [0, 3, 0, 0, 1, 0, 0, 0, 0]\nclass = 3.0", fillcolor="#e4ee7b"] ;
605 -> 606 ;
607 [label="gini = 0.0\nsamples = 3\nvalue = [0, 3, 0, 0, 0, 0, 0, 0, 0]\nclass = 3.0", fillcolor="#d7e539"] ;
606 -> 607 ;
608 [label="gini = 0.0\nsamples = 1\nvalue = [0, 0, 0, 0, 1, 0, 0, 0, 0]\nclass = 4.0", fillcolor="#39d7e5"] ;
606 -> 608 ;
609 [label="FeO* <= 11.756\ngini = 0.245\nsamples = 7\nvalue = [1, 0, 0, 0, 6, 0, 0, 0, 0]\nclass = 4.0", fillcolor="#5adee9"] ;
605 -> 609 ;
610 [label="gini = 0.0\nsamples = 1\nvalue = [1, 0, 0, 0, 0, 0, 0, 0, 0]\nclass = 1.0", fillcolor="#e58139"] ;
609 -> 610 ;
611 [label="gini = 0.0\nsamples = 6\nvalue = [0, 0, 0, 0, 6, 0, 0, 0, 0]\nclass = 4.0", fillcolor="#39d7e5"] ;
609 -> 611 ;
612 [label="SIO2(WT%) <= 47.1\ngini = 0.32\nsamples = 5\nvalue = [4, 0, 0, 0, 1, 0, 0, 0, 0]\nclass = 1.0", fillcolor="#eca06a"] ;
604 -> 612 ;
613 [label="gini = 0.0\nsamples = 1\nvalue = [0, 0, 0, 0, 1, 0, 0, 0, 0]\nclass = 4.0", fillcolor="#39d7e5"] ;
612 -> 613 ;
614 [label="gini = 0.0\nsamples = 4\nvalue = [4, 0, 0, 0, 0, 0, 0, 0, 0]\nclass = 1.0", fillcolor="#e58139"] ;
612 -> 614 ;
615 [label="MGO(WT%) <= 5.225\ngini = 0.359\nsamples = 27\nvalue = [21, 0, 0, 0, 5, 0, 1, 0, 0]\nclass = 1.0", fillcolor="#eca36f"] ;
603 -> 615 ;
616 [label="FeO* <= 12.209\ngini = 0.444\nsamples = 6\nvalue = [2, 0, 0, 0, 4, 0, 0, 0, 0]\nclass = 4.0", fillcolor="#9cebf2"] ;
615 -> 616 ;
617 [label="gini = 0.0\nsamples = 4\nvalue = [0, 0, 0, 0, 4, 0, 0, 0, 0]\nclass = 4.0", fillcolor="#39d7e5"] ;
616 -> 617 ;
618 [label="gini = 0.0\nsamples = 2\nvalue = [2, 0, 0, 0, 0, 0, 0, 0, 0]\nclass = 1.0", fillcolor="#e58139"] ;
616 -> 618 ;
619 [label="K2O(WT%) <= 1.335\ngini = 0.177\nsamples = 21\nvalue = [19, 0, 0, 0, 1, 0, 1, 0, 0]\nclass = 1.0", fillcolor="#e88e4d"] ;
615 -> 619 ;
620 [label="K2O(WT%) <= 0.723\ngini = 0.095\nsamples = 20\nvalue = [19, 0, 0, 0, 1, 0, 0, 0, 0]\nclass = 1.0", fillcolor="#e68843"] ;
619 -> 620 ;
621 [label="NA2O(WT%) <= 2.97\ngini = 0.444\nsamples = 3\nvalue = [2, 0, 0, 0, 1, 0, 0, 0, 0]\nclass = 1.0", fillcolor="#f2c09c"] ;
620 -> 621 ;
622 [label="gini = 0.0\nsamples = 2\nvalue = [2, 0, 0, 0, 0, 0, 0, 0, 0]\nclass = 1.0", fillcolor="#e58139"] ;
621 -> 622 ;
623 [label="gini = 0.0\nsamples = 1\nvalue = [0, 0, 0, 0, 1, 0, 0, 0, 0]\nclass = 4.0", fillcolor="#39d7e5"] ;
621 -> 623 ;
624 [label="gini = 0.0\nsamples = 17\nvalue = [17, 0, 0, 0, 0, 0, 0, 0, 0]\nclass = 1.0", fillcolor="#e58139"] ;
620 -> 624 ;
625 [label="gini = 0.0\nsamples = 1\nvalue = [0, 0, 0, 0, 0, 0, 1, 0, 0]\nclass = 5.0", fillcolor="#8139e5"] ;
619 -> 625 ;
626 [label="AL2O3(WT%) <= 15.915\ngini = 0.642\nsamples = 372\nvalue = [180, 18, 14, 0, 27, 126, 0, 4, 3]\nclass = 1.0", fillcolor="#f9e3d4"] ;
516 -> 626 ;
627 [label="FeO* <= 10.79\ngini = 0.625\nsamples = 285\nvalue = [126, 2, 14, 0, 21, 118, 0, 4, 0]\nclass = 1.0", fillcolor="#fef9f6"] ;
626 -> 627 ;
628 [label="CAO(WT%) <= 10.29\ngini = 0.226\nsamples = 57\nvalue = [3, 2, 1, 0, 1, 50, 0, 0, 0]\nclass = 2.0", fillcolor="#5378e8"] ;
627 -> 628 ;
629 [label="FeO* <= 10.697\ngini = 0.115\nsamples = 50\nvalue = [0, 1, 1, 0, 1, 47, 0, 0, 0]\nclass = 2.0", fillcolor="#456de7"] ;
628 -> 629 ;
630 [label="CAO(WT%) <= 10.09\ngini = 0.079\nsamples = 49\nvalue = [0, 1, 0, 0, 1, 47, 0, 0, 0]\nclass = 2.0", fillcolor="#416ae6"] ;
629 -> 630 ;
631 [label="MGO(WT%) <= 7.38\ngini = 0.043\nsamples = 46\nvalue = [0, 0, 0, 0, 1, 45, 0, 0, 0]\nclass = 2.0", fillcolor="#3d67e6"] ;
630 -> 631 ;
632 [label="gini = 0.0\nsamples = 37\nvalue = [0, 0, 0, 0, 0, 37, 0, 0, 0]\nclass = 2.0", fillcolor="#3964e5"] ;
631 -> 632 ;
633 [label="MGO(WT%) <= 7.55\ngini = 0.198\nsamples = 9\nvalue = [0, 0, 0, 0, 1, 8, 0, 0, 0]\nclass = 2.0", fillcolor="#5277e8"] ;
631 -> 633 ;
634 [label="gini = 0.0\nsamples = 1\nvalue = [0, 0, 0, 0, 1, 0, 0, 0, 0]\nclass = 4.0", fillcolor="#39d7e5"] ;
633 -> 634 ;
635 [label="gini = 0.0\nsamples = 8\nvalue = [0, 0, 0, 0, 0, 8, 0, 0, 0]\nclass = 2.0", fillcolor="#3964e5"] ;
633 -> 635 ;
636 [label="NA2O(WT%) <= 2.545\ngini = 0.444\nsamples = 3\nvalue = [0, 1, 0, 0, 0, 2, 0, 0, 0]\nclass = 2.0", fillcolor="#9cb2f2"] ;
630 -> 636 ;
637 [label="gini = 0.0\nsamples = 2\nvalue = [0, 0, 0, 0, 0, 2, 0, 0, 0]\nclass = 2.0", fillcolor="#3964e5"] ;
636 -> 637 ;
638 [label="gini = 0.0\nsamples = 1\nvalue = [0, 1, 0, 0, 0, 0, 0, 0, 0]\nclass = 3.0", fillcolor="#d7e539"] ;
636 -> 638 ;
639 [label="gini = 0.0\nsamples = 1\nvalue = [0, 0, 1, 0, 0, 0, 0, 0, 0]\nclass = 7.0", fillcolor="#64e539"] ;
629 -> 639 ;
640 [label="MGO(WT%) <= 6.375\ngini = 0.612\nsamples = 7\nvalue = [3, 1, 0, 0, 0, 3, 0, 0, 0]\nclass = 1.0", fillcolor="#ffffff"] ;
628 -> 640 ;
641 [label="AL2O3(WT%) <= 14.005\ngini = 0.375\nsamples = 4\nvalue = [0, 1, 0, 0, 0, 3, 0, 0, 0]\nclass = 2.0", fillcolor="#7b98ee"] ;
640 -> 641 ;
642 [label="gini = 0.0\nsamples = 1\nvalue = [0, 1, 0, 0, 0, 0, 0, 0, 0]\nclass = 3.0", fillcolor="#d7e539"] ;
641 -> 642 ;
643 [label="gini = 0.0\nsamples = 3\nvalue = [0, 0, 0, 0, 0, 3, 0, 0, 0]\nclass = 2.0", fillcolor="#3964e5"] ;
641 -> 643 ;
644 [label="gini = 0.0\nsamples = 3\nvalue = [3, 0, 0, 0, 0, 0, 0, 0, 0]\nclass = 1.0", fillcolor="#e58139"] ;
640 -> 644 ;
645 [label="FeO* <= 12.248\ngini = 0.609\nsamples = 228\nvalue = [123, 0, 13, 0, 20, 68, 0, 4, 0]\nclass = 1.0", fillcolor="#f6d4bb"] ;
627 -> 645 ;
646 [label="AL2O3(WT%) <= 14.38\ngini = 0.536\nsamples = 143\nvalue = [93, 0, 12, 0, 10, 24, 0, 4, 0]\nclass = 1.0", fillcolor="#f0b68c"] ;
645 -> 646 ;
647 [label="AL2O3(WT%) <= 14.035\ngini = 0.436\nsamples = 124\nvalue = [91, 0, 4, 0, 8, 17, 0, 4, 0]\nclass = 1.0", fillcolor="#eda876"] ;
646 -> 647 ;
648 [label="SIO2(WT%) <= 51.35\ngini = 0.333\nsamples = 98\nvalue = [79, 0, 2, 0, 4, 12, 0, 1, 0]\nclass = 1.0", fillcolor="#eb9d65"] ;
647 -> 648 ;
649 [label="K2O(WT%) <= 0.455\ngini = 0.165\nsamples = 57\nvalue = [52, 0, 0, 0, 2, 2, 0, 1, 0]\nclass = 1.0", fillcolor="#e78c4b"] ;
648 -> 649 ;
650 [label="gini = 0.0\nsamples = 1\nvalue = [0, 0, 0, 0, 0, 0, 0, 1, 0]\nclass = 8.0", fillcolor="#e539d7"] ;
649 -> 650 ;
651 [label="MGO(WT%) <= 5.105\ngini = 0.135\nsamples = 56\nvalue = [52, 0, 0, 0, 2, 2, 0, 0, 0]\nclass = 1.0", fillcolor="#e78a48"] ;
649 -> 651 ;
652 [label="gini = 0.0\nsamples = 1\nvalue = [0, 0, 0, 0, 0, 1, 0, 0, 0]\nclass = 2.0", fillcolor="#3964e5"] ;
651 -> 652 ;
653 [label="MGO(WT%) <= 5.27\ngini = 0.104\nsamples = 55\nvalue = [52, 0, 0, 0, 2, 1, 0, 0, 0]\nclass = 1.0", fillcolor="#e68844"] ;
651 -> 653 ;
654 [label="NA2O(WT%) <= 2.77\ngini = 0.444\nsamples = 3\nvalue = [2, 0, 0, 0, 1, 0, 0, 0, 0]\nclass = 1.0", fillcolor="#f2c09c"] ;
653 -> 654 ;
655 [label="gini = 0.0\nsamples = 1\nvalue = [0, 0, 0, 0, 1, 0, 0, 0, 0]\nclass = 4.0", fillcolor="#39d7e5"] ;
654 -> 655 ;
656 [label="gini = 0.0\nsamples = 2\nvalue = [2, 0, 0, 0, 0, 0, 0, 0, 0]\nclass = 1.0", fillcolor="#e58139"] ;
654 -> 656 ;
657 [label="K2O(WT%) <= 1.055\ngini = 0.075\nsamples = 52\nvalue = [50, 0, 0, 0, 1, 1, 0, 0, 0]\nclass = 1.0", fillcolor="#e68641"] ;
653 -> 657 ;
658 [label="MGO(WT%) <= 5.555\ngini = 0.042\nsamples = 47\nvalue = [46, 0, 0, 0, 1, 0, 0, 0, 0]\nclass = 1.0", fillcolor="#e6843d"] ;
657 -> 658 ;
659 [label="CAO(WT%) <= 9.695\ngini = 0.219\nsamples = 8\nvalue = [7, 0, 0, 0, 1, 0, 0, 0, 0]\nclass = 1.0", fillcolor="#e99355"] ;
658 -> 659 ;
660 [label="gini = 0.0\nsamples = 7\nvalue = [7, 0, 0, 0, 0, 0, 0, 0, 0]\nclass = 1.0", fillcolor="#e58139"] ;
659 -> 660 ;
661 [label="gini = 0.0\nsamples = 1\nvalue = [0, 0, 0, 0, 1, 0, 0, 0, 0]\nclass = 4.0", fillcolor="#39d7e5"] ;
659 -> 661 ;
662 [label="gini = 0.0\nsamples = 39\nvalue = [39, 0, 0, 0, 0, 0, 0, 0, 0]\nclass = 1.0", fillcolor="#e58139"] ;
658 -> 662 ;
663 [label="K2O(WT%) <= 1.1\ngini = 0.32\nsamples = 5\nvalue = [4, 0, 0, 0, 0, 1, 0, 0, 0]\nclass = 1.0", fillcolor="#eca06a"] ;
657 -> 663 ;
664 [label="gini = 0.0\nsamples = 1\nvalue = [0, 0, 0, 0, 0, 1, 0, 0, 0]\nclass = 2.0", fillcolor="#3964e5"] ;
663 -> 664 ;
665 [label="gini = 0.0\nsamples = 4\nvalue = [4, 0, 0, 0, 0, 0, 0, 0, 0]\nclass = 1.0", fillcolor="#e58139"] ;
663 -> 665 ;
666 [label="CAO(WT%) <= 10.285\ngini = 0.502\nsamples = 41\nvalue = [27, 0, 2, 0, 2, 10, 0, 0, 0]\nclass = 1.0", fillcolor="#f1ba92"] ;
648 -> 666 ;
667 [label="CAO(WT%) <= 9.83\ngini = 0.587\nsamples = 27\nvalue = [14, 0, 1, 0, 2, 10, 0, 0, 0]\nclass = 1.0", fillcolor="#f9e1d0"] ;
666 -> 667 ;
668 [label="FeO* <= 11.962\ngini = 0.552\nsamples = 23\nvalue = [14, 0, 1, 0, 2, 6, 0, 0, 0]\nclass = 1.0", fillcolor="#f3c4a2"] ;
667 -> 668 ;
669 [label="CAO(WT%) <= 7.83\ngini = 0.675\nsamples = 13\nvalue = [5, 0, 1, 0, 2, 5, 0, 0, 0]\nclass = 1.0", fillcolor="#ffffff"] ;
668 -> 669 ;
670 [label="CAO(WT%) <= 6.805\ngini = 0.444\nsamples = 3\nvalue = [1, 0, 0, 0, 2, 0, 0, 0, 0]\nclass = 4.0", fillcolor="#9cebf2"] ;
669 -> 670 ;
671 [label="gini = 0.0\nsamples = 1\nvalue = [1, 0, 0, 0, 0, 0, 0, 0, 0]\nclass = 1.0", fillcolor="#e58139"] ;
670 -> 671 ;
672 [label="gini = 0.0\nsamples = 2\nvalue = [0, 0, 0, 0, 2, 0, 0, 0, 0]\nclass = 4.0", fillcolor="#39d7e5"] ;
670 -> 672 ;
673 [label="K2O(WT%) <= 0.87\ngini = 0.58\nsamples = 10\nvalue = [4, 0, 1, 0, 0, 5, 0, 0, 0]\nclass = 2.0", fillcolor="#dee5fb"] ;
669 -> 673 ;
674 [label="SIO2(WT%) <= 51.78\ngini = 0.571\nsamples = 7\nvalue = [4, 0, 1, 0, 0, 2, 0, 0, 0]\nclass = 1.0", fillcolor="#f5cdb0"] ;
673 -> 674 ;
675 [label="TIO2(WT%) <= 2.64\ngini = 0.5\nsamples = 2\nvalue = [0, 0, 1, 0, 0, 1, 0, 0, 0]\nclass = 7.0", fillcolor="#ffffff"] ;
674 -> 675 ;
676 [label="gini = 0.0\nsamples = 1\nvalue = [0, 0, 0, 0, 0, 1, 0, 0, 0]\nclass = 2.0", fillcolor="#3964e5"] ;
675 -> 676 ;
677 [label="gini = 0.0\nsamples = 1\nvalue = [0, 0, 1, 0, 0, 0, 0, 0, 0]\nclass = 7.0", fillcolor="#64e539"] ;
675 -> 677 ;
678 [label="SIO2(WT%) <= 52.92\ngini = 0.32\nsamples = 5\nvalue = [4, 0, 0, 0, 0, 1, 0, 0, 0]\nclass = 1.0", fillcolor="#eca06a"] ;
674 -> 678 ;
679 [label="gini = 0.0\nsamples = 4\nvalue = [4, 0, 0, 0, 0, 0, 0, 0, 0]\nclass = 1.0", fillcolor="#e58139"] ;
678 -> 679 ;
680 [label="gini = 0.0\nsamples = 1\nvalue = [0, 0, 0, 0, 0, 1, 0, 0, 0]\nclass = 2.0", fillcolor="#3964e5"] ;
678 -> 680 ;
681 [label="gini = 0.0\nsamples = 3\nvalue = [0, 0, 0, 0, 0, 3, 0, 0, 0]\nclass = 2.0", fillcolor="#3964e5"] ;
673 -> 681 ;
682 [label="NA2O(WT%) <= 2.685\ngini = 0.18\nsamples = 10\nvalue = [9, 0, 0, 0, 0, 1, 0, 0, 0]\nclass = 1.0", fillcolor="#e88f4f"] ;
668 -> 682 ;
683 [label="gini = 0.0\nsamples = 1\nvalue = [0, 0, 0, 0, 0, 1, 0, 0, 0]\nclass = 2.0", fillcolor="#3964e5"] ;
682 -> 683 ;
684 [label="gini = 0.0\nsamples = 9\nvalue = [9, 0, 0, 0, 0, 0, 0, 0, 0]\nclass = 1.0", fillcolor="#e58139"] ;
682 -> 684 ;
685 [label="gini = 0.0\nsamples = 4\nvalue = [0, 0, 0, 0, 0, 4, 0, 0, 0]\nclass = 2.0", fillcolor="#3964e5"] ;
667 -> 685 ;
686 [label="K2O(WT%) <= 0.275\ngini = 0.133\nsamples = 14\nvalue = [13, 0, 1, 0, 0, 0, 0, 0, 0]\nclass = 1.0", fillcolor="#e78b48"] ;
666 -> 686 ;
687 [label="gini = 0.0\nsamples = 1\nvalue = [0, 0, 1, 0, 0, 0, 0, 0, 0]\nclass = 7.0", fillcolor="#64e539"] ;
686 -> 687 ;
688 [label="gini = 0.0\nsamples = 13\nvalue = [13, 0, 0, 0, 0, 0, 0, 0, 0]\nclass = 1.0", fillcolor="#e58139"] ;
686 -> 688 ;
689 [label="MGO(WT%) <= 6.975\ngini = 0.707\nsamples = 26\nvalue = [12, 0, 2, 0, 4, 5, 0, 3, 0]\nclass = 1.0", fillcolor="#f6d5bd"] ;
647 -> 689 ;
690 [label="NA2O(WT%) <= 2.575\ngini = 0.663\nsamples = 24\nvalue = [12, 0, 0, 0, 4, 5, 0, 3, 0]\nclass = 1.0", fillcolor="#f5d1b6"] ;
689 -> 690 ;
691 [label="CAO(WT%) <= 10.105\ngini = 0.245\nsamples = 7\nvalue = [6, 0, 0, 0, 0, 0, 0, 1, 0]\nclass = 1.0", fillcolor="#e9965a"] ;
690 -> 691 ;
692 [label="gini = 0.0\nsamples = 1\nvalue = [0, 0, 0, 0, 0, 0, 0, 1, 0]\nclass = 8.0", fillcolor="#e539d7"] ;
691 -> 692 ;
693 [label="gini = 0.0\nsamples = 6\nvalue = [6, 0, 0, 0, 0, 0, 0, 0, 0]\nclass = 1.0", fillcolor="#e58139"] ;
691 -> 693 ;
694 [label="CAO(WT%) <= 10.455\ngini = 0.72\nsamples = 17\nvalue = [6, 0, 0, 0, 4, 5, 0, 2, 0]\nclass = 1.0", fillcolor="#fdf4ee"] ;
690 -> 694 ;
695 [label="K2O(WT%) <= 0.87\ngini = 0.628\nsamples = 11\nvalue = [6, 0, 0, 0, 1, 2, 0, 2, 0]\nclass = 1.0", fillcolor="#f3c7a7"] ;
694 -> 695 ;
696 [label="FeO* <= 11.38\ngini = 0.375\nsamples = 8\nvalue = [6, 0, 0, 0, 0, 0, 0, 2, 0]\nclass = 1.0", fillcolor="#eeab7b"] ;
695 -> 696 ;
697 [label="AL2O3(WT%) <= 14.235\ngini = 0.444\nsamples = 3\nvalue = [1, 0, 0, 0, 0, 0, 0, 2, 0]\nclass = 8.0", fillcolor="#f29ceb"] ;
696 -> 697 ;
698 [label="gini = 0.0\nsamples = 1\nvalue = [1, 0, 0, 0, 0, 0, 0, 0, 0]\nclass = 1.0", fillcolor="#e58139"] ;
697 -> 698 ;
699 [label="gini = 0.0\nsamples = 2\nvalue = [0, 0, 0, 0, 0, 0, 0, 2, 0]\nclass = 8.0", fillcolor="#e539d7"] ;
697 -> 699 ;
700 [label="gini = 0.0\nsamples = 5\nvalue = [5, 0, 0, 0, 0, 0, 0, 0, 0]\nclass = 1.0", fillcolor="#e58139"] ;
696 -> 700 ;
701 [label="SIO2(WT%) <= 52.24\ngini = 0.444\nsamples = 3\nvalue = [0, 0, 0, 0, 1, 2, 0, 0, 0]\nclass = 2.0", fillcolor="#9cb2f2"] ;
695 -> 701 ;
702 [label="gini = 0.0\nsamples = 2\nvalue = [0, 0, 0, 0, 0, 2, 0, 0, 0]\nclass = 2.0", fillcolor="#3964e5"] ;
701 -> 702 ;
703 [label="gini = 0.0\nsamples = 1\nvalue = [0, 0, 0, 0, 1, 0, 0, 0, 0]\nclass = 4.0", fillcolor="#39d7e5"] ;
701 -> 703 ;
704 [label="SIO2(WT%) <= 50.22\ngini = 0.5\nsamples = 6\nvalue = [0, 0, 0, 0, 3, 3, 0, 0, 0]\nclass = 4.0", fillcolor="#ffffff"] ;
694 -> 704 ;
705 [label="gini = 0.0\nsamples = 3\nvalue = [0, 0, 0, 0, 3, 0, 0, 0, 0]\nclass = 4.0", fillcolor="#39d7e5"] ;
704 -> 705 ;
706 [label="gini = 0.0\nsamples = 3\nvalue = [0, 0, 0, 0, 0, 3, 0, 0, 0]\nclass = 2.0", fillcolor="#3964e5"] ;
704 -> 706 ;
707 [label="gini = 0.0\nsamples = 2\nvalue = [0, 0, 2, 0, 0, 0, 0, 0, 0]\nclass = 7.0", fillcolor="#64e539"] ;
689 -> 707 ;
708 [label="MGO(WT%) <= 5.095\ngini = 0.665\nsamples = 19\nvalue = [2, 0, 8, 0, 2, 7, 0, 0, 0]\nclass = 7.0", fillcolor="#f2fdee"] ;
646 -> 708 ;
709 [label="NA2O(WT%) <= 4.43\ngini = 0.571\nsamples = 7\nvalue = [2, 0, 0, 0, 1, 4, 0, 0, 0]\nclass = 2.0", fillcolor="#b0c1f5"] ;
708 -> 709 ;
710 [label="gini = 0.0\nsamples = 4\nvalue = [0, 0, 0, 0, 0, 4, 0, 0, 0]\nclass = 2.0", fillcolor="#3964e5"] ;
709 -> 710 ;
711 [label="CAO(WT%) <= 6.635\ngini = 0.444\nsamples = 3\nvalue = [2, 0, 0, 0, 1, 0, 0, 0, 0]\nclass = 1.0", fillcolor="#f2c09c"] ;
709 -> 711 ;
712 [label="gini = 0.0\nsamples = 1\nvalue = [0, 0, 0, 0, 1, 0, 0, 0, 0]\nclass = 4.0", fillcolor="#39d7e5"] ;
711 -> 712 ;
713 [label="gini = 0.0\nsamples = 2\nvalue = [2, 0, 0, 0, 0, 0, 0, 0, 0]\nclass = 1.0", fillcolor="#e58139"] ;
711 -> 713 ;
714 [label="NA2O(WT%) <= 2.775\ngini = 0.486\nsamples = 12\nvalue = [0, 0, 8, 0, 1, 3, 0, 0, 0]\nclass = 7.0", fillcolor="#a9f191"] ;
708 -> 714 ;
715 [label="NA2O(WT%) <= 2.6\ngini = 0.375\nsamples = 4\nvalue = [0, 0, 0, 0, 1, 3, 0, 0, 0]\nclass = 2.0", fillcolor="#7b98ee"] ;
714 -> 715 ;
716 [label="gini = 0.0\nsamples = 1\nvalue = [0, 0, 0, 0, 1, 0, 0, 0, 0]\nclass = 4.0", fillcolor="#39d7e5"] ;
715 -> 716 ;
717 [label="gini = 0.0\nsamples = 3\nvalue = [0, 0, 0, 0, 0, 3, 0, 0, 0]\nclass = 2.0", fillcolor="#3964e5"] ;
715 -> 717 ;
718 [label="gini = 0.0\nsamples = 8\nvalue = [0, 0, 8, 0, 0, 0, 0, 0, 0]\nclass = 7.0", fillcolor="#64e539"] ;
714 -> 718 ;
719 [label="TIO2(WT%) <= 3.46\ngini = 0.593\nsamples = 85\nvalue = [30, 0, 1, 0, 10, 44, 0, 0, 0]\nclass = 2.0", fillcolor="#cdd8f8"] ;
645 -> 719 ;
720 [label="TIO2(WT%) <= 2.81\ngini = 0.473\nsamples = 43\nvalue = [7, 0, 1, 0, 5, 30, 0, 0, 0]\nclass = 2.0", fillcolor="#809cee"] ;
719 -> 720 ;
721 [label="TIO2(WT%) <= 2.725\ngini = 0.571\nsamples = 7\nvalue = [4, 0, 0, 0, 2, 1, 0, 0, 0]\nclass = 1.0", fillcolor="#f5cdb0"] ;
720 -> 721 ;
722 [label="TIO2(WT%) <= 2.165\ngini = 0.32\nsamples = 5\nvalue = [4, 0, 0, 0, 0, 1, 0, 0, 0]\nclass = 1.0", fillcolor="#eca06a"] ;
721 -> 722 ;
723 [label="gini = 0.0\nsamples = 1\nvalue = [0, 0, 0, 0, 0, 1, 0, 0, 0]\nclass = 2.0", fillcolor="#3964e5"] ;
722 -> 723 ;
724 [label="gini = 0.0\nsamples = 4\nvalue = [4, 0, 0, 0, 0, 0, 0, 0, 0]\nclass = 1.0", fillcolor="#e58139"] ;
722 -> 724 ;
725 [label="gini = 0.0\nsamples = 2\nvalue = [0, 0, 0, 0, 2, 0, 0, 0, 0]\nclass = 4.0", fillcolor="#39d7e5"] ;
721 -> 725 ;
726 [label="AL2O3(WT%) <= 12.655\ngini = 0.336\nsamples = 36\nvalue = [3, 0, 1, 0, 3, 29, 0, 0, 0]\nclass = 2.0", fillcolor="#6385eb"] ;
720 -> 726 ;
727 [label="gini = 0.0\nsamples = 2\nvalue = [2, 0, 0, 0, 0, 0, 0, 0, 0]\nclass = 1.0", fillcolor="#e58139"] ;
726 -> 727 ;
728 [label="K2O(WT%) <= 0.675\ngini = 0.263\nsamples = 34\nvalue = [1, 0, 1, 0, 3, 29, 0, 0, 0]\nclass = 2.0", fillcolor="#597de9"] ;
726 -> 728 ;
729 [label="CAO(WT%) <= 9.745\ngini = 0.64\nsamples = 10\nvalue = [1, 0, 1, 0, 3, 5, 0, 0, 0]\nclass = 2.0", fillcolor="#c6d3f8"] ;
728 -> 729 ;
730 [label="CAO(WT%) <= 9.525\ngini = 0.625\nsamples = 4\nvalue = [1, 0, 1, 0, 2, 0, 0, 0, 0]\nclass = 4.0", fillcolor="#bdf2f6"] ;
729 -> 730 ;
731 [label="gini = 0.0\nsamples = 2\nvalue = [0, 0, 0, 0, 2, 0, 0, 0, 0]\nclass = 4.0", fillcolor="#39d7e5"] ;
730 -> 731 ;
732 [label="AL2O3(WT%) <= 13.865\ngini = 0.5\nsamples = 2\nvalue = [1, 0, 1, 0, 0, 0, 0, 0, 0]\nclass = 1.0", fillcolor="#ffffff"] ;
730 -> 732 ;
733 [label="gini = 0.0\nsamples = 1\nvalue = [1, 0, 0, 0, 0, 0, 0, 0, 0]\nclass = 1.0", fillcolor="#e58139"] ;
732 -> 733 ;
734 [label="gini = 0.0\nsamples = 1\nvalue = [0, 0, 1, 0, 0, 0, 0, 0, 0]\nclass = 7.0", fillcolor="#64e539"] ;
732 -> 734 ;
735 [label="AL2O3(WT%) <= 14.145\ngini = 0.278\nsamples = 6\nvalue = [0, 0, 0, 0, 1, 5, 0, 0, 0]\nclass = 2.0", fillcolor="#6183ea"] ;
729 -> 735 ;
736 [label="gini = 0.0\nsamples = 5\nvalue = [0, 0, 0, 0, 0, 5, 0, 0, 0]\nclass = 2.0", fillcolor="#3964e5"] ;
735 -> 736 ;
737 [label="gini = 0.0\nsamples = 1\nvalue = [0, 0, 0, 0, 1, 0, 0, 0, 0]\nclass = 4.0", fillcolor="#39d7e5"] ;
735 -> 737 ;
738 [label="gini = 0.0\nsamples = 24\nvalue = [0, 0, 0, 0, 0, 24, 0, 0, 0]\nclass = 2.0", fillcolor="#3964e5"] ;
728 -> 738 ;
739 [label="SIO2(WT%) <= 50.365\ngini = 0.575\nsamples = 42\nvalue = [23, 0, 0, 0, 5, 14, 0, 0, 0]\nclass = 1.0", fillcolor="#f7d6bf"] ;
719 -> 739 ;
