digraph Tree {
node [shape=box, style="filled, rounded", color="black", fontname="helvetica"] ;
edge [fontname="helvetica"] ;
0 [label="AL2O3(WT%) <= 44.695\ngini = 0.568\nsamples = 2327\nvalue = [1453, 33, 71, 11, 4, 145, 143, 47, 420]\nclass = HAWAII", fillcolor="#f1bb94"] ;
1 [label="ISLAND <= 3.17\ngini = 0.659\nsamples = 270\nvalue = [38, 0, 52, 5, 0, 22, 6, 5, 142]\nclass = OAHU", fillcolor="#f4adbf"] ;
0 -> 1 [labeldistance=2.5, labelangle=45, headlabel="True"] ;
2 [label="MGO(WT%) <= 10.38\ngini = 0.742\nsamples = 165\nvalue = [36, 0, 46, 1, 0, 14, 5, 5, 58]\nclass = OAHU", fillcolor="#fcebef"] ;
1 -> 2 ;
3 [label="AL2O3(WT%) <= 43.425\ngini = 0.642\nsamples = 81\nvalue = [30, 0, 3, 0, 0, 8, 3, 0, 37]\nclass = OAHU", fillcolor="#fbe4ea"] ;
2 -> 3 ;
4 [label="K2O(WT%) <= 7.535\ngini = 0.4\nsamples = 38\nvalue = [9, 0, 1, 0, 0, 0, 0, 0, 28]\nclass = OAHU", fillcolor="#ee7d99"] ;
3 -> 4 ;
5 [label="gini = 0.0\nsamples = 7\nvalue = [7, 0, 0, 0, 0, 0, 0, 0, 0]\nclass = HAWAII", fillcolor="#e58139"] ;
4 -> 5 ;
6 [label="K2O(WT%) <= 44.65\ngini = 0.179\nsamples = 31\nvalue = [2, 0, 1, 0, 0, 0, 0, 0, 28]\nclass = OAHU", fillcolor="#e84d74"] ;
4 -> 6 ;
7 [label="FeO* <= 2.8\ngini = 0.127\nsamples = 30\nvalue = [1, 0, 1, 0, 0, 0, 0, 0, 28]\nclass = OAHU", fillcolor="#e7476f"] ;
6 -> 7 ;
8 [label="K2O(WT%) <= 43.635\ngini = 0.067\nsamples = 29\nvalue = [0, 0, 1, 0, 0, 0, 0, 0, 28]\nclass = OAHU", fillcolor="#e6406a"] ;
7 -> 8 ;
9 [label="gini = 0.0\nsamples = 27\nvalue = [0, 0, 0, 0, 0, 0, 0, 0, 27]\nclass = OAHU", fillcolor="#e53964"] ;
8 -> 9 ;
10 [label="NA2O(WT%) <= 0.075\ngini = 0.5\nsamples = 2\nvalue = [0, 0, 1, 0, 0, 0, 0, 0, 1]\nclass = KAUAI", fillcolor="#ffffff"] ;
8 -> 10 ;
11 [label="gini = 0.0\nsamples = 1\nvalue = [0, 0, 1, 0, 0, 0, 0, 0, 0]\nclass = KAUAI", fillcolor="#64e539"] ;
10 -> 11 ;
12 [label="gini = 0.0\nsamples = 1\nvalue = [0, 0, 0, 0, 0, 0, 0, 0, 1]\nclass = OAHU", fillcolor="#e53964"] ;
10 -> 12 ;
13 [label="gini = 0.0\nsamples = 1\nvalue = [1, 0, 0, 0, 0, 0, 0, 0, 0]\nclass = HAWAII", fillcolor="#e58139"] ;
7 -> 13 ;
14 [label="gini = 0.0\nsamples = 1\nvalue = [1, 0, 0, 0, 0, 0, 0, 0, 0]\nclass = HAWAII", fillcolor="#e58139"] ;
6 -> 14 ;
15 [label="TIO2(WT%) <= 3.93\ngini = 0.676\nsamples = 43\nvalue = [21, 0, 2, 0, 0, 8, 3, 0, 9]\nclass = HAWAII", fillcolor="#f6d3b9"] ;
3 -> 15 ;
16 [label="K2O(WT%) <= 43.745\ngini = 0.32\nsamples = 5\nvalue = [0, 0, 1, 0, 0, 0, 0, 0, 4]\nclass = OAHU", fillcolor="#ec6a8b"] ;
15 -> 16 ;
17 [label="gini = 0.0\nsamples = 4\nvalue = [0, 0, 0, 0, 0, 0, 0, 0, 4]\nclass = OAHU", fillcolor="#e53964"] ;
16 -> 17 ;
18 [label="gini = 0.0\nsamples = 1\nvalue = [0, 0, 1, 0, 0, 0, 0, 0, 0]\nclass = KAUAI", fillcolor="#64e539"] ;
16 -> 18 ;
19 [label="CAO(WT%) <= 11.668\ngini = 0.626\nsamples = 38\nvalue = [21, 0, 1, 0, 0, 8, 3, 0, 5]\nclass = HAWAII", fillcolor="#f4c8a9"] ;
15 -> 19 ;
20 [label="MGO(WT%) <= 9.985\ngini = 0.364\nsamples = 18\nvalue = [14, 0, 0, 0, 0, 0, 1, 0, 3]\nclass = HAWAII", fillcolor="#eca36e"] ;
19 -> 20 ;
21 [label="NA2O(WT%) <= 0.845\ngini = 0.227\nsamples = 16\nvalue = [14, 0, 0, 0, 0, 0, 1, 0, 1]\nclass = HAWAII", fillcolor="#e89253"] ;
20 -> 21 ;
22 [label="MGO(WT%) <= 3.99\ngini = 0.124\nsamples = 15\nvalue = [14, 0, 0, 0, 0, 0, 1, 0, 0]\nclass = HAWAII", fillcolor="#e78a47"] ;
21 -> 22 ;
23 [label="FeO* <= 0.93\ngini = 0.5\nsamples = 2\nvalue = [1, 0, 0, 0, 0, 0, 1, 0, 0]\nclass = HAWAII", fillcolor="#ffffff"] ;
22 -> 23 ;
24 [label="gini = 0.0\nsamples = 1\nvalue = [1, 0, 0, 0, 0, 0, 0, 0, 0]\nclass = HAWAII", fillcolor="#e58139"] ;
23 -> 24 ;
25 [label="gini = 0.0\nsamples = 1\nvalue = [0, 0, 0, 0, 0, 0, 1, 0, 0]\nclass = MOLOKAI", fillcolor="#8139e5"] ;
23 -> 25 ;
26 [label="gini = 0.0\nsamples = 13\nvalue = [13, 0, 0, 0, 0, 0, 0, 0, 0]\nclass = HAWAII", fillcolor="#e58139"] ;
22 -> 26 ;
27 [label="gini = 0.0\nsamples = 1\nvalue = [0, 0, 0, 0, 0, 0, 0, 0, 1]\nclass = OAHU", fillcolor="#e53964"] ;
21 -> 27 ;
28 [label="gini = 0.0\nsamples = 2\nvalue = [0, 0, 0, 0, 0, 0, 0, 0, 2]\nclass = OAHU", fillcolor="#e53964"] ;
20 -> 28 ;
29 [label="NA2O(WT%) <= 0.185\ngini = 0.695\nsamples = 20\nvalue = [7, 0, 1, 0, 0, 8, 2, 0, 2]\nclass = MAUI", fillcolor="#f0f3fd"] ;
19 -> 29 ;
30 [label="K2O(WT%) <= 31.61\ngini = 0.219\nsamples = 8\nvalue = [1, 0, 0, 0, 0, 7, 0, 0, 0]\nclass = MAUI", fillcolor="#557ae9"] ;
29 -> 30 ;
31 [label="gini = 0.0\nsamples = 7\nvalue = [0, 0, 0, 0, 0, 7, 0, 0, 0]\nclass = MAUI", fillcolor="#3964e5"] ;
30 -> 31 ;
32 [label="gini = 0.0\nsamples = 1\nvalue = [1, 0, 0, 0, 0, 0, 0, 0, 0]\nclass = HAWAII", fillcolor="#e58139"] ;
30 -> 32 ;
33 [label="NA2O(WT%) <= 0.43\ngini = 0.681\nsamples = 12\nvalue = [6, 0, 1, 0, 0, 1, 2, 0, 2]\nclass = HAWAII", fillcolor="#f5cdb0"] ;
29 -> 33 ;
34 [label="gini = 0.0\nsamples = 6\nvalue = [6, 0, 0, 0, 0, 0, 0, 0, 0]\nclass = HAWAII", fillcolor="#e58139"] ;
33 -> 34 ;
35 [label="TIO2(WT%) <= 11.55\ngini = 0.722\nsamples = 6\nvalue = [0, 0, 1, 0, 0, 1, 2, 0, 2]\nclass = MOLOKAI", fillcolor="#ffffff"] ;
33 -> 35 ;
36 [label="gini = 0.0\nsamples = 2\nvalue = [0, 0, 0, 0, 0, 0, 2, 0, 0]\nclass = MOLOKAI", fillcolor="#8139e5"] ;
35 -> 36 ;
37 [label="FeO* <= 2.105\ngini = 0.625\nsamples = 4\nvalue = [0, 0, 1, 0, 0, 1, 0, 0, 2]\nclass = OAHU", fillcolor="#f6bdcb"] ;
35 -> 37 ;
38 [label="gini = 0.0\nsamples = 2\nvalue = [0, 0, 0, 0, 0, 0, 0, 0, 2]\nclass = OAHU", fillcolor="#e53964"] ;
37 -> 38 ;
39 [label="ISLAND <= 2.87\ngini = 0.5\nsamples = 2\nvalue = [0, 0, 1, 0, 0, 1, 0, 0, 0]\nclass = KAUAI", fillcolor="#ffffff"] ;
37 -> 39 ;
40 [label="gini = 0.0\nsamples = 1\nvalue = [0, 0, 1, 0, 0, 0, 0, 0, 0]\nclass = KAUAI", fillcolor="#64e539"] ;
39 -> 40 ;
41 [label="gini = 0.0\nsamples = 1\nvalue = [0, 0, 0, 0, 0, 1, 0, 0, 0]\nclass = MAUI", fillcolor="#3964e5"] ;
39 -> 41 ;
42 [label="TIO2(WT%) <= 12.015\ngini = 0.661\nsamples = 84\nvalue = [6, 0, 43, 1, 0, 6, 2, 5, 21]\nclass = KAUAI", fillcolor="#c9f6ba"] ;
2 -> 42 ;
43 [label="AL2O3(WT%) <= 37.31\ngini = 0.483\nsamples = 55\nvalue = [4, 0, 38, 1, 0, 2, 0, 0, 10]\nclass = KAUAI", fillcolor="#9fef84"] ;
42 -> 43 ;
44 [label="gini = 0.0\nsamples = 6\nvalue = [0, 0, 0, 0, 0, 0, 0, 0, 6]\nclass = OAHU", fillcolor="#e53964"] ;
43 -> 44 ;
45 [label="TIO2(WT%) <= 8.23\ngini = 0.383\nsamples = 49\nvalue = [4, 0, 38, 1, 0, 2, 0, 0, 4]\nclass = KAUAI", fillcolor="#8aeb69"] ;
43 -> 45 ;
46 [label="gini = 0.0\nsamples = 3\nvalue = [3, 0, 0, 0, 0, 0, 0, 0, 0]\nclass = HAWAII", fillcolor="#e58139"] ;
45 -> 46 ;
47 [label="K2O(WT%) <= 11.045\ngini = 0.307\nsamples = 46\nvalue = [1, 0, 38, 1, 0, 2, 0, 0, 4]\nclass = KAUAI", fillcolor="#82ea5f"] ;
45 -> 47 ;
48 [label="AL2O3(WT%) <= 40.51\ngini = 0.5\nsamples = 2\nvalue = [1, 0, 0, 0, 0, 0, 0, 0, 1]\nclass = HAWAII", fillcolor="#ffffff"] ;
47 -> 48 ;
49 [label="gini = 0.0\nsamples = 1\nvalue = [1, 0, 0, 0, 0, 0, 0, 0, 0]\nclass = HAWAII", fillcolor="#e58139"] ;
48 -> 49 ;
50 [label="gini = 0.0\nsamples = 1\nvalue = [0, 0, 0, 0, 0, 0, 0, 0, 1]\nclass = OAHU", fillcolor="#e53964"] ;
48 -> 50 ;
51 [label="CAO(WT%) <= 9.54\ngini = 0.247\nsamples = 44\nvalue = [0, 0, 38, 1, 0, 2, 0, 0, 3]\nclass = KAUAI", fillcolor="#7be956"] ;
47 -> 51 ;
52 [label="gini = 0.0\nsamples = 1\nvalue = [0, 0, 0, 1, 0, 0, 0, 0, 0]\nclass = KAULA", fillcolor="#39e581"] ;
51 -> 52 ;
53 [label="AL2O3(WT%) <= 42.18\ngini = 0.212\nsamples = 43\nvalue = [0, 0, 38, 0, 0, 2, 0, 0, 3]\nclass = KAUAI", fillcolor="#77e852"] ;
51 -> 53 ;
54 [label="MGO(WT%) <= 11.03\ngini = 0.061\nsamples = 32\nvalue = [0, 0, 31, 0, 0, 0, 0, 0, 1]\nclass = KAUAI", fillcolor="#69e63f"] ;
53 -> 54 ;
55 [label="TIO2(WT%) <= 10.62\ngini = 0.5\nsamples = 2\nvalue = [0, 0, 1, 0, 0, 0, 0, 0, 1]\nclass = KAUAI", fillcolor="#ffffff"] ;
54 -> 55 ;
56 [label="gini = 0.0\nsamples = 1\nvalue = [0, 0, 1, 0, 0, 0, 0, 0, 0]\nclass = KAUAI", fillcolor="#64e539"] ;
55 -> 56 ;
57 [label="gini = 0.0\nsamples = 1\nvalue = [0, 0, 0, 0, 0, 0, 0, 0, 1]\nclass = OAHU", fillcolor="#e53964"] ;
55 -> 57 ;
58 [label="gini = 0.0\nsamples = 30\nvalue = [0, 0, 30, 0, 0, 0, 0, 0, 0]\nclass = KAUAI", fillcolor="#64e539"] ;
54 -> 58 ;
59 [label="ISLAND <= 1.88\ngini = 0.529\nsamples = 11\nvalue = [0, 0, 7, 0, 0, 2, 0, 0, 2]\nclass = KAUAI", fillcolor="#a9f191"] ;
53 -> 59 ;
60 [label="gini = 0.0\nsamples = 2\nvalue = [0, 0, 0, 0, 0, 2, 0, 0, 0]\nclass = MAUI", fillcolor="#3964e5"] ;
59 -> 60 ;
61 [label="FeO* <= 2.325\ngini = 0.346\nsamples = 9\nvalue = [0, 0, 7, 0, 0, 0, 0, 0, 2]\nclass = KAUAI", fillcolor="#90ec72"] ;
59 -> 61 ;
62 [label="gini = 0.0\nsamples = 6\nvalue = [0, 0, 6, 0, 0, 0, 0, 0, 0]\nclass = KAUAI", fillcolor="#64e539"] ;
61 -> 62 ;
63 [label="TIO2(WT%) <= 11.05\ngini = 0.444\nsamples = 3\nvalue = [0, 0, 1, 0, 0, 0, 0, 0, 2]\nclass = OAHU", fillcolor="#f29cb2"] ;
61 -> 63 ;
64 [label="gini = 0.0\nsamples = 1\nvalue = [0, 0, 1, 0, 0, 0, 0, 0, 0]\nclass = KAUAI", fillcolor="#64e539"] ;
63 -> 64 ;
65 [label="gini = 0.0\nsamples = 2\nvalue = [0, 0, 0, 0, 0, 0, 0, 0, 2]\nclass = OAHU", fillcolor="#e53964"] ;
63 -> 65 ;
66 [label="TIO2(WT%) <= 14.49\ngini = 0.768\nsamples = 29\nvalue = [2, 0, 5, 0, 0, 4, 2, 5, 11]\nclass = OAHU", fillcolor="#f8ced8"] ;
42 -> 66 ;
67 [label="FeO* <= 2.745\ngini = 0.705\nsamples = 24\nvalue = [2, 0, 5, 0, 0, 4, 2, 0, 11]\nclass = OAHU", fillcolor="#f7c0ce"] ;
66 -> 67 ;
68 [label="TIO2(WT%) <= 12.445\ngini = 0.599\nsamples = 18\nvalue = [1, 0, 5, 0, 0, 0, 2, 0, 10]\nclass = OAHU", fillcolor="#f5b3c3"] ;
67 -> 68 ;
69 [label="ISLAND <= 2.35\ngini = 0.34\nsamples = 10\nvalue = [0, 0, 1, 0, 0, 0, 1, 0, 8]\nclass = OAHU", fillcolor="#eb6586"] ;
68 -> 69 ;
70 [label="gini = 0.0\nsamples = 1\nvalue = [0, 0, 1, 0, 0, 0, 0, 0, 0]\nclass = KAUAI", fillcolor="#64e539"] ;
69 -> 70 ;
71 [label="K2O(WT%) <= 12.05\ngini = 0.198\nsamples = 9\nvalue = [0, 0, 0, 0, 0, 0, 1, 0, 8]\nclass = OAHU", fillcolor="#e85277"] ;
69 -> 71 ;
72 [label="CAO(WT%) <= 13.78\ngini = 0.5\nsamples = 2\nvalue = [0, 0, 0, 0, 0, 0, 1, 0, 1]\nclass = MOLOKAI", fillcolor="#ffffff"] ;
71 -> 72 ;
73 [label="gini = 0.0\nsamples = 1\nvalue = [0, 0, 0, 0, 0, 0, 1, 0, 0]\nclass = MOLOKAI", fillcolor="#8139e5"] ;
72 -> 73 ;
74 [label="gini = 0.0\nsamples = 1\nvalue = [0, 0, 0, 0, 0, 0, 0, 0, 1]\nclass = OAHU", fillcolor="#e53964"] ;
72 -> 74 ;
75 [label="gini = 0.0\nsamples = 7\nvalue = [0, 0, 0, 0, 0, 0, 0, 0, 7]\nclass = OAHU", fillcolor="#e53964"] ;
71 -> 75 ;
76 [label="ISLAND <= 2.715\ngini = 0.656\nsamples = 8\nvalue = [1, 0, 4, 0, 0, 0, 1, 0, 2]\nclass = KAUAI", fillcolor="#cbf6bd"] ;
68 -> 76 ;
77 [label="MGO(WT%) <= 10.825\ngini = 0.667\nsamples = 3\nvalue = [1, 0, 0, 0, 0, 0, 1, 0, 1]\nclass = HAWAII", fillcolor="#ffffff"] ;
76 -> 77 ;
78 [label="gini = 0.0\nsamples = 1\nvalue = [0, 0, 0, 0, 0, 0, 0, 0, 1]\nclass = OAHU", fillcolor="#e53964"] ;
77 -> 78 ;
79 [label="TIO2(WT%) <= 13.78\ngini = 0.5\nsamples = 2\nvalue = [1, 0, 0, 0, 0, 0, 1, 0, 0]\nclass = HAWAII", fillcolor="#ffffff"] ;
77 -> 79 ;
80 [label="gini = 0.0\nsamples = 1\nvalue = [0, 0, 0, 0, 0, 0, 1, 0, 0]\nclass = MOLOKAI", fillcolor="#8139e5"] ;
79 -> 80 ;
81 [label="gini = 0.0\nsamples = 1\nvalue = [1, 0, 0, 0, 0, 0, 0, 0, 0]\nclass = HAWAII", fillcolor="#e58139"] ;
79 -> 81 ;
82 [label="AL2O3(WT%) <= 43.875\ngini = 0.32\nsamples = 5\nvalue = [0, 0, 4, 0, 0, 0, 0, 0, 1]\nclass = KAUAI", fillcolor="#8bec6a"] ;
76 -> 82 ;
83 [label="gini = 0.0\nsamples = 1\nvalue = [0, 0, 0, 0, 0, 0, 0, 0, 1]\nclass = OAHU", fillcolor="#e53964"] ;
82 -> 83 ;
84 [label="gini = 0.0\nsamples = 4\nvalue = [0, 0, 4, 0, 0, 0, 0, 0, 0]\nclass = KAUAI", fillcolor="#64e539"] ;
82 -> 84 ;
85 [label="MGO(WT%) <= 11.995\ngini = 0.5\nsamples = 6\nvalue = [1, 0, 0, 0, 0, 4, 0, 0, 1]\nclass = MAUI", fillcolor="#88a2ef"] ;
67 -> 85 ;
86 [label="gini = 0.0\nsamples = 4\nvalue = [0, 0, 0, 0, 0, 4, 0, 0, 0]\nclass = MAUI", fillcolor="#3964e5"] ;
85 -> 86 ;
87 [label="ISLAND <= 1.97\ngini = 0.5\nsamples = 2\nvalue = [1, 0, 0, 0, 0, 0, 0, 0, 1]\nclass = HAWAII", fillcolor="#ffffff"] ;
85 -> 87 ;
88 [label="gini = 0.0\nsamples = 1\nvalue = [1, 0, 0, 0, 0, 0, 0, 0, 0]\nclass = HAWAII", fillcolor="#e58139"] ;
87 -> 88 ;
89 [label="gini = 0.0\nsamples = 1\nvalue = [0, 0, 0, 0, 0, 0, 0, 0, 1]\nclass = OAHU", fillcolor="#e53964"] ;
87 -> 89 ;
90 [label="gini = 0.0\nsamples = 5\nvalue = [0, 0, 0, 0, 0, 0, 0, 5, 0]\nclass = NIIHAU", fillcolor="#e539d7"] ;
66 -> 90 ;
91 [label="TIO2(WT%) <= 13.625\ngini = 0.349\nsamples = 105\nvalue = [2, 0, 6, 4, 0, 8, 1, 0, 84]\nclass = OAHU", fillcolor="#eb6486"] ;
1 -> 91 ;
92 [label="CAO(WT%) <= 10.024\ngini = 0.215\nsamples = 94\nvalue = [1, 0, 5, 4, 0, 1, 0, 0, 83]\nclass = OAHU", fillcolor="#e85177"] ;
91 -> 92 ;
93 [label="K2O(WT%) <= 9.27\ngini = 0.32\nsamples = 5\nvalue = [0, 0, 0, 4, 0, 0, 0, 0, 1]\nclass = KAULA", fillcolor="#6aeca0"] ;
92 -> 93 ;
94 [label="gini = 0.0\nsamples = 1\nvalue = [0, 0, 0, 0, 0, 0, 0, 0, 1]\nclass = OAHU", fillcolor="#e53964"] ;
93 -> 94 ;
95 [label="gini = 0.0\nsamples = 4\nvalue = [0, 0, 0, 4, 0, 0, 0, 0, 0]\nclass = KAULA", fillcolor="#39e581"] ;
93 -> 95 ;
96 [label="FeO* <= 3.285\ngini = 0.148\nsamples = 89\nvalue = [1, 0, 5, 0, 0, 1, 0, 0, 82]\nclass = OAHU", fillcolor="#e74971"] ;
92 -> 96 ;
97 [label="MGO(WT%) <= 15.025\ngini = 0.069\nsamples = 84\nvalue = [0, 0, 3, 0, 0, 0, 0, 0, 81]\nclass = OAHU", fillcolor="#e6406a"] ;
96 -> 97 ;
98 [label="FeO* <= 3.15\ngini = 0.024\nsamples = 81\nvalue = [0, 0, 1, 0, 0, 0, 0, 0, 80]\nclass = OAHU", fillcolor="#e53b66"] ;
97 -> 98 ;
99 [label="gini = 0.0\nsamples = 78\nvalue = [0, 0, 0, 0, 0, 0, 0, 0, 78]\nclass = OAHU", fillcolor="#e53964"] ;
98 -> 99 ;
100 [label="AL2O3(WT%) <= 41.68\ngini = 0.444\nsamples = 3\nvalue = [0, 0, 1, 0, 0, 0, 0, 0, 2]\nclass = OAHU", fillcolor="#f29cb2"] ;
98 -> 100 ;
101 [label="gini = 0.0\nsamples = 2\nvalue = [0, 0, 0, 0, 0, 0, 0, 0, 2]\nclass = OAHU", fillcolor="#e53964"] ;
100 -> 101 ;
102 [label="gini = 0.0\nsamples = 1\nvalue = [0, 0, 1, 0, 0, 0, 0, 0, 0]\nclass = KAUAI", fillcolor="#64e539"] ;
100 -> 102 ;
103 [label="FeO* <= 2.135\ngini = 0.444\nsamples = 3\nvalue = [0, 0, 2, 0, 0, 0, 0, 0, 1]\nclass = KAUAI", fillcolor="#b2f29c"] ;
97 -> 103 ;
104 [label="gini = 0.0\nsamples = 1\nvalue = [0, 0, 0, 0, 0, 0, 0, 0, 1]\nclass = OAHU", fillcolor="#e53964"] ;
103 -> 104 ;
105 [label="gini = 0.0\nsamples = 2\nvalue = [0, 0, 2, 0, 0, 0, 0, 0, 0]\nclass = KAUAI", fillcolor="#64e539"] ;
103 -> 105 ;
106 [label="K2O(WT%) <= 11.765\ngini = 0.72\nsamples = 5\nvalue = [1, 0, 2, 0, 0, 1, 0, 0, 1]\nclass = KAUAI", fillcolor="#d8f8ce"] ;
96 -> 106 ;
107 [label="MGO(WT%) <= 9.92\ngini = 0.667\nsamples = 3\nvalue = [1, 0, 0, 0, 0, 1, 0, 0, 1]\nclass = HAWAII", fillcolor="#ffffff"] ;
106 -> 107 ;
108 [label="gini = 0.0\nsamples = 1\nvalue = [0, 0, 0, 0, 0, 0, 0, 0, 1]\nclass = OAHU", fillcolor="#e53964"] ;
107 -> 108 ;
109 [label="CAO(WT%) <= 14.243\ngini = 0.5\nsamples = 2\nvalue = [1, 0, 0, 0, 0, 1, 0, 0, 0]\nclass = HAWAII", fillcolor="#ffffff"] ;
107 -> 109 ;
110 [label="gini = 0.0\nsamples = 1\nvalue = [0, 0, 0, 0, 0, 1, 0, 0, 0]\nclass = MAUI", fillcolor="#3964e5"] ;
109 -> 110 ;
111 [label="gini = 0.0\nsamples = 1\nvalue = [1, 0, 0, 0, 0, 0, 0, 0, 0]\nclass = HAWAII", fillcolor="#e58139"] ;
109 -> 111 ;
112 [label="gini = 0.0\nsamples = 2\nvalue = [0, 0, 2, 0, 0, 0, 0, 0, 0]\nclass = KAUAI", fillcolor="#64e539"] ;
106 -> 112 ;
113 [label="MGO(WT%) <= 12.39\ngini = 0.562\nsamples = 11\nvalue = [1, 0, 1, 0, 0, 7, 1, 0, 1]\nclass = MAUI", fillcolor="#88a2ef"] ;
91 -> 113 ;
114 [label="NA2O(WT%) <= 1.31\ngini = 0.37\nsamples = 9\nvalue = [1, 0, 0, 0, 0, 7, 1, 0, 0]\nclass = MAUI", fillcolor="#6a8bec"] ;
113 -> 114 ;
115 [label="NA2O(WT%) <= 1.08\ngini = 0.5\nsamples = 2\nvalue = [1, 0, 0, 0, 0, 0, 1, 0, 0]\nclass = HAWAII", fillcolor="#ffffff"] ;
114 -> 115 ;
116 [label="gini = 0.0\nsamples = 1\nvalue = [0, 0, 0, 0, 0, 0, 1, 0, 0]\nclass = MOLOKAI", fillcolor="#8139e5"] ;
115 -> 116 ;
117 [label="gini = 0.0\nsamples = 1\nvalue = [1, 0, 0, 0, 0, 0, 0, 0, 0]\nclass = HAWAII", fillcolor="#e58139"] ;
115 -> 117 ;
118 [label="gini = 0.0\nsamples = 7\nvalue = [0, 0, 0, 0, 0, 7, 0, 0, 0]\nclass = MAUI", fillcolor="#3964e5"] ;
114 -> 118 ;
119 [label="K2O(WT%) <= 7.25\ngini = 0.5\nsamples = 2\nvalue = [0, 0, 1, 0, 0, 0, 0, 0, 1]\nclass = KAUAI", fillcolor="#ffffff"] ;
113 -> 119 ;
120 [label="gini = 0.0\nsamples = 1\nvalue = [0, 0, 1, 0, 0, 0, 0, 0, 0]\nclass = KAUAI", fillcolor="#64e539"] ;
119 -> 120 ;
121 [label="gini = 0.0\nsamples = 1\nvalue = [0, 0, 0, 0, 0, 0, 0, 0, 1]\nclass = OAHU", fillcolor="#e53964"] ;
119 -> 121 ;
122 [label="TIO2(WT%) <= 14.225\ngini = 0.5\nsamples = 2057\nvalue = [1415, 33, 19, 6, 4, 123, 137, 42, 278]\nclass = HAWAII", fillcolor="#eeae80"] ;
0 -> 122 [labeldistance=2.5, labelangle=-45, headlabel="False"] ;
123 [label="ISLAND <= 2.505\ngini = 0.381\nsamples = 1585\nvalue = [1232, 15, 12, 0, 0, 81, 74, 11, 160]\nclass = HAWAII", fillcolor="#eba06a"] ;
122 -> 123 ;
124 [label="FeO* <= 0.805\ngini = 0.293\nsamples = 1289\nvalue = [1078, 8, 6, 0, 0, 76, 46, 7, 68]\nclass = HAWAII", fillcolor="#ea975b"] ;
123 -> 124 ;
125 [label="ISLAND <= 0.635\ngini = 0.457\nsamples = 34\nvalue = [12, 0, 0, 0, 0, 0, 0, 0, 22]\nclass = OAHU", fillcolor="#f3a5b9"] ;
124 -> 125 ;
126 [label="MGO(WT%) <= 5.985\ngini = 0.391\nsamples = 15\nvalue = [11, 0, 0, 0, 0, 0, 0, 0, 4]\nclass = HAWAII", fillcolor="#eeaf81"] ;
125 -> 126 ;
127 [label="ISLAND <= 0.245\ngini = 0.32\nsamples = 5\nvalue = [1, 0, 0, 0, 0, 0, 0, 0, 4]\nclass = OAHU", fillcolor="#ec6a8b"] ;
126 -> 127 ;
128 [label="gini = 0.0\nsamples = 1\nvalue = [1, 0, 0, 0, 0, 0, 0, 0, 0]\nclass = HAWAII", fillcolor="#e58139"] ;
127 -> 128 ;
129 [label="gini = 0.0\nsamples = 4\nvalue = [0, 0, 0, 0, 0, 0, 0, 0, 4]\nclass = OAHU", fillcolor="#e53964"] ;
127 -> 129 ;
130 [label="gini = 0.0\nsamples = 10\nvalue = [10, 0, 0, 0, 0, 0, 0, 0, 0]\nclass = HAWAII", fillcolor="#e58139"] ;
126 -> 130 ;
131 [label="NA2O(WT%) <= 0.33\ngini = 0.1\nsamples = 19\nvalue = [1, 0, 0, 0, 0, 0, 0, 0, 18]\nclass = OAHU", fillcolor="#e6446d"] ;
125 -> 131 ;
132 [label="gini = 0.0\nsamples = 18\nvalue = [0, 0, 0, 0, 0, 0, 0, 0, 18]\nclass = OAHU", fillcolor="#e53964"] ;
131 -> 132 ;
133 [label="gini = 0.0\nsamples = 1\nvalue = [1, 0, 0, 0, 0, 0, 0, 0, 0]\nclass = HAWAII", fillcolor="#e58139"] ;
131 -> 133 ;
134 [label="CAO(WT%) <= 11.773\ngini = 0.272\nsamples = 1255\nvalue = [1066, 8, 6, 0, 0, 76, 46, 7, 46]\nclass = HAWAII", fillcolor="#e99559"] ;
124 -> 134 ;
135 [label="AL2O3(WT%) <= 52.685\ngini = 0.22\nsamples = 1080\nvalue = [951, 6, 2, 0, 0, 62, 20, 3, 36]\nclass = HAWAII", fillcolor="#e89152"] ;
134 -> 135 ;
136 [label="CAO(WT%) <= 9.765\ngini = 0.214\nsamples = 1076\nvalue = [951, 5, 2, 0, 0, 62, 20, 3, 33]\nclass = HAWAII", fillcolor="#e89151"] ;
135 -> 136 ;
137 [label="gini = 0.0\nsamples = 190\nvalue = [190, 0, 0, 0, 0, 0, 0, 0, 0]\nclass = HAWAII", fillcolor="#e58139"] ;
136 -> 137 ;
138 [label="MGO(WT%) <= 10.485\ngini = 0.255\nsamples = 886\nvalue = [761, 5, 2, 0, 0, 62, 20, 3, 33]\nclass = HAWAII", fillcolor="#e99457"] ;
136 -> 138 ;
139 [label="FeO* <= 2.305\ngini = 0.357\nsamples = 431\nvalue = [341, 1, 0, 0, 0, 48, 12, 1, 28]\nclass = HAWAII", fillcolor="#eb9f68"] ;
138 -> 139 ;
140 [label="NA2O(WT%) <= 0.555\ngini = 0.225\nsamples = 309\nvalue = [271, 1, 0, 0, 0, 6, 8, 1, 22]\nclass = HAWAII", fillcolor="#e89253"] ;
139 -> 140 ;
141 [label="NA2O(WT%) <= 0.196\ngini = 0.202\nsamples = 302\nvalue = [269, 1, 0, 0, 0, 6, 8, 1, 17]\nclass = HAWAII", fillcolor="#e89050"] ;
140 -> 141 ;
142 [label="MGO(WT%) <= 8.77\ngini = 0.482\nsamples = 26\nvalue = [18, 0, 0, 0, 0, 1, 3, 0, 4]\nclass = HAWAII", fillcolor="#eeaf81"] ;
141 -> 142 ;
143 [label="NA2O(WT%) <= 0.191\ngini = 0.111\nsamples = 17\nvalue = [16, 0, 0, 0, 0, 0, 1, 0, 0]\nclass = HAWAII", fillcolor="#e78945"] ;
142 -> 143 ;
144 [label="gini = 0.0\nsamples = 16\nvalue = [16, 0, 0, 0, 0, 0, 0, 0, 0]\nclass = HAWAII", fillcolor="#e58139"] ;
143 -> 144 ;
145 [label="gini = 0.0\nsamples = 1\nvalue = [0, 0, 0, 0, 0, 0, 1, 0, 0]\nclass = MOLOKAI", fillcolor="#8139e5"] ;
143 -> 145 ;
146 [label="ISLAND <= 1.52\ngini = 0.691\nsamples = 9\nvalue = [2, 0, 0, 0, 0, 1, 2, 0, 4]\nclass = OAHU", fillcolor="#f8c6d3"] ;
142 -> 146 ;
147 [label="gini = 0.0\nsamples = 2\nvalue = [0, 0, 0, 0, 0, 0, 2, 0, 0]\nclass = MOLOKAI", fillcolor="#8139e5"] ;
146 -> 147 ;
148 [label="NA2O(WT%) <= 0.096\ngini = 0.571\nsamples = 7\nvalue = [2, 0, 0, 0, 0, 1, 0, 0, 4]\nclass = OAHU", fillcolor="#f5b0c1"] ;
146 -> 148 ;
149 [label="gini = 0.0\nsamples = 2\nvalue = [2, 0, 0, 0, 0, 0, 0, 0, 0]\nclass = HAWAII", fillcolor="#e58139"] ;
148 -> 149 ;
150 [label="K2O(WT%) <= 9.655\ngini = 0.32\nsamples = 5\nvalue = [0, 0, 0, 0, 0, 1, 0, 0, 4]\nclass = OAHU", fillcolor="#ec6a8b"] ;
148 -> 150 ;
151 [label="gini = 0.0\nsamples = 1\nvalue = [0, 0, 0, 0, 0, 1, 0, 0, 0]\nclass = MAUI", fillcolor="#3964e5"] ;
150 -> 151 ;
152 [label="gini = 0.0\nsamples = 4\nvalue = [0, 0, 0, 0, 0, 0, 0, 0, 4]\nclass = OAHU", fillcolor="#e53964"] ;
150 -> 152 ;
153 [label="CAO(WT%) <= 10.662\ngini = 0.17\nsamples = 276\nvalue = [251, 1, 0, 0, 0, 5, 5, 1, 13]\nclass = HAWAII", fillcolor="#e78d4c"] ;
141 -> 153 ;
154 [label="ISLAND <= 2.19\ngini = 0.364\nsamples = 36\nvalue = [28, 0, 0, 0, 0, 0, 2, 0, 6]\nclass = HAWAII", fillcolor="#eca36e"] ;
153 -> 154 ;
155 [label="CAO(WT%) <= 10.65\ngini = 0.24\nsamples = 30\nvalue = [26, 0, 0, 0, 0, 0, 2, 0, 2]\nclass = HAWAII", fillcolor="#e99355"] ;
154 -> 155 ;
156 [label="AL2O3(WT%) <= 48.495\ngini = 0.19\nsamples = 29\nvalue = [26, 0, 0, 0, 0, 0, 2, 0, 1]\nclass = HAWAII", fillcolor="#e88f4f"] ;
155 -> 156 ;
157 [label="gini = 0.0\nsamples = 16\nvalue = [16, 0, 0, 0, 0, 0, 0, 0, 0]\nclass = HAWAII", fillcolor="#e58139"] ;
156 -> 157 ;
158 [label="AL2O3(WT%) <= 49.21\ngini = 0.379\nsamples = 13\nvalue = [10, 0, 0, 0, 0, 0, 2, 0, 1]\nclass = HAWAII", fillcolor="#eca36f"] ;
156 -> 158 ;
159 [label="gini = 0.0\nsamples = 2\nvalue = [0, 0, 0, 0, 0, 0, 2, 0, 0]\nclass = MOLOKAI", fillcolor="#8139e5"] ;
158 -> 159 ;
160 [label="MGO(WT%) <= 8.39\ngini = 0.165\nsamples = 11\nvalue = [10, 0, 0, 0, 0, 0, 0, 0, 1]\nclass = HAWAII", fillcolor="#e88e4d"] ;
158 -> 160 ;
161 [label="gini = 0.0\nsamples = 1\nvalue = [0, 0, 0, 0, 0, 0, 0, 0, 1]\nclass = OAHU", fillcolor="#e53964"] ;
160 -> 161 ;
162 [label="gini = 0.0\nsamples = 10\nvalue = [10, 0, 0, 0, 0, 0, 0, 0, 0]\nclass = HAWAII", fillcolor="#e58139"] ;
160 -> 162 ;
163 [label="gini = 0.0\nsamples = 1\nvalue = [0, 0, 0, 0, 0, 0, 0, 0, 1]\nclass = OAHU", fillcolor="#e53964"] ;
155 -> 163 ;
164 [label="MGO(WT%) <= 10.255\ngini = 0.444\nsamples = 6\nvalue = [2, 0, 0, 0, 0, 0, 0, 0, 4]\nclass = OAHU", fillcolor="#f29cb2"] ;
154 -> 164 ;
165 [label="gini = 0.0\nsamples = 3\nvalue = [0, 0, 0, 0, 0, 0, 0, 0, 3]\nclass = OAHU", fillcolor="#e53964"] ;
164 -> 165 ;
166 [label="AL2O3(WT%) <= 51.695\ngini = 0.444\nsamples = 3\nvalue = [2, 0, 0, 0, 0, 0, 0, 0, 1]\nclass = HAWAII", fillcolor="#f2c09c"] ;
164 -> 166 ;
167 [label="gini = 0.0\nsamples = 1\nvalue = [0, 0, 0, 0, 0, 0, 0, 0, 1]\nclass = OAHU", fillcolor="#e53964"] ;
166 -> 167 ;
168 [label="gini = 0.0\nsamples = 2\nvalue = [2, 0, 0, 0, 0, 0, 0, 0, 0]\nclass = HAWAII", fillcolor="#e58139"] ;
166 -> 168 ;
169 [label="NA2O(WT%) <= 0.267\ngini = 0.135\nsamples = 240\nvalue = [223, 1, 0, 0, 0, 5, 3, 1, 7]\nclass = HAWAII", fillcolor="#e78a47"] ;
153 -> 169 ;
170 [label="FeO* <= 1.77\ngini = 0.272\nsamples = 39\nvalue = [33, 0, 0, 0, 0, 1, 1, 0, 4]\nclass = HAWAII", fillcolor="#e9975b"] ;
169 -> 170 ;
171 [label="CAO(WT%) <= 11.02\ngini = 0.064\nsamples = 30\nvalue = [29, 0, 0, 0, 0, 0, 1, 0, 0]\nclass = HAWAII", fillcolor="#e68540"] ;
170 -> 171 ;
172 [label="CAO(WT%) <= 10.983\ngini = 0.278\nsamples = 6\nvalue = [5, 0, 0, 0, 0, 0, 1, 0, 0]\nclass = HAWAII", fillcolor="#ea9a61"] ;
171 -> 172 ;
173 [label="gini = 0.0\nsamples = 5\nvalue = [5, 0, 0, 0, 0, 0, 0, 0, 0]\nclass = HAWAII", fillcolor="#e58139"] ;
172 -> 173 ;
174 [label="gini = 0.0\nsamples = 1\nvalue = [0, 0, 0, 0, 0, 0, 1, 0, 0]\nclass = MOLOKAI", fillcolor="#8139e5"] ;
172 -> 174 ;
175 [label="gini = 0.0\nsamples = 24\nvalue = [24, 0, 0, 0, 0, 0, 0, 0, 0]\nclass = HAWAII", fillcolor="#e58139"] ;
171 -> 175 ;
176 [label="CAO(WT%) <= 11.577\ngini = 0.593\nsamples = 9\nvalue = [4, 0, 0, 0, 0, 1, 0, 0, 4]\nclass = HAWAII", fillcolor="#ffffff"] ;
170 -> 176 ;
177 [label="TIO2(WT%) <= 11.615\ngini = 0.571\nsamples = 7\nvalue = [4, 0, 0, 0, 0, 1, 0, 0, 2]\nclass = HAWAII", fillcolor="#f5cdb0"] ;
176 -> 177 ;
178 [label="FeO* <= 1.89\ngini = 0.625\nsamples = 4\nvalue = [1, 0, 0, 0, 0, 1, 0, 0, 2]\nclass = OAHU", fillcolor="#f6bdcb"] ;
177 -> 178 ;
179 [label="FeO* <= 1.82\ngini = 0.5\nsamples = 2\nvalue = [1, 0, 0, 0, 0, 1, 0, 0, 0]\nclass = HAWAII", fillcolor="#ffffff"] ;
178 -> 179 ;
180 [label="gini = 0.0\nsamples = 1\nvalue = [1, 0, 0, 0, 0, 0, 0, 0, 0]\nclass = HAWAII", fillcolor="#e58139"] ;
179 -> 180 ;
181 [label="gini = 0.0\nsamples = 1\nvalue = [0, 0, 0, 0, 0, 1, 0, 0, 0]\nclass = MAUI", fillcolor="#3964e5"] ;
179 -> 181 ;
182 [label="gini = 0.0\nsamples = 2\nvalue = [0, 0, 0, 0, 0, 0, 0, 0, 2]\nclass = OAHU", fillcolor="#e53964"] ;
178 -> 182 ;
183 [label="gini = 0.0\nsamples = 3\nvalue = [3, 0, 0, 0, 0, 0, 0, 0, 0]\nclass = HAWAII", fillcolor="#e58139"] ;
177 -> 183 ;
184 [label="gini = 0.0\nsamples = 2\nvalue = [0, 0, 0, 0, 0, 0, 0, 0, 2]\nclass = OAHU", fillcolor="#e53964"] ;
176 -> 184 ;
185 [label="FeO* <= 2.005\ngini = 0.106\nsamples = 201\nvalue = [190, 1, 0, 0, 0, 4, 2, 1, 3]\nclass = HAWAII", fillcolor="#e68844"] ;
169 -> 185 ;
186 [label="ISLAND <= 2.215\ngini = 0.019\nsamples = 102\nvalue = [101, 1, 0, 0, 0, 0, 0, 0, 0]\nclass = HAWAII", fillcolor="#e5823b"] ;
185 -> 186 ;
187 [label="gini = 0.0\nsamples = 94\nvalue = [94, 0, 0, 0, 0, 0, 0, 0, 0]\nclass = HAWAII", fillcolor="#e58139"] ;
186 -> 187 ;
188 [label="CAO(WT%) <= 11.257\ngini = 0.219\nsamples = 8\nvalue = [7, 1, 0, 0, 0, 0, 0, 0, 0]\nclass = HAWAII", fillcolor="#e99355"] ;
186 -> 188 ;
189 [label="gini = 0.0\nsamples = 7\nvalue = [7, 0, 0, 0, 0, 0, 0, 0, 0]\nclass = HAWAII", fillcolor="#e58139"] ;
188 -> 189 ;
190 [label="gini = 0.0\nsamples = 1\nvalue = [0, 1, 0, 0, 0, 0, 0, 0, 0]\nclass = KAHOOLAWE", fillcolor="#d7e539"] ;
188 -> 190 ;
191 [label="MGO(WT%) <= 8.885\ngini = 0.189\nsamples = 99\nvalue = [89, 0, 0, 0, 0, 4, 2, 1, 3]\nclass = HAWAII", fillcolor="#e88e4e"] ;
185 -> 191 ;
192 [label="NA2O(WT%) <= 0.34\ngini = 0.521\nsamples = 13\nvalue = [8, 0, 0, 0, 0, 4, 0, 0, 1]\nclass = HAWAII", fillcolor="#f3c7a7"] ;
191 -> 192 ;
193 [label="ISLAND <= 1.775\ngini = 0.375\nsamples = 4\nvalue = [0, 0, 0, 0, 0, 3, 0, 0, 1]\nclass = MAUI", fillcolor="#7b98ee"] ;
192 -> 193 ;
194 [label="gini = 0.0\nsamples = 3\nvalue = [0, 0, 0, 0, 0, 3, 0, 0, 0]\nclass = MAUI", fillcolor="#3964e5"] ;
193 -> 194 ;
195 [label="gini = 0.0\nsamples = 1\nvalue = [0, 0, 0, 0, 0, 0, 0, 0, 1]\nclass = OAHU", fillcolor="#e53964"] ;
193 -> 195 ;
196 [label="MGO(WT%) <= 8.605\ngini = 0.198\nsamples = 9\nvalue = [8, 0, 0, 0, 0, 1, 0, 0, 0]\nclass = HAWAII", fillcolor="#e89152"] ;
192 -> 196 ;
197 [label="gini = 0.0\nsamples = 8\nvalue = [8, 0, 0, 0, 0, 0, 0, 0, 0]\nclass = HAWAII", fillcolor="#e58139"] ;
196 -> 197 ;
198 [label="gini = 0.0\nsamples = 1\nvalue = [0, 0, 0, 0, 0, 1, 0, 0, 0]\nclass = MAUI", fillcolor="#3964e5"] ;
196 -> 198 ;
199 [label="CAO(WT%) <= 11.016\ngini = 0.112\nsamples = 86\nvalue = [81, 0, 0, 0, 0, 0, 2, 1, 2]\nclass = HAWAII", fillcolor="#e78845"] ;
191 -> 199 ;
200 [label="ISLAND <= 2.0\ngini = 0.285\nsamples = 25\nvalue = [21, 0, 0, 0, 0, 0, 1, 1, 2]\nclass = HAWAII", fillcolor="#ea975b"] ;
199 -> 200 ;
201 [label="TIO2(WT%) <= 11.7\ngini = 0.444\nsamples = 3\nvalue = [0, 0, 0, 0, 0, 0, 1, 0, 2]\nclass = OAHU", fillcolor="#f29cb2"] ;
200 -> 201 ;
202 [label="gini = 0.0\nsamples = 1\nvalue = [0, 0, 0, 0, 0, 0, 1, 0, 0]\nclass = MOLOKAI", fillcolor="#8139e5"] ;
201 -> 202 ;
203 [label="gini = 0.0\nsamples = 2\nvalue = [0, 0, 0, 0, 0, 0, 0, 0, 2]\nclass = OAHU", fillcolor="#e53964"] ;
201 -> 203 ;
204 [label="FeO* <= 2.255\ngini = 0.087\nsamples = 22\nvalue = [21, 0, 0, 0, 0, 0, 0, 1, 0]\nclass = HAWAII", fillcolor="#e68742"] ;
200 -> 204 ;
205 [label="gini = 0.0\nsamples = 19\nvalue = [19, 0, 0, 0, 0, 0, 0, 0, 0]\nclass = HAWAII", fillcolor="#e58139"] ;
204 -> 205 ;
206 [label="TIO2(WT%) <= 13.265\ngini = 0.444\nsamples = 3\nvalue = [2, 0, 0, 0, 0, 0, 0, 1, 0]\nclass = HAWAII", fillcolor="#f2c09c"] ;
204 -> 206 ;
207 [label="gini = 0.0\nsamples = 2\nvalue = [2, 0, 0, 0, 0, 0, 0, 0, 0]\nclass = HAWAII", fillcolor="#e58139"] ;
206 -> 207 ;
208 [label="gini = 0.0\nsamples = 1\nvalue = [0, 0, 0, 0, 0, 0, 0, 1, 0]\nclass = NIIHAU", fillcolor="#e539d7"] ;
206 -> 208 ;
209 [label="NA2O(WT%) <= 0.34\ngini = 0.032\nsamples = 61\nvalue = [60, 0, 0, 0, 0, 0, 1, 0, 0]\nclass = HAWAII", fillcolor="#e5833c"] ;
199 -> 209 ;
210 [label="K2O(WT%) <= 11.43\ngini = 0.245\nsamples = 7\nvalue = [6, 0, 0, 0, 0, 0, 1, 0, 0]\nclass = HAWAII", fillcolor="#e9965a"] ;
209 -> 210 ;
211 [label="gini = 0.0\nsamples = 5\nvalue = [5, 0, 0, 0, 0, 0, 0, 0, 0]\nclass = HAWAII", fillcolor="#e58139"] ;
210 -> 211 ;
212 [label="MGO(WT%) <= 9.63\ngini = 0.5\nsamples = 2\nvalue = [1, 0, 0, 0, 0, 0, 1, 0, 0]\nclass = HAWAII", fillcolor="#ffffff"] ;
210 -> 212 ;
213 [label="gini = 0.0\nsamples = 1\nvalue = [1, 0, 0, 0, 0, 0, 0, 0, 0]\nclass = HAWAII", fillcolor="#e58139"] ;
212 -> 213 ;
214 [label="gini = 0.0\nsamples = 1\nvalue = [0, 0, 0, 0, 0, 0, 1, 0, 0]\nclass = MOLOKAI", fillcolor="#8139e5"] ;
212 -> 214 ;
215 [label="gini = 0.0\nsamples = 54\nvalue = [54, 0, 0, 0, 0, 0, 0, 0, 0]\nclass = HAWAII", fillcolor="#e58139"] ;
209 -> 215 ;
216 [label="K2O(WT%) <= 9.575\ngini = 0.408\nsamples = 7\nvalue = [2, 0, 0, 0, 0, 0, 0, 0, 5]\nclass = OAHU", fillcolor="#ef88a2"] ;
140 -> 216 ;
217 [label="gini = 0.0\nsamples = 5\nvalue = [0, 0, 0, 0, 0, 0, 0, 0, 5]\nclass = OAHU", fillcolor="#e53964"] ;
216 -> 217 ;
218 [label="gini = 0.0\nsamples = 2\nvalue = [2, 0, 0, 0, 0, 0, 0, 0, 0]\nclass = HAWAII", fillcolor="#e58139"] ;
216 -> 218 ;
219 [label="NA2O(WT%) <= 0.455\ngini = 0.549\nsamples = 122\nvalue = [70, 0, 0, 0, 0, 42, 4, 0, 6]\nclass = HAWAII", fillcolor="#f6d3ba"] ;
139 -> 219 ;
220 [label="AL2O3(WT%) <= 49.995\ngini = 0.562\nsamples = 67\nvalue = [24, 0, 0, 0, 0, 37, 2, 0, 4]\nclass = MAUI", fillcolor="#c3d0f7"] ;
219 -> 220 ;
221 [label="CAO(WT%) <= 11.411\ngini = 0.478\nsamples = 51\nvalue = [14, 0, 0, 0, 0, 34, 1, 0, 2]\nclass = MAUI", fillcolor="#94abf1"] ;
220 -> 221 ;
222 [label="CAO(WT%) <= 10.703\ngini = 0.323\nsamples = 36\nvalue = [6, 0, 0, 0, 0, 29, 0, 0, 1]\nclass = MAUI", fillcolor="#6788eb"] ;
221 -> 222 ;
223 [label="gini = 0.0\nsamples = 2\nvalue = [2, 0, 0, 0, 0, 0, 0, 0, 0]\nclass = HAWAII", fillcolor="#e58139"] ;
222 -> 223 ;
224 [label="ISLAND <= 2.255\ngini = 0.258\nsamples = 34\nvalue = [4, 0, 0, 0, 0, 29, 0, 0, 1]\nclass = MAUI", fillcolor="#5a7ee9"] ;
222 -> 224 ;
225 [label="K2O(WT%) <= 13.22\ngini = 0.213\nsamples = 33\nvalue = [4, 0, 0, 0, 0, 29, 0, 0, 0]\nclass = MAUI", fillcolor="#5479e9"] ;
224 -> 225 ;
226 [label="MGO(WT%) <= 10.455\ngini = 0.137\nsamples = 27\nvalue = [2, 0, 0, 0, 0, 25, 0, 0, 0]\nclass = MAUI", fillcolor="#4970e7"] ;
225 -> 226 ;
227 [label="TIO2(WT%) <= 13.33\ngini = 0.077\nsamples = 25\nvalue = [1, 0, 0, 0, 0, 24, 0, 0, 0]\nclass = MAUI", fillcolor="#416ae6"] ;
226 -> 227 ;
228 [label="gini = 0.0\nsamples = 23\nvalue = [0, 0, 0, 0, 0, 23, 0, 0, 0]\nclass = MAUI", fillcolor="#3964e5"] ;
227 -> 228 ;
229 [label="MGO(WT%) <= 10.17\ngini = 0.5\nsamples = 2\nvalue = [1, 0, 0, 0, 0, 1, 0, 0, 0]\nclass = HAWAII", fillcolor="#ffffff"] ;
227 -> 229 ;
230 [label="gini = 0.0\nsamples = 1\nvalue = [1, 0, 0, 0, 0, 0, 0, 0, 0]\nclass = HAWAII", fillcolor="#e58139"] ;
229 -> 230 ;
231 [label="gini = 0.0\nsamples = 1\nvalue = [0, 0, 0, 0, 0, 1, 0, 0, 0]\nclass = MAUI", fillcolor="#3964e5"] ;
229 -> 231 ;
232 [label="TIO2(WT%) <= 12.46\ngini = 0.5\nsamples = 2\nvalue = [1, 0, 0, 0, 0, 1, 0, 0, 0]\nclass = HAWAII", fillcolor="#ffffff"] ;
226 -> 232 ;
233 [label="gini = 0.0\nsamples = 1\nvalue = [1, 0, 0, 0, 0, 0, 0, 0, 0]\nclass = HAWAII", fillcolor="#e58139"] ;
232 -> 233 ;
234 [label="gini = 0.0\nsamples = 1\nvalue = [0, 0, 0, 0, 0, 1, 0, 0, 0]\nclass = MAUI", fillcolor="#3964e5"] ;
232 -> 234 ;
235 [label="TIO2(WT%) <= 11.36\ngini = 0.444\nsamples = 6\nvalue = [2, 0, 0, 0, 0, 4, 0, 0, 0]\nclass = MAUI", fillcolor="#9cb2f2"] ;
225 -> 235 ;
236 [label="gini = 0.0\nsamples = 4\nvalue = [0, 0, 0, 0, 0, 4, 0, 0, 0]\nclass = MAUI", fillcolor="#3964e5"] ;
235 -> 236 ;
237 [label="gini = 0.0\nsamples = 2\nvalue = [2, 0, 0, 0, 0, 0, 0, 0, 0]\nclass = HAWAII", fillcolor="#e58139"] ;
235 -> 237 ;
238 [label="gini = 0.0\nsamples = 1\nvalue = [0, 0, 0, 0, 0, 0, 0, 0, 1]\nclass = OAHU", fillcolor="#e53964"] ;
224 -> 238 ;
239 [label="FeO* <= 2.765\ngini = 0.596\nsamples = 15\nvalue = [8, 0, 0, 0, 0, 5, 1, 0, 1]\nclass = HAWAII", fillcolor="#f7d9c4"] ;
221 -> 239 ;
240 [label="NA2O(WT%) <= 0.37\ngini = 0.514\nsamples = 12\nvalue = [8, 0, 0, 0, 0, 2, 1, 0, 1]\nclass = HAWAII", fillcolor="#efb388"] ;
239 -> 240 ;
241 [label="MGO(WT%) <= 9.055\ngini = 0.72\nsamples = 5\nvalue = [1, 0, 0, 0, 0, 2, 1, 0, 1]\nclass = MAUI", fillcolor="#ced8f8"] ;
240 -> 241 ;
242 [label="gini = 0.0\nsamples = 2\nvalue = [0, 0, 0, 0, 0, 2, 0, 0, 0]\nclass = MAUI", fillcolor="#3964e5"] ;
241 -> 242 ;
243 [label="FeO* <= 2.54\ngini = 0.667\nsamples = 3\nvalue = [1, 0, 0, 0, 0, 0, 1, 0, 1]\nclass = HAWAII", fillcolor="#ffffff"] ;
241 -> 243 ;
244 [label="gini = 0.0\nsamples = 1\nvalue = [0, 0, 0, 0, 0, 0, 1, 0, 0]\nclass = MOLOKAI", fillcolor="#8139e5"] ;
243 -> 244 ;
245 [label="CAO(WT%) <= 11.738\ngini = 0.5\nsamples = 2\nvalue = [1, 0, 0, 0, 0, 0, 0, 0, 1]\nclass = HAWAII", fillcolor="#ffffff"] ;
243 -> 245 ;
246 [label="gini = 0.0\nsamples = 1\nvalue = [0, 0, 0, 0, 0, 0, 0, 0, 1]\nclass = OAHU", fillcolor="#e53964"] ;
245 -> 246 ;
247 [label="gini = 0.0\nsamples = 1\nvalue = [1, 0, 0, 0, 0, 0, 0, 0, 0]\nclass = HAWAII", fillcolor="#e58139"] ;
245 -> 247 ;
248 [label="gini = 0.0\nsamples = 7\nvalue = [7, 0, 0, 0, 0, 0, 0, 0, 0]\nclass = HAWAII", fillcolor="#e58139"] ;
240 -> 248 ;
249 [label="gini = 0.0\nsamples = 3\nvalue = [0, 0, 0, 0, 0, 3, 0, 0, 0]\nclass = MAUI", fillcolor="#3964e5"] ;
239 -> 249 ;
250 [label="ISLAND <= 2.095\ngini = 0.555\nsamples = 16\nvalue = [10, 0, 0, 0, 0, 3, 1, 0, 2]\nclass = HAWAII", fillcolor="#f1bb94"] ;
220 -> 250 ;
251 [label="gini = 0.0\nsamples = 5\nvalue = [5, 0, 0, 0, 0, 0, 0, 0, 0]\nclass = HAWAII", fillcolor="#e58139"] ;
250 -> 251 ;
252 [label="MGO(WT%) <= 10.33\ngini = 0.678\nsamples = 11\nvalue = [5, 0, 0, 0, 0, 3, 1, 0, 2]\nclass = HAWAII", fillcolor="#f8e0ce"] ;
250 -> 252 ;
253 [label="MGO(WT%) <= 10.14\ngini = 0.617\nsamples = 9\nvalue = [5, 0, 0, 0, 0, 1, 1, 0, 2]\nclass = HAWAII", fillcolor="#f4c9aa"] ;
252 -> 253 ;
254 [label="K2O(WT%) <= 6.145\ngini = 0.449\nsamples = 7\nvalue = [5, 0, 0, 0, 0, 1, 0, 0, 1]\nclass = HAWAII", fillcolor="#eeab7b"] ;
253 -> 254 ;
255 [label="gini = 0.0\nsamples = 1\nvalue = [0, 0, 0, 0, 0, 1, 0, 0, 0]\nclass = MAUI", fillcolor="#3964e5"] ;
254 -> 255 ;
256 [label="CAO(WT%) <= 11.103\ngini = 0.278\nsamples = 6\nvalue = [5, 0, 0, 0, 0, 0, 0, 0, 1]\nclass = HAWAII", fillcolor="#ea9a61"] ;
254 -> 256 ;
257 [label="FeO* <= 2.945\ngini = 0.5\nsamples = 2\nvalue = [1, 0, 0, 0, 0, 0, 0, 0, 1]\nclass = HAWAII", fillcolor="#ffffff"] ;
256 -> 257 ;
258 [label="gini = 0.0\nsamples = 1\nvalue = [0, 0, 0, 0, 0, 0, 0, 0, 1]\nclass = OAHU", fillcolor="#e53964"] ;
257 -> 258 ;
259 [label="gini = 0.0\nsamples = 1\nvalue = [1, 0, 0, 0, 0, 0, 0, 0, 0]\nclass = HAWAII", fillcolor="#e58139"] ;
257 -> 259 ;
260 [label="gini = 0.0\nsamples = 4\nvalue = [4, 0, 0, 0, 0, 0, 0, 0, 0]\nclass = HAWAII", fillcolor="#e58139"] ;
256 -> 260 ;
261 [label="CAO(WT%) <= 11.325\ngini = 0.5\nsamples = 2\nvalue = [0, 0, 0, 0, 0, 0, 1, 0, 1]\nclass = MOLOKAI", fillcolor="#ffffff"] ;
253 -> 261 ;
262 [label="gini = 0.0\nsamples = 1\nvalue = [0, 0, 0, 0, 0, 0, 0, 0, 1]\nclass = OAHU", fillcolor="#e53964"] ;
261 -> 262 ;
263 [label="gini = 0.0\nsamples = 1\nvalue = [0, 0, 0, 0, 0, 0, 1, 0, 0]\nclass = MOLOKAI", fillcolor="#8139e5"] ;
261 -> 263 ;
264 [label="gini = 0.0\nsamples = 2\nvalue = [0, 0, 0, 0, 0, 2, 0, 0, 0]\nclass = MAUI", fillcolor="#3964e5"] ;
252 -> 264 ;
265 [label="CAO(WT%) <= 11.364\ngini = 0.29\nsamples = 55\nvalue = [46, 0, 0, 0, 0, 5, 2, 0, 2]\nclass = HAWAII", fillcolor="#ea985d"] ;
219 -> 265 ;
266 [label="TIO2(WT%) <= 13.945\ngini = 0.617\nsamples = 18\nvalue = [10, 0, 0, 0, 0, 4, 2, 0, 2]\nclass = HAWAII", fillcolor="#f4c9aa"] ;
265 -> 266 ;
267 [label="TIO2(WT%) <= 13.235\ngini = 0.531\nsamples = 16\nvalue = [10, 0, 0, 0, 0, 4, 0, 0, 2]\nclass = HAWAII", fillcolor="#f2c09c"] ;
266 -> 267 ;
268 [label="NA2O(WT%) <= 0.491\ngini = 0.571\nsamples = 7\nvalue = [2, 0, 0, 0, 0, 4, 0, 0, 1]\nclass = MAUI", fillcolor="#b0c1f5"] ;
267 -> 268 ;
269 [label="NA2O(WT%) <= 0.465\ngini = 0.32\nsamples = 5\nvalue = [1, 0, 0, 0, 0, 4, 0, 0, 0]\nclass = MAUI", fillcolor="#6a8bec"] ;
268 -> 269 ;
270 [label="gini = 0.0\nsamples = 1\nvalue = [1, 0, 0, 0, 0, 0, 0, 0, 0]\nclass = HAWAII", fillcolor="#e58139"] ;
269 -> 270 ;
271 [label="gini = 0.0\nsamples = 4\nvalue = [0, 0, 0, 0, 0, 4, 0, 0, 0]\nclass = MAUI", fillcolor="#3964e5"] ;
269 -> 271 ;
272 [label="MGO(WT%) <= 10.215\ngini = 0.5\nsamples = 2\nvalue = [1, 0, 0, 0, 0, 0, 0, 0, 1]\nclass = HAWAII", fillcolor="#ffffff"] ;
268 -> 272 ;
273 [label="gini = 0.0\nsamples = 1\nvalue = [1, 0, 0, 0, 0, 0, 0, 0, 0]\nclass = HAWAII", fillcolor="#e58139"] ;
272 -> 273 ;
274 [label="gini = 0.0\nsamples = 1\nvalue = [0, 0, 0, 0, 0, 0, 0, 0, 1]\nclass = OAHU", fillcolor="#e53964"] ;
272 -> 274 ;
275 [label="MGO(WT%) <= 9.785\ngini = 0.198\nsamples = 9\nvalue = [8, 0, 0, 0, 0, 0, 0, 0, 1]\nclass = HAWAII", fillcolor="#e89152"] ;
267 -> 275 ;
276 [label="gini = 0.0\nsamples = 1\nvalue = [0, 0, 0, 0, 0, 0, 0, 0, 1]\nclass = OAHU", fillcolor="#e53964"] ;
275 -> 276 ;
277 [label="gini = 0.0\nsamples = 8\nvalue = [8, 0, 0, 0, 0, 0, 0, 0, 0]\nclass = HAWAII", fillcolor="#e58139"] ;
275 -> 277 ;
278 [label="gini = 0.0\nsamples = 2\nvalue = [0, 0, 0, 0, 0, 0, 2, 0, 0]\nclass = MOLOKAI", fillcolor="#8139e5"] ;
266 -> 278 ;
279 [label="K2O(WT%) <= 14.24\ngini = 0.053\nsamples = 37\nvalue = [36, 0, 0, 0, 0, 1, 0, 0, 0]\nclass = HAWAII", fillcolor="#e6843e"] ;
265 -> 279 ;
280 [label="gini = 0.0\nsamples = 36\nvalue = [36, 0, 0, 0, 0, 0, 0, 0, 0]\nclass = HAWAII", fillcolor="#e58139"] ;
279 -> 280 ;
281 [label="gini = 0.0\nsamples = 1\nvalue = [0, 0, 0, 0, 0, 1, 0, 0, 0]\nclass = MAUI", fillcolor="#3964e5"] ;
279 -> 281 ;
282 [label="NA2O(WT%) <= 0.195\ngini = 0.146\nsamples = 455\nvalue = [420, 4, 2, 0, 0, 14, 8, 2, 5]\nclass = HAWAII", fillcolor="#e78b49"] ;
138 -> 282 ;
283 [label="AL2O3(WT%) <= 49.95\ngini = 0.776\nsamples = 7\nvalue = [1, 2, 0, 0, 0, 1, 2, 1, 0]\nclass = KAHOOLAWE", fillcolor="#ffffff"] ;
282 -> 283 ;
284 [label="ISLAND <= 2.22\ngini = 0.72\nsamples = 5\nvalue = [1, 0, 0, 0, 0, 1, 2, 1, 0]\nclass = MOLOKAI", fillcolor="#e0cef8"] ;
283 -> 284 ;
285 [label="CAO(WT%) <= 10.693\ngini = 0.667\nsamples = 3\nvalue = [1, 0, 0, 0, 0, 1, 0, 1, 0]\nclass = HAWAII", fillcolor="#ffffff"] ;
284 -> 285 ;
286 [label="gini = 0.0\nsamples = 1\nvalue = [1, 0, 0, 0, 0, 0, 0, 0, 0]\nclass = HAWAII", fillcolor="#e58139"] ;
285 -> 286 ;
287 [label="ISLAND <= 2.09\ngini = 0.5\nsamples = 2\nvalue = [0, 0, 0, 0, 0, 1, 0, 1, 0]\nclass = MAUI", fillcolor="#ffffff"] ;
285 -> 287 ;
288 [label="gini = 0.0\nsamples = 1\nvalue = [0, 0, 0, 0, 0, 1, 0, 0, 0]\nclass = MAUI", fillcolor="#3964e5"] ;
287 -> 288 ;
289 [label="gini = 0.0\nsamples = 1\nvalue = [0, 0, 0, 0, 0, 0, 0, 1, 0]\nclass = NIIHAU", fillcolor="#e539d7"] ;
287 -> 289 ;
290 [label="gini = 0.0\nsamples = 2\nvalue = [0, 0, 0, 0, 0, 0, 2, 0, 0]\nclass = MOLOKAI", fillcolor="#8139e5"] ;
284 -> 290 ;
291 [label="gini = 0.0\nsamples = 2\nvalue = [0, 2, 0, 0, 0, 0, 0, 0, 0]\nclass = KAHOOLAWE", fillcolor="#d7e539"] ;
283 -> 291 ;
292 [label="CAO(WT%) <= 9.822\ngini = 0.124\nsamples = 448\nvalue = [419, 2, 2, 0, 0, 13, 6, 1, 5]\nclass = HAWAII", fillcolor="#e78946"] ;
282 -> 292 ;
293 [label="CAO(WT%) <= 9.797\ngini = 0.444\nsamples = 3\nvalue = [0, 0, 0, 0, 0, 2, 1, 0, 0]\nclass = MAUI", fillcolor="#9cb2f2"] ;
292 -> 293 ;
294 [label="gini = 0.0\nsamples = 2\nvalue = [0, 0, 0, 0, 0, 2, 0, 0, 0]\nclass = MAUI", fillcolor="#3964e5"] ;
293 -> 294 ;
295 [label="gini = 0.0\nsamples = 1\nvalue = [0, 0, 0, 0, 0, 0, 1, 0, 0]\nclass = MOLOKAI", fillcolor="#8139e5"] ;
293 -> 295 ;
296 [label="AL2O3(WT%) <= 45.56\ngini = 0.113\nsamples = 445\nvalue = [419, 2, 2, 0, 0, 11, 5, 1, 5]\nclass = HAWAII", fillcolor="#e78945"] ;
292 -> 296 ;
297 [label="CAO(WT%) <= 11.577\ngini = 0.444\nsamples = 3\nvalue = [1, 0, 2, 0, 0, 0, 0, 0, 0]\nclass = KAUAI", fillcolor="#b2f29c"] ;
296 -> 297 ;
298 [label="gini = 0.0\nsamples = 1\nvalue = [1, 0, 0, 0, 0, 0, 0, 0, 0]\nclass = HAWAII", fillcolor="#e58139"] ;
297 -> 298 ;
299 [label="gini = 0.0\nsamples = 2\nvalue = [0, 0, 2, 0, 0, 0, 0, 0, 0]\nclass = KAUAI", fillcolor="#64e539"] ;
297 -> 299 ;
300 [label="CAO(WT%) <= 10.891\ngini = 0.105\nsamples = 442\nvalue = [418, 2, 0, 0, 0, 11, 5, 1, 5]\nclass = HAWAII", fillcolor="#e68844"] ;
296 -> 300 ;
301 [label="TIO2(WT%) <= 11.51\ngini = 0.272\nsamples = 98\nvalue = [83, 1, 0, 0, 0, 9, 1, 0, 4]\nclass = HAWAII", fillcolor="#e9965a"] ;
300 -> 301 ;
302 [label="K2O(WT%) <= 13.34\ngini = 0.5\nsamples = 2\nvalue = [0, 0, 0, 0, 0, 1, 1, 0, 0]\nclass = MAUI", fillcolor="#ffffff"] ;
301 -> 302 ;
303 [label="gini = 0.0\nsamples = 1\nvalue = [0, 0, 0, 0, 0, 1, 0, 0, 0]\nclass = MAUI", fillcolor="#3964e5"] ;
302 -> 303 ;
304 [label="gini = 0.0\nsamples = 1\nvalue = [0, 0, 0, 0, 0, 0, 1, 0, 0]\nclass = MOLOKAI", fillcolor="#8139e5"] ;
302 -> 304 ;
305 [label="AL2O3(WT%) <= 52.51\ngini = 0.244\nsamples = 96\nvalue = [83, 1, 0, 0, 0, 8, 0, 0, 4]\nclass = HAWAII", fillcolor="#e99456"] ;
301 -> 305 ;
306 [label="FeO* <= 2.57\ngini = 0.213\nsamples = 94\nvalue = [83, 0, 0, 0, 0, 7, 0, 0, 4]\nclass = HAWAII", fillcolor="#e89152"] ;
305 -> 306 ;
307 [label="ISLAND <= 2.405\ngini = 0.092\nsamples = 62\nvalue = [59, 0, 0, 0, 0, 0, 0, 0, 3]\nclass = HAWAII", fillcolor="#e68743"] ;
306 -> 307 ;
308 [label="ISLAND <= 2.335\ngini = 0.033\nsamples = 60\nvalue = [59, 0, 0, 0, 0, 0, 0, 0, 1]\nclass = HAWAII", fillcolor="#e5833c"] ;
307 -> 308 ;
309 [label="gini = 0.0\nsamples = 53\nvalue = [53, 0, 0, 0, 0, 0, 0, 0, 0]\nclass = HAWAII", fillcolor="#e58139"] ;
308 -> 309 ;
310 [label="AL2O3(WT%) <= 50.125\ngini = 0.245\nsamples = 7\nvalue = [6, 0, 0, 0, 0, 0, 0, 0, 1]\nclass = HAWAII", fillcolor="#e9965a"] ;
308 -> 310 ;
311 [label="gini = 0.0\nsamples = 1\nvalue = [0, 0, 0, 0, 0, 0, 0, 0, 1]\nclass = OAHU", fillcolor="#e53964"] ;
310 -> 311 ;
312 [label="gini = 0.0\nsamples = 6\nvalue = [6, 0, 0, 0, 0, 0, 0, 0, 0]\nclass = HAWAII", fillcolor="#e58139"] ;
310 -> 312 ;
313 [label="gini = 0.0\nsamples = 2\nvalue = [0, 0, 0, 0, 0, 0, 0, 0, 2]\nclass = OAHU", fillcolor="#e53964"] ;
307 -> 313 ;
314 [label="MGO(WT%) <= 10.87\ngini = 0.389\nsamples = 32\nvalue = [24, 0, 0, 0, 0, 7, 0, 0, 1]\nclass = HAWAII", fillcolor="#eda978"] ;
306 -> 314 ;
315 [label="AL2O3(WT%) <= 51.735\ngini = 0.494\nsamples = 9\nvalue = [2, 0, 0, 0, 0, 6, 0, 0, 1]\nclass = MAUI", fillcolor="#8ea6f0"] ;
314 -> 315 ;
316 [label="FeO* <= 3.435\ngini = 0.375\nsamples = 8\nvalue = [2, 0, 0, 0, 0, 6, 0, 0, 0]\nclass = MAUI", fillcolor="#7b98ee"] ;
315 -> 316 ;
317 [label="CAO(WT%) <= 10.363\ngini = 0.245\nsamples = 7\nvalue = [1, 0, 0, 0, 0, 6, 0, 0, 0]\nclass = MAUI", fillcolor="#5a7ee9"] ;
316 -> 317 ;
318 [label="gini = 0.0\nsamples = 1\nvalue = [1, 0, 0, 0, 0, 0, 0, 0, 0]\nclass = HAWAII", fillcolor="#e58139"] ;
317 -> 318 ;
319 [label="gini = 0.0\nsamples = 6\nvalue = [0, 0, 0, 0, 0, 6, 0, 0, 0]\nclass = MAUI", fillcolor="#3964e5"] ;
317 -> 319 ;
320 [label="gini = 0.0\nsamples = 1\nvalue = [1, 0, 0, 0, 0, 0, 0, 0, 0]\nclass = HAWAII", fillcolor="#e58139"] ;
316 -> 320 ;
321 [label="gini = 0.0\nsamples = 1\nvalue = [0, 0, 0, 0, 0, 0, 0, 0, 1]\nclass = OAHU", fillcolor="#e53964"] ;
315 -> 321 ;
322 [label="NA2O(WT%) <= 0.415\ngini = 0.083\nsamples = 23\nvalue = [22, 0, 0, 0, 0, 1, 0, 0, 0]\nclass = HAWAII", fillcolor="#e68742"] ;
314 -> 322 ;
323 [label="CAO(WT%) <= 10.56\ngini = 0.5\nsamples = 2\nvalue = [1, 0, 0, 0, 0, 1, 0, 0, 0]\nclass = HAWAII", fillcolor="#ffffff"] ;
322 -> 323 ;
324 [label="gini = 0.0\nsamples = 1\nvalue = [0, 0, 0, 0, 0, 1, 0, 0, 0]\nclass = MAUI", fillcolor="#3964e5"] ;
323 -> 324 ;
325 [label="gini = 0.0\nsamples = 1\nvalue = [1, 0, 0, 0, 0, 0, 0, 0, 0]\nclass = HAWAII", fillcolor="#e58139"] ;
323 -> 325 ;
326 [label="gini = 0.0\nsamples = 21\nvalue = [21, 0, 0, 0, 0, 0, 0, 0, 0]\nclass = HAWAII", fillcolor="#e58139"] ;
322 -> 326 ;
327 [label="ISLAND <= 2.375\ngini = 0.5\nsamples = 2\nvalue = [0, 1, 0, 0, 0, 1, 0, 0, 0]\nclass = KAHOOLAWE", fillcolor="#ffffff"] ;
305 -> 327 ;
328 [label="gini = 0.0\nsamples = 1\nvalue = [0, 1, 0, 0, 0, 0, 0, 0, 0]\nclass = KAHOOLAWE", fillcolor="#d7e539"] ;
327 -> 328 ;
329 [label="gini = 0.0\nsamples = 1\nvalue = [0, 0, 0, 0, 0, 1, 0, 0, 0]\nclass = MAUI", fillcolor="#3964e5"] ;
327 -> 329 ;
330 [label="K2O(WT%) <= 5.975\ngini = 0.051\nsamples = 344\nvalue = [335, 1, 0, 0, 0, 2, 4, 1, 1]\nclass = HAWAII", fillcolor="#e6843e"] ;
300 -> 330 ;
331 [label="gini = 0.0\nsamples = 1\nvalue = [0, 0, 0, 0, 0, 0, 1, 0, 0]\nclass = MOLOKAI", fillcolor="#8139e5"] ;
330 -> 331 ;
332 [label="AL2O3(WT%) <= 48.77\ngini = 0.046\nsamples = 343\nvalue = [335, 1, 0, 0, 0, 2, 3, 1, 1]\nclass = HAWAII", fillcolor="#e6843e"] ;
330 -> 332 ;
333 [label="FeO* <= 2.415\ngini = 0.379\nsamples = 13\nvalue = [10, 0, 0, 0, 0, 0, 2, 1, 0]\nclass = HAWAII", fillcolor="#eca36f"] ;
332 -> 333 ;
334 [label="gini = 0.0\nsamples = 9\nvalue = [9, 0, 0, 0, 0, 0, 0, 0, 0]\nclass = HAWAII", fillcolor="#e58139"] ;
333 -> 334 ;
335 [label="MGO(WT%) <= 11.05\ngini = 0.625\nsamples = 4\nvalue = [1, 0, 0, 0, 0, 0, 2, 1, 0]\nclass = MOLOKAI", fillcolor="#d5bdf6"] ;
333 -> 335 ;
336 [label="K2O(WT%) <= 7.855\ngini = 0.444\nsamples = 3\nvalue = [0, 0, 0, 0, 0, 0, 2, 1, 0]\nclass = MOLOKAI", fillcolor="#c09cf2"] ;
335 -> 336 ;
337 [label="gini = 0.0\nsamples = 1\nvalue = [0, 0, 0, 0, 0, 0, 0, 1, 0]\nclass = NIIHAU", fillcolor="#e539d7"] ;
336 -> 337 ;
338 [label="gini = 0.0\nsamples = 2\nvalue = [0, 0, 0, 0, 0, 0, 2, 0, 0]\nclass = MOLOKAI", fillcolor="#8139e5"] ;
336 -> 338 ;
339 [label="gini = 0.0\nsamples = 1\nvalue = [1, 0, 0, 0, 0, 0, 0, 0, 0]\nclass = HAWAII", fillcolor="#e58139"] ;
335 -> 339 ;
340 [label="NA2O(WT%) <= 0.355\ngini = 0.03\nsamples = 330\nvalue = [325, 1, 0, 0, 0, 2, 1, 0, 1]\nclass = HAWAII", fillcolor="#e5833c"] ;
332 -> 340 ;
341 [label="FeO* <= 2.67\ngini = 0.26\nsamples = 28\nvalue = [24, 1, 0, 0, 0, 1, 1, 0, 1]\nclass = HAWAII", fillcolor="#e99456"] ;
340 -> 341 ;
342 [label="MGO(WT%) <= 11.28\ngini = 0.206\nsamples = 27\nvalue = [24, 1, 0, 0, 0, 0, 1, 0, 1]\nclass = HAWAII", fillcolor="#e89050"] ;
341 -> 342 ;
343 [label="NA2O(WT%) <= 0.344\ngini = 0.145\nsamples = 26\nvalue = [24, 0, 0, 0, 0, 0, 1, 0, 1]\nclass = HAWAII", fillcolor="#e78b49"] ;
342 -> 343 ;
344 [label="K2O(WT%) <= 7.1\ngini = 0.08\nsamples = 24\nvalue = [23, 0, 0, 0, 0, 0, 0, 0, 1]\nclass = HAWAII", fillcolor="#e68642"] ;
343 -> 344 ;
345 [label="K2O(WT%) <= 6.91\ngini = 0.278\nsamples = 6\nvalue = [5, 0, 0, 0, 0, 0, 0, 0, 1]\nclass = HAWAII", fillcolor="#ea9a61"] ;
344 -> 345 ;
346 [label="gini = 0.0\nsamples = 4\nvalue = [4, 0, 0, 0, 0, 0, 0, 0, 0]\nclass = HAWAII", fillcolor="#e58139"] ;
345 -> 346 ;
347 [label="NA2O(WT%) <= 0.335\ngini = 0.5\nsamples = 2\nvalue = [1, 0, 0, 0, 0, 0, 0, 0, 1]\nclass = HAWAII", fillcolor="#ffffff"] ;
345 -> 347 ;
348 [label="gini = 0.0\nsamples = 1\nvalue = [0, 0, 0, 0, 0, 0, 0, 0, 1]\nclass = OAHU", fillcolor="#e53964"] ;
347 -> 348 ;
349 [label="gini = 0.0\nsamples = 1\nvalue = [1, 0, 0, 0, 0, 0, 0, 0, 0]\nclass = HAWAII", fillcolor="#e58139"] ;
347 -> 349 ;
350 [label="gini = 0.0\nsamples = 18\nvalue = [18, 0, 0, 0, 0, 0, 0, 0, 0]\nclass = HAWAII", fillcolor="#e58139"] ;
344 -> 350 ;
351 [label="FeO* <= 2.2\ngini = 0.5\nsamples = 2\nvalue = [1, 0, 0, 0, 0, 0, 1, 0, 0]\nclass = HAWAII", fillcolor="#ffffff"] ;
343 -> 351 ;
352 [label="gini = 0.0\nsamples = 1\nvalue = [1, 0, 0, 0, 0, 0, 0, 0, 0]\nclass = HAWAII", fillcolor="#e58139"] ;
351 -> 352 ;
353 [label="gini = 0.0\nsamples = 1\nvalue = [0, 0, 0, 0, 0, 0, 1, 0, 0]\nclass = MOLOKAI", fillcolor="#8139e5"] ;
351 -> 353 ;
354 [label="gini = 0.0\nsamples = 1\nvalue = [0, 1, 0, 0, 0, 0, 0, 0, 0]\nclass = KAHOOLAWE", fillcolor="#d7e539"] ;
342 -> 354 ;
355 [label="gini = 0.0\nsamples = 1\nvalue = [0, 0, 0, 0, 0, 1, 0, 0, 0]\nclass = MAUI", fillcolor="#3964e5"] ;
341 -> 355 ;
356 [label="ISLAND <= 1.965\ngini = 0.007\nsamples = 302\nvalue = [301, 0, 0, 0, 0, 1, 0, 0, 0]\nclass = HAWAII", fillcolor="#e5813a"] ;
340 -> 356 ;
357 [label="NA2O(WT%) <= 0.39\ngini = 0.278\nsamples = 6\nvalue = [5, 0, 0, 0, 0, 1, 0, 0, 0]\nclass = HAWAII", fillcolor="#ea9a61"] ;
356 -> 357 ;
358 [label="gini = 0.0\nsamples = 1\nvalue = [0, 0, 0, 0, 0, 1, 0, 0, 0]\nclass = MAUI", fillcolor="#3964e5"] ;
357 -> 358 ;
359 [label="gini = 0.0\nsamples = 5\nvalue = [5, 0, 0, 0, 0, 0, 0, 0, 0]\nclass = HAWAII", fillcolor="#e58139"] ;
357 -> 359 ;
360 [label="gini = 0.0\nsamples = 296\nvalue = [296, 0, 0, 0, 0, 0, 0, 0, 0]\nclass = HAWAII", fillcolor="#e58139"] ;
356 -> 360 ;
361 [label="MGO(WT%) <= 9.89\ngini = 0.375\nsamples = 4\nvalue = [0, 1, 0, 0, 0, 0, 0, 0, 3]\nclass = OAHU", fillcolor="#ee7b98"] ;
135 -> 361 ;
362 [label="gini = 0.0\nsamples = 3\nvalue = [0, 0, 0, 0, 0, 0, 0, 0, 3]\nclass = OAHU", fillcolor="#e53964"] ;
361 -> 362 ;
363 [label="gini = 0.0\nsamples = 1\nvalue = [0, 1, 0, 0, 0, 0, 0, 0, 0]\nclass = KAHOOLAWE", fillcolor="#d7e539"] ;
361 -> 363 ;
364 [label="AL2O3(WT%) <= 46.055\ngini = 0.535\nsamples = 175\nvalue = [115, 2, 4, 0, 0, 14, 26, 4, 10]\nclass = HAWAII", fillcolor="#efb489"] ;
134 -> 364 ;
365 [label="MGO(WT%) <= 9.5\ngini = 0.663\nsamples = 38\nvalue = [13, 1, 1, 0, 0, 5, 17, 0, 1]\nclass = MOLOKAI", fillcolor="#ebdffb"] ;
364 -> 365 ;
366 [label="NA2O(WT%) <= 0.305\ngini = 0.604\nsamples = 13\nvalue = [7, 1, 0, 0, 0, 4, 0, 0, 1]\nclass = HAWAII", fillcolor="#f6d5bd"] ;
365 -> 366 ;
367 [label="ISLAND <= 1.93\ngini = 0.32\nsamples = 5\nvalue = [0, 1, 0, 0, 0, 4, 0, 0, 0]\nclass = MAUI", fillcolor="#6a8bec"] ;
366 -> 367 ;
368 [label="gini = 0.0\nsamples = 4\nvalue = [0, 0, 0, 0, 0, 4, 0, 0, 0]\nclass = MAUI", fillcolor="#3964e5"] ;
367 -> 368 ;
369 [label="gini = 0.0\nsamples = 1\nvalue = [0, 1, 0, 0, 0, 0, 0, 0, 0]\nclass = KAHOOLAWE", fillcolor="#d7e539"] ;
367 -> 369 ;
370 [label="CAO(WT%) <= 17.186\ngini = 0.219\nsamples = 8\nvalue = [7, 0, 0, 0, 0, 0, 0, 0, 1]\nclass = HAWAII", fillcolor="#e99355"] ;
366 -> 370 ;
371 [label="gini = 0.0\nsamples = 7\nvalue = [7, 0, 0, 0, 0, 0, 0, 0, 0]\nclass = HAWAII", fillcolor="#e58139"] ;
370 -> 371 ;
372 [label="gini = 0.0\nsamples = 1\nvalue = [0, 0, 0, 0, 0, 0, 0, 0, 1]\nclass = OAHU", fillcolor="#e53964"] ;
370 -> 372 ;
373 [label="FeO* <= 2.9\ngini = 0.477\nsamples = 25\nvalue = [6, 0, 1, 0, 0, 1, 17, 0, 0]\nclass = MOLOKAI", fillcolor="#b68cf0"] ;
365 -> 373 ;
374 [label="MGO(WT%) <= 10.185\ngini = 0.38\nsamples = 22\nvalue = [3, 0, 1, 0, 0, 1, 17, 0, 0]\nclass = MOLOKAI", fillcolor="#a26dec"] ;
373 -> 374 ;
375 [label="gini = 0.0\nsamples = 15\nvalue = [0, 0, 0, 0, 0, 0, 15, 0, 0]\nclass = MOLOKAI", fillcolor="#8139e5"] ;
374 -> 375 ;
376 [label="CAO(WT%) <= 12.407\ngini = 0.694\nsamples = 7\nvalue = [3, 0, 1, 0, 0, 1, 2, 0, 0]\nclass = HAWAII", fillcolor="#fae6d7"] ;
374 -> 376 ;
377 [label="K2O(WT%) <= 11.82\ngini = 0.56\nsamples = 5\nvalue = [3, 0, 1, 0, 0, 1, 0, 0, 0]\nclass = HAWAII", fillcolor="#f2c09c"] ;
376 -> 377 ;
378 [label="gini = 0.0\nsamples = 3\nvalue = [3, 0, 0, 0, 0, 0, 0, 0, 0]\nclass = HAWAII", fillcolor="#e58139"] ;
377 -> 378 ;
379 [label="CAO(WT%) <= 12.017\ngini = 0.5\nsamples = 2\nvalue = [0, 0, 1, 0, 0, 1, 0, 0, 0]\nclass = KAUAI", fillcolor="#ffffff"] ;
377 -> 379 ;
380 [label="gini = 0.0\nsamples = 1\nvalue = [0, 0, 1, 0, 0, 0, 0, 0, 0]\nclass = KAUAI", fillcolor="#64e539"] ;
379 -> 380 ;
381 [label="gini = 0.0\nsamples = 1\nvalue = [0, 0, 0, 0, 0, 1, 0, 0, 0]\nclass = MAUI", fillcolor="#3964e5"] ;
379 -> 381 ;
382 [label="gini = 0.0\nsamples = 2\nvalue = [0, 0, 0, 0, 0, 0, 2, 0, 0]\nclass = MOLOKAI", fillcolor="#8139e5"] ;
376 -> 382 ;
383 [label="gini = 0.0\nsamples = 3\nvalue = [3, 0, 0, 0, 0, 0, 0, 0, 0]\nclass = HAWAII", fillcolor="#e58139"] ;
373 -> 383 ;
384 [label="CAO(WT%) <= 20.138\ngini = 0.431\nsamples = 137\nvalue = [102, 1, 3, 0, 0, 9, 9, 4, 9]\nclass = HAWAII", fillcolor="#eca36f"] ;
364 -> 384 ;
385 [label="CAO(WT%) <= 11.975\ngini = 0.4\nsamples = 133\nvalue = [102, 1, 3, 0, 0, 5, 9, 4, 9]\nclass = HAWAII", fillcolor="#eca06a"] ;
384 -> 385 ;
386 [label="AL2O3(WT%) <= 47.805\ngini = 0.608\nsamples = 47\nvalue = [28, 1, 1, 0, 0, 4, 6, 2, 5]\nclass = HAWAII", fillcolor="#f1bb95"] ;
385 -> 386 ;
387 [label="K2O(WT%) <= 9.67\ngini = 0.277\nsamples = 19\nvalue = [16, 0, 0, 0, 0, 2, 0, 0, 1]\nclass = HAWAII", fillcolor="#ea975c"] ;
386 -> 387 ;
388 [label="gini = 0.0\nsamples = 1\nvalue = [0, 0, 0, 0, 0, 0, 0, 0, 1]\nclass = OAHU", fillcolor="#e53964"] ;
387 -> 388 ;
389 [label="NA2O(WT%) <= 0.22\ngini = 0.198\nsamples = 18\nvalue = [16, 0, 0, 0, 0, 2, 0, 0, 0]\nclass = HAWAII", fillcolor="#e89152"] ;
387 -> 389 ;
390 [label="gini = 0.0\nsamples = 1\nvalue = [0, 0, 0, 0, 0, 1, 0, 0, 0]\nclass = MAUI", fillcolor="#3964e5"] ;
389 -> 390 ;
391 [label="FeO* <= 2.615\ngini = 0.111\nsamples = 17\nvalue = [16, 0, 0, 0, 0, 1, 0, 0, 0]\nclass = HAWAII", fillcolor="#e78945"] ;
389 -> 391 ;
392 [label="gini = 0.0\nsamples = 15\nvalue = [15, 0, 0, 0, 0, 0, 0, 0, 0]\nclass = HAWAII", fillcolor="#e58139"] ;
391 -> 392 ;
393 [label="K2O(WT%) <= 11.415\ngini = 0.5\nsamples = 2\nvalue = [1, 0, 0, 0, 0, 1, 0, 0, 0]\nclass = HAWAII", fillcolor="#ffffff"] ;
391 -> 393 ;
394 [label="gini = 0.0\nsamples = 1\nvalue = [1, 0, 0, 0, 0, 0, 0, 0, 0]\nclass = HAWAII", fillcolor="#e58139"] ;
393 -> 394 ;
395 [label="gini = 0.0\nsamples = 1\nvalue = [0, 0, 0, 0, 0, 1, 0, 0, 0]\nclass = MAUI", fillcolor="#3964e5"] ;
393 -> 395 ;
396 [label="ISLAND <= 2.35\ngini = 0.737\nsamples = 28\nvalue = [12, 1, 1, 0, 0, 2, 6, 2, 4]\nclass = HAWAII", fillcolor="#f8ddc9"] ;
386 -> 396 ;
397 [label="K2O(WT%) <= 6.995\ngini = 0.787\nsamples = 19\nvalue = [4, 0, 1, 0, 0, 2, 6, 2, 4]\nclass = MOLOKAI", fillcolor="#eee5fc"] ;
396 -> 397 ;
398 [label="gini = 0.0\nsamples = 4\nvalue = [0, 0, 0, 0, 0, 0, 4, 0, 0]\nclass = MOLOKAI", fillcolor="#8139e5"] ;
397 -> 398 ;
399 [label="MGO(WT%) <= 9.06\ngini = 0.8\nsamples = 15\nvalue = [4, 0, 1, 0, 0, 2, 2, 2, 4]\nclass = HAWAII", fillcolor="#ffffff"] ;
397 -> 399 ;
400 [label="MGO(WT%) <= 8.6\ngini = 0.64\nsamples = 5\nvalue = [0, 0, 1, 0, 0, 2, 0, 2, 0]\nclass = MAUI", fillcolor="#ffffff"] ;
399 -> 400 ;
401 [label="FeO* <= 2.06\ngini = 0.444\nsamples = 3\nvalue = [0, 0, 1, 0, 0, 0, 0, 2, 0]\nclass = NIIHAU", fillcolor="#f29ceb"] ;
400 -> 401 ;
402 [label="gini = 0.0\nsamples = 1\nvalue = [0, 0, 1, 0, 0, 0, 0, 0, 0]\nclass = KAUAI", fillcolor="#64e539"] ;
401 -> 402 ;
403 [label="gini = 0.0\nsamples = 2\nvalue = [0, 0, 0, 0, 0, 0, 0, 2, 0]\nclass = NIIHAU", fillcolor="#e539d7"] ;
401 -> 403 ;
404 [label="gini = 0.0\nsamples = 2\nvalue = [0, 0, 0, 0, 0, 2, 0, 0, 0]\nclass = MAUI", fillcolor="#3964e5"] ;
400 -> 404 ;
405 [label="NA2O(WT%) <= 0.405\ngini = 0.64\nsamples = 10\nvalue = [4, 0, 0, 0, 0, 0, 2, 0, 4]\nclass = HAWAII", fillcolor="#ffffff"] ;
399 -> 405 ;
406 [label="FeO* <= 2.32\ngini = 0.571\nsamples = 7\nvalue = [1, 0, 0, 0, 0, 0, 2, 0, 4]\nclass = OAHU", fillcolor="#f5b0c1"] ;
405 -> 406 ;
407 [label="gini = 0.0\nsamples = 3\nvalue = [0, 0, 0, 0, 0, 0, 0, 0, 3]\nclass = OAHU", fillcolor="#e53964"] ;
406 -> 407 ;
408 [label="ISLAND <= 2.15\ngini = 0.625\nsamples = 4\nvalue = [1, 0, 0, 0, 0, 0, 2, 0, 1]\nclass = MOLOKAI", fillcolor="#d5bdf6"] ;
406 -> 408 ;
409 [label="gini = 0.0\nsamples = 2\nvalue = [0, 0, 0, 0, 0, 0, 2, 0, 0]\nclass = MOLOKAI", fillcolor="#8139e5"] ;
408 -> 409 ;
410 [label="CAO(WT%) <= 11.875\ngini = 0.5\nsamples = 2\nvalue = [1, 0, 0, 0, 0, 0, 0, 0, 1]\nclass = HAWAII", fillcolor="#ffffff"] ;
408 -> 410 ;
411 [label="gini = 0.0\nsamples = 1\nvalue = [1, 0, 0, 0, 0, 0, 0, 0, 0]\nclass = HAWAII", fillcolor="#e58139"] ;
410 -> 411 ;
412 [label="gini = 0.0\nsamples = 1\nvalue = [0, 0, 0, 0, 0, 0, 0, 0, 1]\nclass = OAHU", fillcolor="#e53964"] ;
410 -> 412 ;
413 [label="gini = 0.0\nsamples = 3\nvalue = [3, 0, 0, 0, 0, 0, 0, 0, 0]\nclass = HAWAII", fillcolor="#e58139"] ;
405 -> 413 ;
414 [label="ISLAND <= 2.47\ngini = 0.198\nsamples = 9\nvalue = [8, 1, 0, 0, 0, 0, 0, 0, 0]\nclass = HAWAII", fillcolor="#e89152"] ;
396 -> 414 ;
415 [label="gini = 0.0\nsamples = 7\nvalue = [7, 0, 0, 0, 0, 0, 0, 0, 0]\nclass = HAWAII", fillcolor="#e58139"] ;
414 -> 415 ;
416 [label="FeO* <= 2.915\ngini = 0.5\nsamples = 2\nvalue = [1, 1, 0, 0, 0, 0, 0, 0, 0]\nclass = HAWAII", fillcolor="#ffffff"] ;
414 -> 416 ;
417 [label="gini = 0.0\nsamples = 1\nvalue = [0, 1, 0, 0, 0, 0, 0, 0, 0]\nclass = KAHOOLAWE", fillcolor="#d7e539"] ;
416 -> 417 ;
418 [label="gini = 0.0\nsamples = 1\nvalue = [1, 0, 0, 0, 0, 0, 0, 0, 0]\nclass = HAWAII", fillcolor="#e58139"] ;
416 -> 418 ;
419 [label="NA2O(WT%) <= 0.205\ngini = 0.255\nsamples = 86\nvalue = [74, 0, 2, 0, 0, 1, 3, 2, 4]\nclass = HAWAII", fillcolor="#e99356"] ;
385 -> 419 ;
420 [label="FeO* <= 2.205\ngini = 0.719\nsamples = 8\nvalue = [3, 0, 0, 0, 0, 1, 2, 0, 2]\nclass = HAWAII", fillcolor="#fbeade"] ;
419 -> 420 ;
421 [label="NA2O(WT%) <= 0.19\ngini = 0.375\nsamples = 4\nvalue = [3, 0, 0, 0, 0, 1, 0, 0, 0]\nclass = HAWAII", fillcolor="#eeab7b"] ;
420 -> 421 ;
422 [label="gini = 0.0\nsamples = 3\nvalue = [3, 0, 0, 0, 0, 0, 0, 0, 0]\nclass = HAWAII", fillcolor="#e58139"] ;
421 -> 422 ;
423 [label="gini = 0.0\nsamples = 1\nvalue = [0, 0, 0, 0, 0, 1, 0, 0, 0]\nclass = MAUI", fillcolor="#3964e5"] ;
421 -> 423 ;
424 [label="MGO(WT%) <= 10.39\ngini = 0.5\nsamples = 4\nvalue = [0, 0, 0, 0, 0, 0, 2, 0, 2]\nclass = MOLOKAI", fillcolor="#ffffff"] ;
420 -> 424 ;
425 [label="gini = 0.0\nsamples = 2\nvalue = [0, 0, 0, 0, 0, 0, 0, 0, 2]\nclass = OAHU", fillcolor="#e53964"] ;
424 -> 425 ;
426 [label="gini = 0.0\nsamples = 2\nvalue = [0, 0, 0, 0, 0, 0, 2, 0, 0]\nclass = MOLOKAI", fillcolor="#8139e5"] ;
424 -> 426 ;
427 [label="TIO2(WT%) <= 14.08\ngini = 0.169\nsamples = 78\nvalue = [71, 0, 2, 0, 0, 0, 1, 2, 2]\nclass = HAWAII", fillcolor="#e78d4b"] ;
419 -> 427 ;
428 [label="NA2O(WT%) <= 0.9\ngini = 0.148\nsamples = 77\nvalue = [71, 0, 2, 0, 0, 0, 1, 2, 1]\nclass = HAWAII", fillcolor="#e78b49"] ;
427 -> 428 ;
429 [label="NA2O(WT%) <= 0.57\ngini = 0.126\nsamples = 76\nvalue = [71, 0, 1, 0, 0, 0, 1, 2, 1]\nclass = HAWAII", fillcolor="#e78a46"] ;
428 -> 429 ;
430 [label="AL2O3(WT%) <= 46.86\ngini = 0.059\nsamples = 66\nvalue = [64, 0, 1, 0, 0, 0, 1, 0, 0]\nclass = HAWAII", fillcolor="#e6853f"] ;
429 -> 430 ;
431 [label="MGO(WT%) <= 8.585\ngini = 0.37\nsamples = 9\nvalue = [7, 0, 1, 0, 0, 0, 1, 0, 0]\nclass = HAWAII", fillcolor="#eca06a"] ;
430 -> 431 ;
432 [label="gini = 0.0\nsamples = 7\nvalue = [7, 0, 0, 0, 0, 0, 0, 0, 0]\nclass = HAWAII", fillcolor="#e58139"] ;
431 -> 432 ;
433 [label="AL2O3(WT%) <= 46.56\ngini = 0.5\nsamples = 2\nvalue = [0, 0, 1, 0, 0, 0, 1, 0, 0]\nclass = KAUAI", fillcolor="#ffffff"] ;
431 -> 433 ;
434 [label="gini = 0.0\nsamples = 1\nvalue = [0, 0, 0, 0, 0, 0, 1, 0, 0]\nclass = MOLOKAI", fillcolor="#8139e5"] ;
433 -> 434 ;
435 [label="gini = 0.0\nsamples = 1\nvalue = [0, 0, 1, 0, 0, 0, 0, 0, 0]\nclass = KAUAI", fillcolor="#64e539"] ;
433 -> 435 ;
436 [label="gini = 0.0\nsamples = 57\nvalue = [57, 0, 0, 0, 0, 0, 0, 0, 0]\nclass = HAWAII", fillcolor="#e58139"] ;
430 -> 436 ;
437 [label="MGO(WT%) <= 8.35\ngini = 0.46\nsamples = 10\nvalue = [7, 0, 0, 0, 0, 0, 0, 2, 1]\nclass = HAWAII", fillcolor="#efb083"] ;
429 -> 437 ;
438 [label="MGO(WT%) <= 7.645\ngini = 0.625\nsamples = 4\nvalue = [1, 0, 0, 0, 0, 0, 0, 2, 1]\nclass = NIIHAU", fillcolor="#f6bdf2"] ;
437 -> 438 ;
439 [label="AL2O3(WT%) <= 48.71\ngini = 0.5\nsamples = 2\nvalue = [1, 0, 0, 0, 0, 0, 0, 0, 1]\nclass = HAWAII", fillcolor="#ffffff"] ;
438 -> 439 ;
440 [label="gini = 0.0\nsamples = 1\nvalue = [0, 0, 0, 0, 0, 0, 0, 0, 1]\nclass = OAHU", fillcolor="#e53964"] ;
439 -> 440 ;
441 [label="gini = 0.0\nsamples = 1\nvalue = [1, 0, 0, 0, 0, 0, 0, 0, 0]\nclass = HAWAII", fillcolor="#e58139"] ;
439 -> 441 ;
442 [label="gini = 0.0\nsamples = 2\nvalue = [0, 0, 0, 0, 0, 0, 0, 2, 0]\nclass = NIIHAU", fillcolor="#e539d7"] ;
438 -> 442 ;
443 [label="gini = 0.0\nsamples = 6\nvalue = [6, 0, 0, 0, 0, 0, 0, 0, 0]\nclass = HAWAII", fillcolor="#e58139"] ;
437 -> 443 ;
444 [label="gini = 0.0\nsamples = 1\nvalue = [0, 0, 1, 0, 0, 0, 0, 0, 0]\nclass = KAUAI", fillcolor="#64e539"] ;
428 -> 444 ;
445 [label="gini = 0.0\nsamples = 1\nvalue = [0, 0, 0, 0, 0, 0, 0, 0, 1]\nclass = OAHU", fillcolor="#e53964"] ;
427 -> 445 ;
446 [label="gini = 0.0\nsamples = 4\nvalue = [0, 0, 0, 0, 0, 4, 0, 0, 0]\nclass = MAUI", fillcolor="#3964e5"] ;
384 -> 446 ;
447 [label="CAO(WT%) <= 10.79\ngini = 0.622\nsamples = 296\nvalue = [154, 7, 6, 0, 0, 5, 28, 4, 92]\nclass = HAWAII", fillcolor="#f7d9c3"] ;
123 -> 447 ;
448 [label="FeO* <= 2.31\ngini = 0.433\nsamples = 30\nvalue = [4, 0, 0, 0, 0, 3, 1, 0, 22]\nclass = OAHU", fillcolor="#ed7694"] ;
447 -> 448 ;
449 [label="ISLAND <= 2.79\ngini = 0.117\nsamples = 16\nvalue = [0, 0, 0, 0, 0, 0, 1, 0, 15]\nclass = OAHU", fillcolor="#e7466e"] ;
448 -> 449 ;
450 [label="gini = 0.0\nsamples = 13\nvalue = [0, 0, 0, 0, 0, 0, 0, 0, 13]\nclass = OAHU", fillcolor="#e53964"] ;
449 -> 450 ;
451 [label="CAO(WT%) <= 10.22\ngini = 0.444\nsamples = 3\nvalue = [0, 0, 0, 0, 0, 0, 1, 0, 2]\nclass = OAHU", fillcolor="#f29cb2"] ;
449 -> 451 ;
452 [label="gini = 0.0\nsamples = 2\nvalue = [0, 0, 0, 0, 0, 0, 0, 0, 2]\nclass = OAHU", fillcolor="#e53964"] ;
451 -> 452 ;
453 [label="gini = 0.0\nsamples = 1\nvalue = [0, 0, 0, 0, 0, 0, 1, 0, 0]\nclass = MOLOKAI", fillcolor="#8139e5"] ;
451 -> 453 ;
454 [label="K2O(WT%) <= 5.975\ngini = 0.622\nsamples = 14\nvalue = [4, 0, 0, 0, 0, 3, 0, 0, 7]\nclass = OAHU", fillcolor="#f7c4d0"] ;
448 -> 454 ;
455 [label="NA2O(WT%) <= 1.095\ngini = 0.245\nsamples = 7\nvalue = [1, 0, 0, 0, 0, 0, 0, 0, 6]\nclass = OAHU", fillcolor="#e95a7e"] ;
454 -> 455 ;
456 [label="gini = 0.0\nsamples = 6\nvalue = [0, 0, 0, 0, 0, 0, 0, 0, 6]\nclass = OAHU", fillcolor="#e53964"] ;
455 -> 456 ;
457 [label="gini = 0.0\nsamples = 1\nvalue = [1, 0, 0, 0, 0, 0, 0, 0, 0]\nclass = HAWAII", fillcolor="#e58139"] ;
455 -> 457 ;
458 [label="FeO* <= 3.0\ngini = 0.612\nsamples = 7\nvalue = [3, 0, 0, 0, 0, 3, 0, 0, 1]\nclass = HAWAII", fillcolor="#ffffff"] ;
454 -> 458 ;
459 [label="ISLAND <= 2.73\ngini = 0.56\nsamples = 5\nvalue = [3, 0, 0, 0, 0, 1, 0, 0, 1]\nclass = HAWAII", fillcolor="#f2c09c"] ;
458 -> 459 ;
460 [label="gini = 0.0\nsamples = 3\nvalue = [3, 0, 0, 0, 0, 0, 0, 0, 0]\nclass = HAWAII", fillcolor="#e58139"] ;
459 -> 460 ;
461 [label="NA2O(WT%) <= 0.72\ngini = 0.5\nsamples = 2\nvalue = [0, 0, 0, 0, 0, 1, 0, 0, 1]\nclass = MAUI", fillcolor="#ffffff"] ;
459 -> 461 ;
462 [label="gini = 0.0\nsamples = 1\nvalue = [0, 0, 0, 0, 0, 0, 0, 0, 1]\nclass = OAHU", fillcolor="#e53964"] ;
461 -> 462 ;
463 [label="gini = 0.0\nsamples = 1\nvalue = [0, 0, 0, 0, 0, 1, 0, 0, 0]\nclass = MAUI", fillcolor="#3964e5"] ;
461 -> 463 ;
464 [label="gini = 0.0\nsamples = 2\nvalue = [0, 0, 0, 0, 0, 2, 0, 0, 0]\nclass = MAUI", fillcolor="#3964e5"] ;
458 -> 464 ;
465 [label="K2O(WT%) <= 6.14\ngini = 0.601\nsamples = 266\nvalue = [150, 7, 6, 0, 0, 2, 27, 4, 70]\nclass = HAWAII", fillcolor="#f4ccae"] ;
447 -> 465 ;
466 [label="AL2O3(WT%) <= 50.565\ngini = 0.646\nsamples = 155\nvalue = [69, 2, 1, 0, 0, 2, 19, 4, 58]\nclass = HAWAII", fillcolor="#fcf1e9"] ;
465 -> 466 ;
467 [label="AL2O3(WT%) <= 48.72\ngini = 0.667\nsamples = 66\nvalue = [11, 1, 1, 0, 0, 2, 15, 3, 33]\nclass = OAHU", fillcolor="#f6b9c8"] ;
466 -> 467 ;
468 [label="AL2O3(WT%) <= 47.08\ngini = 0.657\nsamples = 17\nvalue = [3, 0, 1, 0, 0, 2, 9, 0, 2]\nclass = MOLOKAI", fillcolor="#c9aaf4"] ;
467 -> 468 ;
469 [label="K2O(WT%) <= 5.495\ngini = 0.72\nsamples = 5\nvalue = [2, 0, 1, 0, 0, 1, 0, 0, 1]\nclass = HAWAII", fillcolor="#f8e0ce"] ;
468 -> 469 ;
470 [label="NA2O(WT%) <= 1.245\ngini = 0.667\nsamples = 3\nvalue = [0, 0, 1, 0, 0, 1, 0, 0, 1]\nclass = KAUAI", fillcolor="#ffffff"] ;
469 -> 470 ;
471 [label="gini = 0.0\nsamples = 1\nvalue = [0, 0, 0, 0, 0, 1, 0, 0, 0]\nclass = MAUI", fillcolor="#3964e5"] ;
470 -> 471 ;
472 [label="K2O(WT%) <= 5.13\ngini = 0.5\nsamples = 2\nvalue = [0, 0, 1, 0, 0, 0, 0, 0, 1]\nclass = KAUAI", fillcolor="#ffffff"] ;
470 -> 472 ;
473 [label="gini = 0.0\nsamples = 1\nvalue = [0, 0, 0, 0, 0, 0, 0, 0, 1]\nclass = OAHU", fillcolor="#e53964"] ;
472 -> 473 ;
474 [label="gini = 0.0\nsamples = 1\nvalue = [0, 0, 1, 0, 0, 0, 0, 0, 0]\nclass = KAUAI", fillcolor="#64e539"] ;
472 -> 474 ;
475 [label="gini = 0.0\nsamples = 2\nvalue = [2, 0, 0, 0, 0, 0, 0, 0, 0]\nclass = HAWAII", fillcolor="#e58139"] ;
469 -> 475 ;
476 [label="NA2O(WT%) <= 1.23\ngini = 0.417\nsamples = 12\nvalue = [1, 0, 0, 0, 0, 1, 9, 0, 1]\nclass = MOLOKAI", fillcolor="#a36fec"] ;
468 -> 476 ;
477 [label="TIO2(WT%) <= 13.425\ngini = 0.314\nsamples = 11\nvalue = [0, 0, 0, 0, 0, 1, 9, 0, 1]\nclass = MOLOKAI", fillcolor="#9a61ea"] ;
476 -> 477 ;
478 [label="gini = 0.0\nsamples = 1\nvalue = [0, 0, 0, 0, 0, 1, 0, 0, 0]\nclass = MAUI", fillcolor="#3964e5"] ;
477 -> 478 ;
479 [label="TIO2(WT%) <= 14.11\ngini = 0.18\nsamples = 10\nvalue = [0, 0, 0, 0, 0, 0, 9, 0, 1]\nclass = MOLOKAI", fillcolor="#8f4fe8"] ;
477 -> 479 ;
480 [label="gini = 0.0\nsamples = 8\nvalue = [0, 0, 0, 0, 0, 0, 8, 0, 0]\nclass = MOLOKAI", fillcolor="#8139e5"] ;
479 -> 480 ;
481 [label="FeO* <= 3.8\ngini = 0.5\nsamples = 2\nvalue = [0, 0, 0, 0, 0, 0, 1, 0, 1]\nclass = MOLOKAI", fillcolor="#ffffff"] ;
479 -> 481 ;
482 [label="gini = 0.0\nsamples = 1\nvalue = [0, 0, 0, 0, 0, 0, 1, 0, 0]\nclass = MOLOKAI", fillcolor="#8139e5"] ;
481 -> 482 ;
483 [label="gini = 0.0\nsamples = 1\nvalue = [0, 0, 0, 0, 0, 0, 0, 0, 1]\nclass = OAHU", fillcolor="#e53964"] ;
481 -> 483 ;
484 [label="gini = 0.0\nsamples = 1\nvalue = [1, 0, 0, 0, 0, 0, 0, 0, 0]\nclass = HAWAII", fillcolor="#e58139"] ;
476 -> 484 ;
485 [label="TIO2(WT%) <= 13.965\ngini = 0.554\nsamples = 49\nvalue = [8, 1, 0, 0, 0, 0, 6, 3, 31]\nclass = OAHU", fillcolor="#f090a8"] ;
467 -> 485 ;
486 [label="FeO* <= 3.605\ngini = 0.434\nsamples = 40\nvalue = [7, 0, 0, 0, 0, 0, 4, 0, 29]\nclass = OAHU", fillcolor="#ee7b98"] ;
485 -> 486 ;
487 [label="NA2O(WT%) <= 0.44\ngini = 0.15\nsamples = 25\nvalue = [1, 0, 0, 0, 0, 0, 1, 0, 23]\nclass = OAHU", fillcolor="#e74971"] ;
486 -> 487 ;
488 [label="gini = 0.0\nsamples = 1\nvalue = [0, 0, 0, 0, 0, 0, 1, 0, 0]\nclass = MOLOKAI", fillcolor="#8139e5"] ;
487 -> 488 ;
489 [label="MGO(WT%) <= 10.19\ngini = 0.08\nsamples = 24\nvalue = [1, 0, 0, 0, 0, 0, 0, 0, 23]\nclass = OAHU", fillcolor="#e6426b"] ;
487 -> 489 ;
490 [label="gini = 0.0\nsamples = 21\nvalue = [0, 0, 0, 0, 0, 0, 0, 0, 21]\nclass = OAHU", fillcolor="#e53964"] ;
489 -> 490 ;
491 [label="MGO(WT%) <= 10.265\ngini = 0.444\nsamples = 3\nvalue = [1, 0, 0, 0, 0, 0, 0, 0, 2]\nclass = OAHU", fillcolor="#f29cb2"] ;
489 -> 491 ;
492 [label="gini = 0.0\nsamples = 1\nvalue = [1, 0, 0, 0, 0, 0, 0, 0, 0]\nclass = HAWAII", fillcolor="#e58139"] ;
491 -> 492 ;
493 [label="gini = 0.0\nsamples = 2\nvalue = [0, 0, 0, 0, 0, 0, 0, 0, 2]\nclass = OAHU", fillcolor="#e53964"] ;
491 -> 493 ;
494 [label="AL2O3(WT%) <= 50.035\ngini = 0.64\nsamples = 15\nvalue = [6, 0, 0, 0, 0, 0, 3, 0, 6]\nclass = HAWAII", fillcolor="#ffffff"] ;
486 -> 494 ;
495 [label="AL2O3(WT%) <= 49.755\ngini = 0.469\nsamples = 8\nvalue = [0, 0, 0, 0, 0, 0, 3, 0, 5]\nclass = OAHU", fillcolor="#f5b0c1"] ;
494 -> 495 ;
496 [label="MGO(WT%) <= 9.445\ngini = 0.375\nsamples = 4\nvalue = [0, 0, 0, 0, 0, 0, 3, 0, 1]\nclass = MOLOKAI", fillcolor="#ab7bee"] ;
495 -> 496 ;
497 [label="gini = 0.0\nsamples = 1\nvalue = [0, 0, 0, 0, 0, 0, 0, 0, 1]\nclass = OAHU", fillcolor="#e53964"] ;
496 -> 497 ;
498 [label="gini = 0.0\nsamples = 3\nvalue = [0, 0, 0, 0, 0, 0, 3, 0, 0]\nclass = MOLOKAI", fillcolor="#8139e5"] ;
496 -> 498 ;
499 [label="gini = 0.0\nsamples = 4\nvalue = [0, 0, 0, 0, 0, 0, 0, 0, 4]\nclass = OAHU", fillcolor="#e53964"] ;
495 -> 499 ;
500 [label="AL2O3(WT%) <= 50.46\ngini = 0.245\nsamples = 7\nvalue = [6, 0, 0, 0, 0, 0, 0, 0, 1]\nclass = HAWAII", fillcolor="#e9965a"] ;
494 -> 500 ;
501 [label="gini = 0.0\nsamples = 6\nvalue = [6, 0, 0, 0, 0, 0, 0, 0, 0]\nclass = HAWAII", fillcolor="#e58139"] ;
500 -> 501 ;
502 [label="gini = 0.0\nsamples = 1\nvalue = [0, 0, 0, 0, 0, 0, 0, 0, 1]\nclass = OAHU", fillcolor="#e53964"] ;
500 -> 502 ;
503 [label="NA2O(WT%) <= 0.55\ngini = 0.765\nsamples = 9\nvalue = [1, 1, 0, 0, 0, 0, 2, 3, 2]\nclass = NIIHAU", fillcolor="#fbe3f9"] ;
485 -> 503 ;
504 [label="CAO(WT%) <= 12.185\ngini = 0.375\nsamples = 4\nvalue = [0, 1, 0, 0, 0, 0, 0, 3, 0]\nclass = NIIHAU", fillcolor="#ee7be4"] ;
503 -> 504 ;
505 [label="gini = 0.0\nsamples = 3\nvalue = [0, 0, 0, 0, 0, 0, 0, 3, 0]\nclass = NIIHAU", fillcolor="#e539d7"] ;
504 -> 505 ;
506 [label="gini = 0.0\nsamples = 1\nvalue = [0, 1, 0, 0, 0, 0, 0, 0, 0]\nclass = KAHOOLAWE", fillcolor="#d7e539"] ;
504 -> 506 ;
507 [label="CAO(WT%) <= 11.839\ngini = 0.64\nsamples = 5\nvalue = [1, 0, 0, 0, 0, 0, 2, 0, 2]\nclass = MOLOKAI", fillcolor="#ffffff"] ;
503 -> 507 ;
508 [label="gini = 0.0\nsamples = 2\nvalue = [0, 0, 0, 0, 0, 0, 0, 0, 2]\nclass = OAHU", fillcolor="#e53964"] ;
507 -> 508 ;
509 [label="AL2O3(WT%) <= 49.575\ngini = 0.444\nsamples = 3\nvalue = [1, 0, 0, 0, 0, 0, 2, 0, 0]\nclass = MOLOKAI", fillcolor="#c09cf2"] ;
507 -> 509 ;
510 [label="gini = 0.0\nsamples = 1\nvalue = [1, 0, 0, 0, 0, 0, 0, 0, 0]\nclass = HAWAII", fillcolor="#e58139"] ;
509 -> 510 ;
511 [label="gini = 0.0\nsamples = 2\nvalue = [0, 0, 0, 0, 0, 0, 2, 0, 0]\nclass = MOLOKAI", fillcolor="#8139e5"] ;
509 -> 511 ;
512 [label="FeO* <= 3.32\ngini = 0.494\nsamples = 89\nvalue = [58, 1, 0, 0, 0, 0, 4, 1, 25]\nclass = HAWAII", fillcolor="#f2be99"] ;
466 -> 512 ;
513 [label="K2O(WT%) <= 5.395\ngini = 0.592\nsamples = 47\nvalue = [23, 1, 0, 0, 0, 0, 3, 1, 19]\nclass = HAWAII", fillcolor="#fbede3"] ;
512 -> 513 ;
514 [label="TIO2(WT%) <= 13.07\ngini = 0.555\nsamples = 20\nvalue = [5, 0, 0, 0, 0, 0, 3, 0, 12]\nclass = OAHU", fillcolor="#f3a3b7"] ;
513 -> 514 ;
515 [label="gini = 0.0\nsamples = 4\nvalue = [4, 0, 0, 0, 0, 0, 0, 0, 0]\nclass = HAWAII", fillcolor="#e58139"] ;
514 -> 515 ;
516 [label="TIO2(WT%) <= 13.695\ngini = 0.398\nsamples = 16\nvalue = [1, 0, 0, 0, 0, 0, 3, 0, 12]\nclass = OAHU", fillcolor="#ed7694"] ;
514 -> 516 ;
517 [label="MGO(WT%) <= 7.59\ngini = 0.153\nsamples = 12\nvalue = [0, 0, 0, 0, 0, 0, 1, 0, 11]\nclass = OAHU", fillcolor="#e74b72"] ;
516 -> 517 ;
518 [label="AL2O3(WT%) <= 53.015\ngini = 0.5\nsamples = 2\nvalue = [0, 0, 0, 0, 0, 0, 1, 0, 1]\nclass = MOLOKAI", fillcolor="#ffffff"] ;
517 -> 518 ;
519 [label="gini = 0.0\nsamples = 1\nvalue = [0, 0, 0, 0, 0, 0, 0, 0, 1]\nclass = OAHU", fillcolor="#e53964"] ;
518 -> 519 ;
520 [label="gini = 0.0\nsamples = 1\nvalue = [0, 0, 0, 0, 0, 0, 1, 0, 0]\nclass = MOLOKAI", fillcolor="#8139e5"] ;
518 -> 520 ;
521 [label="gini = 0.0\nsamples = 10\nvalue = [0, 0, 0, 0, 0, 0, 0, 0, 10]\nclass = OAHU", fillcolor="#e53964"] ;
517 -> 521 ;
522 [label="K2O(WT%) <= 5.295\ngini = 0.625\nsamples = 4\nvalue = [1, 0, 0, 0, 0, 0, 2, 0, 1]\nclass = MOLOKAI", fillcolor="#d5bdf6"] ;
516 -> 522 ;
523 [label="gini = 0.0\nsamples = 2\nvalue = [0, 0, 0, 0, 0, 0, 2, 0, 0]\nclass = MOLOKAI", fillcolor="#8139e5"] ;
522 -> 523 ;
524 [label="NA2O(WT%) <= 0.7\ngini = 0.5\nsamples = 2\nvalue = [1, 0, 0, 0, 0, 0, 0, 0, 1]\nclass = HAWAII", fillcolor="#ffffff"] ;
522 -> 524 ;
525 [label="gini = 0.0\nsamples = 1\nvalue = [0, 0, 0, 0, 0, 0, 0, 0, 1]\nclass = OAHU", fillcolor="#e53964"] ;
524 -> 525 ;
526 [label="gini = 0.0\nsamples = 1\nvalue = [1, 0, 0, 0, 0, 0, 0, 0, 0]\nclass = HAWAII", fillcolor="#e58139"] ;
524 -> 526 ;
527 [label="FeO* <= 2.955\ngini = 0.486\nsamples = 27\nvalue = [18, 1, 0, 0, 0, 0, 0, 1, 7]\nclass = HAWAII", fillcolor="#f1ba92"] ;
513 -> 527 ;
528 [label="ISLAND <= 2.56\ngini = 0.568\nsamples = 13\nvalue = [6, 1, 0, 0, 0, 0, 0, 0, 6]\nclass = HAWAII", fillcolor="#ffffff"] ;
527 -> 528 ;
529 [label="gini = 0.0\nsamples = 4\nvalue = [4, 0, 0, 0, 0, 0, 0, 0, 0]\nclass = HAWAII", fillcolor="#e58139"] ;
528 -> 529 ;
530 [label="ISLAND <= 2.83\ngini = 0.494\nsamples = 9\nvalue = [2, 1, 0, 0, 0, 0, 0, 0, 6]\nclass = OAHU", fillcolor="#f08ea6"] ;
528 -> 530 ;
531 [label="gini = 0.0\nsamples = 6\nvalue = [0, 0, 0, 0, 0, 0, 0, 0, 6]\nclass = OAHU", fillcolor="#e53964"] ;
530 -> 531 ;
532 [label="ISLAND <= 2.93\ngini = 0.444\nsamples = 3\nvalue = [2, 1, 0, 0, 0, 0, 0, 0, 0]\nclass = HAWAII", fillcolor="#f2c09c"] ;
530 -> 532 ;
533 [label="gini = 0.0\nsamples = 2\nvalue = [2, 0, 0, 0, 0, 0, 0, 0, 0]\nclass = HAWAII", fillcolor="#e58139"] ;
532 -> 533 ;
534 [label="gini = 0.0\nsamples = 1\nvalue = [0, 1, 0, 0, 0, 0, 0, 0, 0]\nclass = KAHOOLAWE", fillcolor="#d7e539"] ;
532 -> 534 ;
535 [label="CAO(WT%) <= 11.16\ngini = 0.255\nsamples = 14\nvalue = [12, 0, 0, 0, 0, 0, 0, 1, 1]\nclass = HAWAII", fillcolor="#e99457"] ;
527 -> 535 ;
536 [label="gini = 0.0\nsamples = 1\nvalue = [0, 0, 0, 0, 0, 0, 0, 1, 0]\nclass = NIIHAU", fillcolor="#e539d7"] ;
535 -> 536 ;
537 [label="ISLAND <= 2.52\ngini = 0.142\nsamples = 13\nvalue = [12, 0, 0, 0, 0, 0, 0, 0, 1]\nclass = HAWAII", fillcolor="#e78c49"] ;
535 -> 537 ;
538 [label="gini = 0.0\nsamples = 1\nvalue = [0, 0, 0, 0, 0, 0, 0, 0, 1]\nclass = OAHU", fillcolor="#e53964"] ;
537 -> 538 ;
539 [label="gini = 0.0\nsamples = 12\nvalue = [12, 0, 0, 0, 0, 0, 0, 0, 0]\nclass = HAWAII", fillcolor="#e58139"] ;
537 -> 539 ;
540 [label="CAO(WT%) <= 12.419\ngini = 0.285\nsamples = 42\nvalue = [35, 0, 0, 0, 0, 0, 1, 0, 6]\nclass = HAWAII", fillcolor="#ea9a60"] ;
512 -> 540 ;
541 [label="K2O(WT%) <= 3.745\ngini = 0.14\nsamples = 27\nvalue = [25, 0, 0, 0, 0, 0, 1, 0, 1]\nclass = HAWAII", fillcolor="#e78b48"] ;
540 -> 541 ;
542 [label="gini = 0.0\nsamples = 1\nvalue = [0, 0, 0, 0, 0, 0, 0, 0, 1]\nclass = OAHU", fillcolor="#e53964"] ;
541 -> 542 ;
543 [label="CAO(WT%) <= 11.55\ngini = 0.074\nsamples = 26\nvalue = [25, 0, 0, 0, 0, 0, 1, 0, 0]\nclass = HAWAII", fillcolor="#e68641"] ;
541 -> 543 ;
544 [label="TIO2(WT%) <= 13.15\ngini = 0.444\nsamples = 3\nvalue = [2, 0, 0, 0, 0, 0, 1, 0, 0]\nclass = HAWAII", fillcolor="#f2c09c"] ;
543 -> 544 ;
545 [label="gini = 0.0\nsamples = 1\nvalue = [0, 0, 0, 0, 0, 0, 1, 0, 0]\nclass = MOLOKAI", fillcolor="#8139e5"] ;
544 -> 545 ;
546 [label="gini = 0.0\nsamples = 2\nvalue = [2, 0, 0, 0, 0, 0, 0, 0, 0]\nclass = HAWAII", fillcolor="#e58139"] ;
544 -> 546 ;
547 [label="gini = 0.0\nsamples = 23\nvalue = [23, 0, 0, 0, 0, 0, 0, 0, 0]\nclass = HAWAII", fillcolor="#e58139"] ;
543 -> 547 ;
548 [label="FeO* <= 3.91\ngini = 0.444\nsamples = 15\nvalue = [10, 0, 0, 0, 0, 0, 0, 0, 5]\nclass = HAWAII", fillcolor="#f2c09c"] ;
540 -> 548 ;
549 [label="MGO(WT%) <= 9.55\ngini = 0.355\nsamples = 13\nvalue = [10, 0, 0, 0, 0, 0, 0, 0, 3]\nclass = HAWAII", fillcolor="#eda774"] ;
548 -> 549 ;
550 [label="gini = 0.0\nsamples = 9\nvalue = [9, 0, 0, 0, 0, 0, 0, 0, 0]\nclass = HAWAII", fillcolor="#e58139"] ;
549 -> 550 ;
551 [label="NA2O(WT%) <= 0.795\ngini = 0.375\nsamples = 4\nvalue = [1, 0, 0, 0, 0, 0, 0, 0, 3]\nclass = OAHU", fillcolor="#ee7b98"] ;
549 -> 551 ;
552 [label="gini = 0.0\nsamples = 3\nvalue = [0, 0, 0, 0, 0, 0, 0, 0, 3]\nclass = OAHU", fillcolor="#e53964"] ;
551 -> 552 ;
553 [label="gini = 0.0\nsamples = 1\nvalue = [1, 0, 0, 0, 0, 0, 0, 0, 0]\nclass = HAWAII", fillcolor="#e58139"] ;
551 -> 553 ;
554 [label="gini = 0.0\nsamples = 2\nvalue = [0, 0, 0, 0, 0, 0, 0, 0, 2]\nclass = OAHU", fillcolor="#e53964"] ;
548 -> 554 ;
555 [label="AL2O3(WT%) <= 45.96\ngini = 0.447\nsamples = 111\nvalue = [81, 5, 5, 0, 0, 0, 8, 0, 12]\nclass = HAWAII", fillcolor="#eda775"] ;
465 -> 555 ;
556 [label="TIO2(WT%) <= 13.385\ngini = 0.745\nsamples = 14\nvalue = [4, 0, 3, 0, 0, 0, 3, 0, 4]\nclass = HAWAII", fillcolor="#ffffff"] ;
555 -> 556 ;
557 [label="TIO2(WT%) <= 12.9\ngini = 0.49\nsamples = 7\nvalue = [0, 0, 3, 0, 0, 0, 0, 0, 4]\nclass = OAHU", fillcolor="#f8ced8"] ;
556 -> 557 ;
558 [label="gini = 0.0\nsamples = 3\nvalue = [0, 0, 3, 0, 0, 0, 0, 0, 0]\nclass = KAUAI", fillcolor="#64e539"] ;
557 -> 558 ;
559 [label="gini = 0.0\nsamples = 4\nvalue = [0, 0, 0, 0, 0, 0, 0, 0, 4]\nclass = OAHU", fillcolor="#e53964"] ;
557 -> 559 ;
560 [label="NA2O(WT%) <= 0.99\ngini = 0.49\nsamples = 7\nvalue = [4, 0, 0, 0, 0, 0, 3, 0, 0]\nclass = HAWAII", fillcolor="#f8e0ce"] ;
556 -> 560 ;
561 [label="gini = 0.0\nsamples = 3\nvalue = [0, 0, 0, 0, 0, 0, 3, 0, 0]\nclass = MOLOKAI", fillcolor="#8139e5"] ;
560 -> 561 ;
562 [label="gini = 0.0\nsamples = 4\nvalue = [4, 0, 0, 0, 0, 0, 0, 0, 0]\nclass = HAWAII", fillcolor="#e58139"] ;
560 -> 562 ;
563 [label="CAO(WT%) <= 13.269\ngini = 0.357\nsamples = 97\nvalue = [77, 5, 2, 0, 0, 0, 5, 0, 8]\nclass = HAWAII", fillcolor="#eb9d65"] ;
555 -> 563 ;
564 [label="NA2O(WT%) <= 0.32\ngini = 0.333\nsamples = 95\nvalue = [77, 5, 2, 0, 0, 0, 5, 0, 6]\nclass = HAWAII", fillcolor="#ea9a61"] ;
563 -> 564 ;
565 [label="CAO(WT%) <= 11.083\ngini = 0.667\nsamples = 3\nvalue = [0, 1, 0, 0, 0, 0, 1, 0, 1]\nclass = KAHOOLAWE", fillcolor="#ffffff"] ;
564 -> 565 ;
566 [label="gini = 0.0\nsamples = 1\nvalue = [0, 0, 0, 0, 0, 0, 0, 0, 1]\nclass = OAHU", fillcolor="#e53964"] ;
565 -> 566 ;
567 [label="FeO* <= 2.795\ngini = 0.5\nsamples = 2\nvalue = [0, 1, 0, 0, 0, 0, 1, 0, 0]\nclass = KAHOOLAWE", fillcolor="#ffffff"] ;
565 -> 567 ;
568 [label="gini = 0.0\nsamples = 1\nvalue = [0, 0, 0, 0, 0, 0, 1, 0, 0]\nclass = MOLOKAI", fillcolor="#8139e5"] ;
567 -> 568 ;
569 [label="gini = 0.0\nsamples = 1\nvalue = [0, 1, 0, 0, 0, 0, 0, 0, 0]\nclass = KAHOOLAWE", fillcolor="#d7e539"] ;
567 -> 569 ;
570 [label="FeO* <= 1.76\ngini = 0.292\nsamples = 92\nvalue = [77, 4, 2, 0, 0, 0, 4, 0, 5]\nclass = HAWAII", fillcolor="#e9975b"] ;
564 -> 570 ;
571 [label="NA2O(WT%) <= 0.47\ngini = 0.5\nsamples = 2\nvalue = [0, 0, 1, 0, 0, 0, 0, 0, 1]\nclass = KAUAI", fillcolor="#ffffff"] ;
570 -> 571 ;
572 [label="gini = 0.0\nsamples = 1\nvalue = [0, 0, 1, 0, 0, 0, 0, 0, 0]\nclass = KAUAI", fillcolor="#64e539"] ;
571 -> 572 ;
573 [label="gini = 0.0\nsamples = 1\nvalue = [0, 0, 0, 0, 0, 0, 0, 0, 1]\nclass = OAHU", fillcolor="#e53964"] ;
571 -> 573 ;
574 [label="FeO* <= 4.095\ngini = 0.262\nsamples = 90\nvalue = [77, 4, 1, 0, 0, 0, 4, 0, 4]\nclass = HAWAII", fillcolor="#e99457"] ;
570 -> 574 ;
575 [label="MGO(WT%) <= 10.065\ngini = 0.246\nsamples = 89\nvalue = [77, 4, 1, 0, 0, 0, 4, 0, 3]\nclass = HAWAII", fillcolor="#e99355"] ;
574 -> 575 ;
576 [label="TIO2(WT%) <= 12.815\ngini = 0.436\nsamples = 30\nvalue = [22, 4, 0, 0, 0, 0, 2, 0, 2]\nclass = HAWAII", fillcolor="#eda876"] ;
575 -> 576 ;
577 [label="gini = 0.0\nsamples = 17\nvalue = [17, 0, 0, 0, 0, 0, 0, 0, 0]\nclass = HAWAII", fillcolor="#e58139"] ;
576 -> 577 ;
578 [label="CAO(WT%) <= 12.597\ngini = 0.71\nsamples = 13\nvalue = [5, 4, 0, 0, 0, 0, 2, 0, 2]\nclass = HAWAII", fillcolor="#fcf1e9"] ;
576 -> 578 ;
579 [label="FeO* <= 2.86\ngini = 0.628\nsamples = 11\nvalue = [5, 4, 0, 0, 0, 0, 0, 0, 2]\nclass = HAWAII", fillcolor="#fbede3"] ;
578 -> 579 ;
580 [label="FeO* <= 2.145\ngini = 0.444\nsamples = 6\nvalue = [2, 4, 0, 0, 0, 0, 0, 0, 0]\nclass = KAHOOLAWE", fillcolor="#ebf29c"] ;
579 -> 580 ;
581 [label="gini = 0.0\nsamples = 2\nvalue = [2, 0, 0, 0, 0, 0, 0, 0, 0]\nclass = HAWAII", fillcolor="#e58139"] ;
580 -> 581 ;
582 [label="gini = 0.0\nsamples = 4\nvalue = [0, 4, 0, 0, 0, 0, 0, 0, 0]\nclass = KAHOOLAWE", fillcolor="#d7e539"] ;
580 -> 582 ;
583 [label="TIO2(WT%) <= 13.54\ngini = 0.48\nsamples = 5\nvalue = [3, 0, 0, 0, 0, 0, 0, 0, 2]\nclass = HAWAII", fillcolor="#f6d5bd"] ;
579 -> 583 ;
584 [label="gini = 0.0\nsamples = 2\nvalue = [0, 0, 0, 0, 0, 0, 0, 0, 2]\nclass = OAHU", fillcolor="#e53964"] ;
583 -> 584 ;
585 [label="gini = 0.0\nsamples = 3\nvalue = [3, 0, 0, 0, 0, 0, 0, 0, 0]\nclass = HAWAII", fillcolor="#e58139"] ;
583 -> 585 ;
586 [label="gini = 0.0\nsamples = 2\nvalue = [0, 0, 0, 0, 0, 0, 2, 0, 0]\nclass = MOLOKAI", fillcolor="#8139e5"] ;
578 -> 586 ;
587 [label="MGO(WT%) <= 10.795\ngini = 0.129\nsamples = 59\nvalue = [55, 0, 1, 0, 0, 0, 2, 0, 1]\nclass = HAWAII", fillcolor="#e78a47"] ;
575 -> 587 ;
588 [label="gini = 0.0\nsamples = 44\nvalue = [44, 0, 0, 0, 0, 0, 0, 0, 0]\nclass = HAWAII", fillcolor="#e58139"] ;
587 -> 588 ;
589 [label="K2O(WT%) <= 8.635\ngini = 0.436\nsamples = 15\nvalue = [11, 0, 1, 0, 0, 0, 2, 0, 1]\nclass = HAWAII", fillcolor="#eda876"] ;
587 -> 589 ;
590 [label="AL2O3(WT%) <= 50.545\ngini = 0.272\nsamples = 13\nvalue = [11, 0, 0, 0, 0, 0, 1, 0, 1]\nclass = HAWAII", fillcolor="#e9965a"] ;
589 -> 590 ;
591 [label="ISLAND <= 2.665\ngini = 0.153\nsamples = 12\nvalue = [11, 0, 0, 0, 0, 0, 1, 0, 0]\nclass = HAWAII", fillcolor="#e78c4b"] ;
590 -> 591 ;
592 [label="gini = 0.0\nsamples = 10\nvalue = [10, 0, 0, 0, 0, 0, 0, 0, 0]\nclass = HAWAII", fillcolor="#e58139"] ;
591 -> 592 ;
593 [label="NA2O(WT%) <= 0.61\ngini = 0.5\nsamples = 2\nvalue = [1, 0, 0, 0, 0, 0, 1, 0, 0]\nclass = HAWAII", fillcolor="#ffffff"] ;
591 -> 593 ;
594 [label="gini = 0.0\nsamples = 1\nvalue = [0, 0, 0, 0, 0, 0, 1, 0, 0]\nclass = MOLOKAI", fillcolor="#8139e5"] ;
593 -> 594 ;
595 [label="gini = 0.0\nsamples = 1\nvalue = [1, 0, 0, 0, 0, 0, 0, 0, 0]\nclass = HAWAII", fillcolor="#e58139"] ;
593 -> 595 ;
596 [label="gini = 0.0\nsamples = 1\nvalue = [0, 0, 0, 0, 0, 0, 0, 0, 1]\nclass = OAHU", fillcolor="#e53964"] ;
590 -> 596 ;
597 [label="ISLAND <= 2.67\ngini = 0.5\nsamples = 2\nvalue = [0, 0, 1, 0, 0, 0, 1, 0, 0]\nclass = KAUAI", fillcolor="#ffffff"] ;
589 -> 597 ;
598 [label="gini = 0.0\nsamples = 1\nvalue = [0, 0, 0, 0, 0, 0, 1, 0, 0]\nclass = MOLOKAI", fillcolor="#8139e5"] ;
597 -> 598 ;
599 [label="gini = 0.0\nsamples = 1\nvalue = [0, 0, 1, 0, 0, 0, 0, 0, 0]\nclass = KAUAI", fillcolor="#64e539"] ;
597 -> 599 ;
600 [label="gini = 0.0\nsamples = 1\nvalue = [0, 0, 0, 0, 0, 0, 0, 0, 1]\nclass = OAHU", fillcolor="#e53964"] ;
574 -> 600 ;
601 [label="gini = 0.0\nsamples = 2\nvalue = [0, 0, 0, 0, 0, 0, 0, 0, 2]\nclass = OAHU", fillcolor="#e53964"] ;
563 -> 601 ;
602 [label="K2O(WT%) <= 9.855\ngini = 0.755\nsamples = 472\nvalue = [183, 18, 7, 6, 4, 42, 63, 31, 118]\nclass = HAWAII", fillcolor="#fae8db"] ;
122 -> 602 ;
603 [label="FeO* <= 3.035\ngini = 0.742\nsamples = 444\nvalue = [177, 17, 7, 6, 4, 41, 63, 14, 115]\nclass = HAWAII", fillcolor="#fae7da"] ;
602 -> 603 ;
604 [label="NA2O(WT%) <= 0.83\ngini = 0.699\nsamples = 320\nvalue = [145, 16, 5, 6, 4, 26, 21, 6, 91]\nclass = HAWAII", fillcolor="#f9e1d0"] ;
603 -> 604 ;
605 [label="MGO(WT%) <= 10.39\ngini = 0.738\nsamples = 170\nvalue = [53, 13, 4, 1, 4, 9, 15, 6, 65]\nclass = OAHU", fillcolor="#fcebef"] ;
604 -> 605 ;
606 [label="CAO(WT%) <= 11.203\ngini = 0.579\nsamples = 82\nvalue = [11, 5, 0, 0, 3, 1, 8, 3, 51]\nclass = OAHU", fillcolor="#f08fa8"] ;
605 -> 606 ;
607 [label="NA2O(WT%) <= 0.73\ngini = 0.241\nsamples = 53\nvalue = [2, 2, 0, 0, 3, 0, 0, 0, 46]\nclass = OAHU", fillcolor="#e9557a"] ;
606 -> 607 ;
608 [label="TIO2(WT%) <= 14.305\ngini = 0.181\nsamples = 51\nvalue = [2, 0, 0, 0, 3, 0, 0, 0, 46]\nclass = OAHU", fillcolor="#e84e74"] ;
607 -> 608 ;
609 [label="ISLAND <= 2.46\ngini = 0.571\nsamples = 7\nvalue = [2, 0, 0, 0, 1, 0, 0, 0, 4]\nclass = OAHU", fillcolor="#f5b0c1"] ;
608 -> 609 ;
610 [label="ISLAND <= 2.375\ngini = 0.444\nsamples = 3\nvalue = [2, 0, 0, 0, 1, 0, 0, 0, 0]\nclass = HAWAII", fillcolor="#f2c09c"] ;
609 -> 610 ;
611 [label="gini = 0.0\nsamples = 2\nvalue = [2, 0, 0, 0, 0, 0, 0, 0, 0]\nclass = HAWAII", fillcolor="#e58139"] ;
610 -> 611 ;
612 [label="gini = 0.0\nsamples = 1\nvalue = [0, 0, 0, 0, 1, 0, 0, 0, 0]\nclass = LANAI", fillcolor="#39d7e5"] ;
610 -> 612 ;
613 [label="gini = 0.0\nsamples = 4\nvalue = [0, 0, 0, 0, 0, 0, 0, 0, 4]\nclass = OAHU", fillcolor="#e53964"] ;
609 -> 613 ;
614 [label="K2O(WT%) <= 5.7\ngini = 0.087\nsamples = 44\nvalue = [0, 0, 0, 0, 2, 0, 0, 0, 42]\nclass = OAHU", fillcolor="#e6426b"] ;
608 -> 614 ;
615 [label="K2O(WT%) <= 4.565\ngini = 0.5\nsamples = 2\nvalue = [0, 0, 0, 0, 1, 0, 0, 0, 1]\nclass = LANAI", fillcolor="#ffffff"] ;
614 -> 615 ;
616 [label="gini = 0.0\nsamples = 1\nvalue = [0, 0, 0, 0, 0, 0, 0, 0, 1]\nclass = OAHU", fillcolor="#e53964"] ;
615 -> 616 ;
617 [label="gini = 0.0\nsamples = 1\nvalue = [0, 0, 0, 0, 1, 0, 0, 0, 0]\nclass = LANAI", fillcolor="#39d7e5"] ;
615 -> 617 ;
618 [label="CAO(WT%) <= 10.904\ngini = 0.046\nsamples = 42\nvalue = [0, 0, 0, 0, 1, 0, 0, 0, 41]\nclass = OAHU", fillcolor="#e63e68"] ;
614 -> 618 ;
619 [label="gini = 0.0\nsamples = 34\nvalue = [0, 0, 0, 0, 0, 0, 0, 0, 34]\nclass = OAHU", fillcolor="#e53964"] ;
618 -> 619 ;
620 [label="TIO2(WT%) <= 14.545\ngini = 0.219\nsamples = 8\nvalue = [0, 0, 0, 0, 1, 0, 0, 0, 7]\nclass = OAHU", fillcolor="#e9557a"] ;
618 -> 620 ;
621 [label="gini = 0.0\nsamples = 1\nvalue = [0, 0, 0, 0, 1, 0, 0, 0, 0]\nclass = LANAI", fillcolor="#39d7e5"] ;
620 -> 621 ;
622 [label="gini = 0.0\nsamples = 7\nvalue = [0, 0, 0, 0, 0, 0, 0, 0, 7]\nclass = OAHU", fillcolor="#e53964"] ;
620 -> 622 ;
623 [label="gini = 0.0\nsamples = 2\nvalue = [0, 2, 0, 0, 0, 0, 0, 0, 0]\nclass = KAHOOLAWE", fillcolor="#d7e539"] ;
607 -> 623 ;
624 [label="AL2O3(WT%) <= 48.2\ngini = 0.775\nsamples = 29\nvalue = [9, 3, 0, 0, 0, 1, 8, 3, 5]\nclass = HAWAII", fillcolor="#fef9f6"] ;
606 -> 624 ;
625 [label="FeO* <= 2.49\ngini = 0.219\nsamples = 8\nvalue = [0, 0, 0, 0, 0, 1, 7, 0, 0]\nclass = MOLOKAI", fillcolor="#9355e9"] ;
624 -> 625 ;
626 [label="gini = 0.0\nsamples = 1\nvalue = [0, 0, 0, 0, 0, 1, 0, 0, 0]\nclass = MAUI", fillcolor="#3964e5"] ;
625 -> 626 ;
627 [label="gini = 0.0\nsamples = 7\nvalue = [0, 0, 0, 0, 0, 0, 7, 0, 0]\nclass = MOLOKAI", fillcolor="#8139e5"] ;
625 -> 627 ;
628 [label="NA2O(WT%) <= 0.19\ngini = 0.717\nsamples = 21\nvalue = [9, 3, 0, 0, 0, 0, 1, 3, 5]\nclass = HAWAII", fillcolor="#f8e0ce"] ;
624 -> 628 ;
629 [label="TIO2(WT%) <= 14.99\ngini = 0.56\nsamples = 5\nvalue = [0, 3, 0, 0, 0, 0, 1, 1, 0]\nclass = KAHOOLAWE", fillcolor="#ebf29c"] ;
628 -> 629 ;
630 [label="NA2O(WT%) <= 0.135\ngini = 0.5\nsamples = 2\nvalue = [0, 0, 0, 0, 0, 0, 1, 1, 0]\nclass = MOLOKAI", fillcolor="#ffffff"] ;
629 -> 630 ;
631 [label="gini = 0.0\nsamples = 1\nvalue = [0, 0, 0, 0, 0, 0, 1, 0, 0]\nclass = MOLOKAI", fillcolor="#8139e5"] ;
630 -> 631 ;
632 [label="gini = 0.0\nsamples = 1\nvalue = [0, 0, 0, 0, 0, 0, 0, 1, 0]\nclass = NIIHAU", fillcolor="#e539d7"] ;
630 -> 632 ;
633 [label="gini = 0.0\nsamples = 3\nvalue = [0, 3, 0, 0, 0, 0, 0, 0, 0]\nclass = KAHOOLAWE", fillcolor="#d7e539"] ;
629 -> 633 ;
634 [label="TIO2(WT%) <= 14.6\ngini = 0.57\nsamples = 16\nvalue = [9, 0, 0, 0, 0, 0, 0, 2, 5]\nclass = HAWAII", fillcolor="#f6d1b7"] ;
628 -> 634 ;
635 [label="CAO(WT%) <= 11.313\ngini = 0.375\nsamples = 8\nvalue = [6, 0, 0, 0, 0, 0, 0, 2, 0]\nclass = HAWAII", fillcolor="#eeab7b"] ;
634 -> 635 ;
636 [label="gini = 0.0\nsamples = 1\nvalue = [0, 0, 0, 0, 0, 0, 0, 1, 0]\nclass = NIIHAU", fillcolor="#e539d7"] ;
635 -> 636 ;
637 [label="FeO* <= 2.24\ngini = 0.245\nsamples = 7\nvalue = [6, 0, 0, 0, 0, 0, 0, 1, 0]\nclass = HAWAII", fillcolor="#e9965a"] ;
635 -> 637 ;
638 [label="gini = 0.0\nsamples = 1\nvalue = [0, 0, 0, 0, 0, 0, 0, 1, 0]\nclass = NIIHAU", fillcolor="#e539d7"] ;
637 -> 638 ;
639 [label="gini = 0.0\nsamples = 6\nvalue = [6, 0, 0, 0, 0, 0, 0, 0, 0]\nclass = HAWAII", fillcolor="#e58139"] ;
637 -> 639 ;
640 [label="CAO(WT%) <= 12.124\ngini = 0.469\nsamples = 8\nvalue = [3, 0, 0, 0, 0, 0, 0, 0, 5]\nclass = OAHU", fillcolor="#f5b0c1"] ;
634 -> 640 ;
641 [label="gini = 0.0\nsamples = 5\nvalue = [0, 0, 0, 0, 0, 0, 0, 0, 5]\nclass = OAHU", fillcolor="#e53964"] ;
640 -> 641 ;
642 [label="gini = 0.0\nsamples = 3\nvalue = [3, 0, 0, 0, 0, 0, 0, 0, 0]\nclass = HAWAII", fillcolor="#e58139"] ;
640 -> 642 ;
643 [label="ISLAND <= 2.49\ngini = 0.721\nsamples = 88\nvalue = [42, 8, 4, 1, 1, 8, 7, 3, 14]\nclass = HAWAII", fillcolor="#f5cfb4"] ;
605 -> 643 ;
644 [label="AL2O3(WT%) <= 49.995\ngini = 0.635\nsamples = 65\nvalue = [37, 3, 4, 1, 1, 8, 1, 1, 9]\nclass = HAWAII", fillcolor="#f2c09c"] ;
643 -> 644 ;
645 [label="MGO(WT%) <= 11.195\ngini = 0.72\nsamples = 45\nvalue = [20, 2, 4, 1, 0, 8, 1, 0, 9]\nclass = HAWAII", fillcolor="#f7d8c2"] ;
644 -> 645 ;
646 [label="NA2O(WT%) <= 0.154\ngini = 0.749\nsamples = 27\nvalue = [7, 1, 4, 0, 0, 6, 0, 0, 9]\nclass = OAHU", fillcolor="#fcebf0"] ;
645 -> 646 ;
647 [label="gini = 0.0\nsamples = 6\nvalue = [6, 0, 0, 0, 0, 0, 0, 0, 0]\nclass = HAWAII", fillcolor="#e58139"] ;
646 -> 647 ;
648 [label="AL2O3(WT%) <= 48.185\ngini = 0.694\nsamples = 21\nvalue = [1, 1, 4, 0, 0, 6, 0, 0, 9]\nclass = OAHU", fillcolor="#fad7e0"] ;
646 -> 648 ;
649 [label="AL2O3(WT%) <= 46.445\ngini = 0.32\nsamples = 5\nvalue = [1, 0, 0, 0, 0, 4, 0, 0, 0]\nclass = MAUI", fillcolor="#6a8bec"] ;
648 -> 649 ;
650 [label="gini = 0.0\nsamples = 1\nvalue = [1, 0, 0, 0, 0, 0, 0, 0, 0]\nclass = HAWAII", fillcolor="#e58139"] ;
649 -> 650 ;
651 [label="gini = 0.0\nsamples = 4\nvalue = [0, 0, 0, 0, 0, 4, 0, 0, 0]\nclass = MAUI", fillcolor="#3964e5"] ;
649 -> 651 ;
652 [label="CAO(WT%) <= 11.153\ngini = 0.602\nsamples = 16\nvalue = [0, 1, 4, 0, 0, 2, 0, 0, 9]\nclass = OAHU", fillcolor="#f4acbe"] ;
648 -> 652 ;
653 [label="ISLAND <= 2.315\ngini = 0.34\nsamples = 10\nvalue = [0, 1, 0, 0, 0, 1, 0, 0, 8]\nclass = OAHU", fillcolor="#eb6586"] ;
652 -> 653 ;
654 [label="TIO2(WT%) <= 14.25\ngini = 0.198\nsamples = 9\nvalue = [0, 0, 0, 0, 0, 1, 0, 0, 8]\nclass = OAHU", fillcolor="#e85277"] ;
653 -> 654 ;
655 [label="gini = 0.0\nsamples = 1\nvalue = [0, 0, 0, 0, 0, 1, 0, 0, 0]\nclass = MAUI", fillcolor="#3964e5"] ;
654 -> 655 ;
656 [label="gini = 0.0\nsamples = 8\nvalue = [0, 0, 0, 0, 0, 0, 0, 0, 8]\nclass = OAHU", fillcolor="#e53964"] ;
654 -> 656 ;
657 [label="gini = 0.0\nsamples = 1\nvalue = [0, 1, 0, 0, 0, 0, 0, 0, 0]\nclass = KAHOOLAWE", fillcolor="#d7e539"] ;
653 -> 657 ;
658 [label="TIO2(WT%) <= 14.36\ngini = 0.5\nsamples = 6\nvalue = [0, 0, 4, 0, 0, 1, 0, 0, 1]\nclass = KAUAI", fillcolor="#a2ef88"] ;
652 -> 658 ;
659 [label="AL2O3(WT%) <= 48.455\ngini = 0.5\nsamples = 2\nvalue = [0, 0, 0, 0, 0, 1, 0, 0, 1]\nclass = MAUI", fillcolor="#ffffff"] ;
658 -> 659 ;
660 [label="gini = 0.0\nsamples = 1\nvalue = [0, 0, 0, 0, 0, 0, 0, 0, 1]\nclass = OAHU", fillcolor="#e53964"] ;
659 -> 660 ;
661 [label="gini = 0.0\nsamples = 1\nvalue = [0, 0, 0, 0, 0, 1, 0, 0, 0]\nclass = MAUI", fillcolor="#3964e5"] ;
659 -> 661 ;
662 [label="gini = 0.0\nsamples = 4\nvalue = [0, 0, 4, 0, 0, 0, 0, 0, 0]\nclass = KAUAI", fillcolor="#64e539"] ;
658 -> 662 ;
663 [label="FeO* <= 1.77\ngini = 0.457\nsamples = 18\nvalue = [13, 1, 0, 1, 0, 2, 1, 0, 0]\nclass = HAWAII", fillcolor="#eda877"] ;
645 -> 663 ;
664 [label="gini = 0.0\nsamples = 1\nvalue = [0, 0, 0, 1, 0, 0, 0, 0, 0]\nclass = KAULA", fillcolor="#39e581"] ;
663 -> 664 ;
665 [label="TIO2(WT%) <= 14.34\ngini = 0.394\nsamples = 17\nvalue = [13, 1, 0, 0, 0, 2, 1, 0, 0]\nclass = HAWAII", fillcolor="#eca36e"] ;
663 -> 665 ;
666 [label="gini = 0.0\nsamples = 1\nvalue = [0, 0, 0, 0, 0, 0, 1, 0, 0]\nclass = MOLOKAI", fillcolor="#8139e5"] ;
665 -> 666 ;
667 [label="ISLAND <= 2.025\ngini = 0.32\nsamples = 16\nvalue = [13, 1, 0, 0, 0, 2, 0, 0, 0]\nclass = HAWAII", fillcolor="#eb9c63"] ;
665 -> 667 ;
668 [label="CAO(WT%) <= 10.682\ngini = 0.5\nsamples = 4\nvalue = [2, 0, 0, 0, 0, 2, 0, 0, 0]\nclass = HAWAII", fillcolor="#ffffff"] ;
667 -> 668 ;
669 [label="gini = 0.0\nsamples = 2\nvalue = [2, 0, 0, 0, 0, 0, 0, 0, 0]\nclass = HAWAII", fillcolor="#e58139"] ;
668 -> 669 ;
670 [label="gini = 0.0\nsamples = 2\nvalue = [0, 0, 0, 0, 0, 2, 0, 0, 0]\nclass = MAUI", fillcolor="#3964e5"] ;
668 -> 670 ;
671 [label="NA2O(WT%) <= 0.115\ngini = 0.153\nsamples = 12\nvalue = [11, 1, 0, 0, 0, 0, 0, 0, 0]\nclass = HAWAII", fillcolor="#e78c4b"] ;
667 -> 671 ;
672 [label="gini = 0.0\nsamples = 1\nvalue = [0, 1, 0, 0, 0, 0, 0, 0, 0]\nclass = KAHOOLAWE", fillcolor="#d7e539"] ;
671 -> 672 ;
673 [label="gini = 0.0\nsamples = 11\nvalue = [11, 0, 0, 0, 0, 0, 0, 0, 0]\nclass = HAWAII", fillcolor="#e58139"] ;
671 -> 673 ;
674 [label="NA2O(WT%) <= 0.29\ngini = 0.27\nsamples = 20\nvalue = [17, 1, 0, 0, 1, 0, 0, 1, 0]\nclass = HAWAII", fillcolor="#e99558"] ;
644 -> 674 ;
675 [label="K2O(WT%) <= 7.21\ngini = 0.5\nsamples = 2\nvalue = [0, 1, 0, 0, 0, 0, 0, 1, 0]\nclass = KAHOOLAWE", fillcolor="#ffffff"] ;
674 -> 675 ;
676 [label="gini = 0.0\nsamples = 1\nvalue = [0, 0, 0, 0, 0, 0, 0, 1, 0]\nclass = NIIHAU", fillcolor="#e539d7"] ;
675 -> 676 ;
677 [label="gini = 0.0\nsamples = 1\nvalue = [0, 1, 0, 0, 0, 0, 0, 0, 0]\nclass = KAHOOLAWE", fillcolor="#d7e539"] ;
675 -> 677 ;
678 [label="NA2O(WT%) <= 0.615\ngini = 0.105\nsamples = 18\nvalue = [17, 0, 0, 0, 1, 0, 0, 0, 0]\nclass = HAWAII", fillcolor="#e78845"] ;
674 -> 678 ;
679 [label="gini = 0.0\nsamples = 17\nvalue = [17, 0, 0, 0, 0, 0, 0, 0, 0]\nclass = HAWAII", fillcolor="#e58139"] ;
678 -> 679 ;
680 [label="gini = 0.0\nsamples = 1\nvalue = [0, 0, 0, 0, 1, 0, 0, 0, 0]\nclass = LANAI", fillcolor="#39d7e5"] ;
678 -> 680 ;
681 [label="NA2O(WT%) <= 0.55\ngini = 0.783\nsamples = 23\nvalue = [5, 5, 0, 0, 0, 0, 6, 2, 5]\nclass = MOLOKAI", fillcolor="#f8f4fe"] ;
643 -> 681 ;
682 [label="K2O(WT%) <= 6.445\ngini = 0.66\nsamples = 10\nvalue = [1, 5, 0, 0, 0, 0, 0, 2, 2]\nclass = KAHOOLAWE", fillcolor="#f0f5b5"] ;
681 -> 682 ;
683 [label="gini = 0.0\nsamples = 5\nvalue = [0, 5, 0, 0, 0, 0, 0, 0, 0]\nclass = KAHOOLAWE", fillcolor="#d7e539"] ;
682 -> 683 ;
684 [label="NA2O(WT%) <= 0.39\ngini = 0.64\nsamples = 5\nvalue = [1, 0, 0, 0, 0, 0, 0, 2, 2]\nclass = NIIHAU", fillcolor="#ffffff"] ;
682 -> 684 ;
685 [label="gini = 0.0\nsamples = 2\nvalue = [0, 0, 0, 0, 0, 0, 0, 0, 2]\nclass = OAHU", fillcolor="#e53964"] ;
684 -> 685 ;
686 [label="TIO2(WT%) <= 15.305\ngini = 0.444\nsamples = 3\nvalue = [1, 0, 0, 0, 0, 0, 0, 2, 0]\nclass = NIIHAU", fillcolor="#f29ceb"] ;
684 -> 686 ;
687 [label="gini = 0.0\nsamples = 1\nvalue = [1, 0, 0, 0, 0, 0, 0, 0, 0]\nclass = HAWAII", fillcolor="#e58139"] ;
686 -> 687 ;
688 [label="gini = 0.0\nsamples = 2\nvalue = [0, 0, 0, 0, 0, 0, 0, 2, 0]\nclass = NIIHAU", fillcolor="#e539d7"] ;
686 -> 688 ;
689 [label="FeO* <= 2.87\ngini = 0.639\nsamples = 13\nvalue = [4, 0, 0, 0, 0, 0, 6, 0, 3]\nclass = MOLOKAI", fillcolor="#e3d3f9"] ;
681 -> 689 ;
690 [label="FeO* <= 2.07\ngini = 0.494\nsamples = 9\nvalue = [4, 0, 0, 0, 0, 0, 5, 0, 0]\nclass = MOLOKAI", fillcolor="#e6d7fa"] ;
689 -> 690 ;
691 [label="gini = 0.0\nsamples = 3\nvalue = [0, 0, 0, 0, 0, 0, 3, 0, 0]\nclass = MOLOKAI", fillcolor="#8139e5"] ;
690 -> 691 ;
692 [label="FeO* <= 2.67\ngini = 0.444\nsamples = 6\nvalue = [4, 0, 0, 0, 0, 0, 2, 0, 0]\nclass = HAWAII", fillcolor="#f2c09c"] ;
690 -> 692 ;
693 [label="gini = 0.0\nsamples = 3\nvalue = [3, 0, 0, 0, 0, 0, 0, 0, 0]\nclass = HAWAII", fillcolor="#e58139"] ;
692 -> 693 ;
694 [label="NA2O(WT%) <= 0.672\ngini = 0.444\nsamples = 3\nvalue = [1, 0, 0, 0, 0, 0, 2, 0, 0]\nclass = MOLOKAI", fillcolor="#c09cf2"] ;
692 -> 694 ;
695 [label="gini = 0.0\nsamples = 2\nvalue = [0, 0, 0, 0, 0, 0, 2, 0, 0]\nclass = MOLOKAI", fillcolor="#8139e5"] ;
694 -> 695 ;
696 [label="gini = 0.0\nsamples = 1\nvalue = [1, 0, 0, 0, 0, 0, 0, 0, 0]\nclass = HAWAII", fillcolor="#e58139"] ;
694 -> 696 ;
697 [label="K2O(WT%) <= 5.72\ngini = 0.375\nsamples = 4\nvalue = [0, 0, 0, 0, 0, 0, 1, 0, 3]\nclass = OAHU", fillcolor="#ee7b98"] ;
689 -> 697 ;
698 [label="gini = 0.0\nsamples = 1\nvalue = [0, 0, 0, 0, 0, 0, 1, 0, 0]\nclass = MOLOKAI", fillcolor="#8139e5"] ;
697 -> 698 ;
699 [label="gini = 0.0\nsamples = 3\nvalue = [0, 0, 0, 0, 0, 0, 0, 0, 3]\nclass = OAHU", fillcolor="#e53964"] ;
697 -> 699 ;
700 [label="K2O(WT%) <= 3.035\ngini = 0.578\nsamples = 150\nvalue = [92, 3, 1, 5, 0, 17, 6, 0, 26]\nclass = HAWAII", fillcolor="#f1bc96"] ;
604 -> 700 ;
701 [label="CAO(WT%) <= 3.112\ngini = 0.72\nsamples = 52\nvalue = [20, 0, 1, 4, 0, 17, 5, 0, 5]\nclass = HAWAII", fillcolor="#fdf4ee"] ;
700 -> 701 ;
702 [label="ISLAND <= 5.62\ngini = 0.49\nsamples = 7\nvalue = [0, 0, 0, 4, 0, 0, 0, 0, 3]\nclass = KAULA", fillcolor="#cef8e0"] ;
701 -> 702 ;
703 [label="gini = 0.0\nsamples = 3\nvalue = [0, 0, 0, 0, 0, 0, 0, 0, 3]\nclass = OAHU", fillcolor="#e53964"] ;
702 -> 703 ;
704 [label="gini = 0.0\nsamples = 4\nvalue = [0, 0, 0, 4, 0, 0, 0, 0, 0]\nclass = KAULA", fillcolor="#39e581"] ;
702 -> 704 ;
705 [label="TIO2(WT%) <= 18.055\ngini = 0.645\nsamples = 45\nvalue = [20, 0, 1, 0, 0, 17, 5, 0, 2]\nclass = HAWAII", fillcolor="#fcf2ea"] ;
701 -> 705 ;
706 [label="FeO* <= 1.77\ngini = 0.618\nsamples = 31\nvalue = [17, 0, 0, 0, 0, 7, 5, 0, 2]\nclass = HAWAII", fillcolor="#f4caad"] ;
705 -> 706 ;
707 [label="TIO2(WT%) <= 17.365\ngini = 0.335\nsamples = 20\nvalue = [16, 0, 0, 0, 0, 3, 1, 0, 0]\nclass = HAWAII", fillcolor="#eb9f68"] ;
706 -> 707 ;
708 [label="ISLAND <= 5.965\ngini = 0.64\nsamples = 5\nvalue = [2, 0, 0, 0, 0, 2, 1, 0, 0]\nclass = HAWAII", fillcolor="#ffffff"] ;
707 -> 708 ;
709 [label="AL2O3(WT%) <= 55.965\ngini = 0.444\nsamples = 3\nvalue = [2, 0, 0, 0, 0, 0, 1, 0, 0]\nclass = HAWAII", fillcolor="#f2c09c"] ;
708 -> 709 ;
710 [label="gini = 0.0\nsamples = 2\nvalue = [2, 0, 0, 0, 0, 0, 0, 0, 0]\nclass = HAWAII", fillcolor="#e58139"] ;
709 -> 710 ;
711 [label="gini = 0.0\nsamples = 1\nvalue = [0, 0, 0, 0, 0, 0, 1, 0, 0]\nclass = MOLOKAI", fillcolor="#8139e5"] ;
709 -> 711 ;
712 [label="gini = 0.0\nsamples = 2\nvalue = [0, 0, 0, 0, 0, 2, 0, 0, 0]\nclass = MAUI", fillcolor="#3964e5"] ;
708 -> 712 ;
713 [label="K2O(WT%) <= 1.435\ngini = 0.124\nsamples = 15\nvalue = [14, 0, 0, 0, 0, 1, 0, 0, 0]\nclass = HAWAII", fillcolor="#e78a47"] ;
707 -> 713 ;
714 [label="AL2O3(WT%) <= 58.255\ngini = 0.278\nsamples = 6\nvalue = [5, 0, 0, 0, 0, 1, 0, 0, 0]\nclass = HAWAII", fillcolor="#ea9a61"] ;
713 -> 714 ;
715 [label="gini = 0.0\nsamples = 1\nvalue = [0, 0, 0, 0, 0, 1, 0, 0, 0]\nclass = MAUI", fillcolor="#3964e5"] ;
714 -> 715 ;
716 [label="gini = 0.0\nsamples = 5\nvalue = [5, 0, 0, 0, 0, 0, 0, 0, 0]\nclass = HAWAII", fillcolor="#e58139"] ;
714 -> 716 ;
717 [label="gini = 0.0\nsamples = 9\nvalue = [9, 0, 0, 0, 0, 0, 0, 0, 0]\nclass = HAWAII", fillcolor="#e58139"] ;
713 -> 717 ;
718 [label="AL2O3(WT%) <= 51.33\ngini = 0.694\nsamples = 11\nvalue = [1, 0, 0, 0, 0, 4, 4, 0, 2]\nclass = MAUI", fillcolor="#ffffff"] ;
706 -> 718 ;
719 [label="gini = 0.0\nsamples = 3\nvalue = [0, 0, 0, 0, 0, 3, 0, 0, 0]\nclass = MAUI", fillcolor="#3964e5"] ;
718 -> 719 ;
720 [label="AL2O3(WT%) <= 53.51\ngini = 0.656\nsamples = 8\nvalue = [1, 0, 0, 0, 0, 1, 4, 0, 2]\nclass = MOLOKAI", fillcolor="#d5bdf6"] ;
718 -> 720 ;
721 [label="gini = 0.0\nsamples = 4\nvalue = [0, 0, 0, 0, 0, 0, 4, 0, 0]\nclass = MOLOKAI", fillcolor="#8139e5"] ;
720 -> 721 ;
722 [label="ISLAND <= 5.245\ngini = 0.625\nsamples = 4\nvalue = [1, 0, 0, 0, 0, 1, 0, 0, 2]\nclass = OAHU", fillcolor="#f6bdcb"] ;
720 -> 722 ;
723 [label="gini = 0.0\nsamples = 2\nvalue = [0, 0, 0, 0, 0, 0, 0, 0, 2]\nclass = OAHU", fillcolor="#e53964"] ;
722 -> 723 ;
724 [label="CAO(WT%) <= 8.495\ngini = 0.5\nsamples = 2\nvalue = [1, 0, 0, 0, 0, 1, 0, 0, 0]\nclass = HAWAII", fillcolor="#ffffff"] ;
722 -> 724 ;
725 [label="gini = 0.0\nsamples = 1\nvalue = [1, 0, 0, 0, 0, 0, 0, 0, 0]\nclass = HAWAII", fillcolor="#e58139"] ;
724 -> 725 ;
726 [label="gini = 0.0\nsamples = 1\nvalue = [0, 0, 0, 0, 0, 1, 0, 0, 0]\nclass = MAUI", fillcolor="#3964e5"] ;
724 -> 726 ;
727 [label="ISLAND <= 4.825\ngini = 0.439\nsamples = 14\nvalue = [3, 0, 1, 0, 0, 10, 0, 0, 0]\nclass = MAUI", fillcolor="#819cee"] ;
705 -> 727 ;
